{"layers":[784,200,80,10],"weights":[[[-0.042350014836352985,0.0006921896490709656,0.020180326556289183,0.013031223909392159,-0.012998884200238531,-0.020488030792892454,0.03302234177625603,-0.05556626008932382,0.04075912303752234,0.010787813259497878,0.027481636463368226,0.12831881032575804,0.06961443162852399,0.03049609210468435,0.07522535430442105,-0.019377316794052305,0.013259569838352614,0.019036725299663375,0.006922244808918574,-0.0629426388802374,0.0066815376996592814,-0.035360897505013845,0.021705584272631587,0.027885678990758483,0.019208034346637454,-0.008250436790123779,-0.008737292304863486,-0.0010681130625618544,0.04837363084765898,0.028700584920930198,0.006221756686770575,0.04688911916187847,-0.0817975451812925,0.011750928850173536,-0.009779200530528873,-0.005389239733322027,-0.01156229623856596,0.004228499527383708,0.003924900914431872,0.022767063422910787,0.014837760145458396,-0.011485642326138277,-0.05426453029575152,0.021506889737132263,0.014972656930525527,0.0016075743212412691,0.04068882636645326,0.010781558820121986,0.014776216256137058,0.007189836549799115,-0.01214152929122788,0.027271940084127966,-0.02300140857524801,-0.012320777603211862,0.01820188003194768,-0.02165873079569403,0.033356943079035396,0.006409958786765326,-0.014481063113447828,-0.0016731763302808957,0.017688362037538385,0.04359037320628763,0.020111444761543484,0.0022615234361238606,-0.006386949859846338,0.008697309877546992,0.02611657558792896,0.015502428427895329,-0.020427812040236085,0.01579830935336029,0.02878549379282952,-0.03201222464115524,-0.028704018948145137,-0.042313060787291135,0.01648489981313845,0.0015969170421274484,-0.019425806151063353,0.0027728818802076932,0.012617896964648158,-0.0466564767201664,-0.06200247064096008,0.0023363912740575143,0.0670854670303269,-0.014265707265813221,0.0880915289026261,0.03603842760748497,0.04754331507979314,-0.060358265282906366,-0.03611059050899231,-0.011813888055281586,-0.059388996231806844,-0.03329472930029721,0.027594685026363447,0.031885748136030914,-0.07803986316274825,-0.0021012807123976605,0.03473547497750246,-0.019896724311253694,-0.017192198358178756,0.017231596171982045,-0.01075792828690262,-0.0378879381539901,-0.03364082323855029,-0.042808769287667685,-0.010902654318929653,-0.05872032324159364,-0.0014029201532768738,-0.07227476739897483,-0.009419198040297954,-0.025441782525650665,-0.0009046687502415633,0.03374417345509439,0.016351416830439936,-0.0013926736501494368,-0.07793710503806163,-0.027043681320506628,0.01673835070759088,0.017575607971535883,-0.02386950089919615,-0.012434957164744036,0.0375947788571605,-0.024635617996426093,0.012270393888409267,-0.01316062307397347,0.015793138542103343,-0.02228818007417383,-0.04233225093764506,0.03620761610835415,0.03628964656342147,0.03958685187367004,0.02195693110489397,0.02601995550077728,-0.03861397221350304,-0.05278519816421776,-0.029297905639224124,-0.017836844752548476,0.048749581054566615,-0.014194330260655235,-0.018805632629194075,-0.027883116471965976,0.0022959028185117066,-0.01431890089060689,0.03408473950020109,0.014806651757784669,-0.05475338567241476,0.0543586169916857,-0.0370312592618781,-0.0006512118807487288,0.005575771182960046,-0.049993144308865034,-0.005941657030813929,0.08914868868364133,-0.009571777594474968,0.03261203623824175,0.05260385019388031,0.07742830290061552,-0.008839308478520477,-0.009909842231119634,0.037798485552298186,0.012133427965475141,0.004893317546261669,0.011419423302912637,0.016104671464045896,-0.030932445033640763,-0.01565456351761577,0.02830244461227376,-0.025276624846814002,-0.07141551026122436,-0.04526877630797612,0.017142248044676525,0.055694386402117,-0.016627803607647786,-0.03601100691153382,-0.0068331113241783745,0.009111324943666475,-0.03278163422772993,0.024857467583421358,0.011851808840984638,0.03647311526277676,0.04185073158721294,-0.013178633670672025,-0.0060103033137277806,0.05042490883539843,0.09252970656872195,0.03906972349220287,0.04073770790042101,0.003941454848551925,0.030068077570199015,0.024333464351915673,-0.008004056613509024,0.027157889305952483,-0.04741021498754608,0.05093090668341392,-0.028414020937709356,0.042767888596796255,-0.03344596258012594,-0.03773104873116255,0.016281225485643397,-0.032640238121142806,0.026182919281937063,-0.03063104039946941,-0.026524952150110966,0.013052578918601227,0.013974737043172779,-0.012132945617091724,0.000015905436424268226,-0.05254605161592264,0.03453337585522731,0.002767721039251692,0.0416514825725186,-0.034941065477241115,-0.011338861876924176,0.04446497047782648,0.07579064867154958,-0.02019325290676001,0.030958378617875565,0.023515989424017524,0.04690266660204084,-0.002826285686804388,-0.0013898147365568284,0.019000358773102636,-0.07285827654429662,0.00044872758029658715,-0.014884964212762749,-0.051653991936516305,-0.018683128618332854,0.019185843927086527,0.02336767930939457,-0.09857758559442924,0.0005849580895481684,-0.07618355648065296,-0.018432550486102393,0.01285666183887639,-0.008490941454836965,-0.019343656890817563,-0.03941011470839851,0.036897151741223426,-0.009936617087129247,0.02798400915851278,-0.012203587836178227,0.021905998161119416,-0.0009554731890828318,0.0044211233246855665,0.006965022755393445,-0.06641808046255789,0.01236075063234555,-0.0013639473890409357,0.03238789859719256,-0.055410957075118394,-0.029840977174579963,-0.03263179116585996,-0.00974842390017355,-0.03493308986311118,-0.012507803919594626,-0.03851918848857707,0.03956769086127263,-0.02308588976097638,-0.04424841580942763,0.021981252188206173,-0.004061713210305662,0.03148023926584225,-0.023752151998103602,0.007040534581987251,0.011138247861162626,0.007778557571362781,-0.033885175630981625,-0.007058359040886443,-0.03834369615863122,-0.022922214743659786,-0.026897738598439535,0.0365899638222639,-0.025602504216804853,-0.005880475925765412,-0.0054801921872821065,-0.008837707781355713,0.05123628199018147,0.07436750512104631,0.031177672696845175,-0.006823922118616199,-0.014779111732670035,-0.06457989152458689,0.012483652520931926,-0.03875742001686106,0.0041575462915220286,-0.16099303652615715,-0.0066911206259007315,-0.008648367472312582,0.01801155781082958,0.05726476251132517,0.018022582288095723,0.008620929366041643,-0.044941677372594996,0.00890610241394123,-0.005825284376093792,0.0009737225036739234,0.0636101117854491,-0.05540944816065427,-0.04196112683486373,0.048662773650882465,-0.038411047565150715,0.0017821461005518497,0.05266848416278177,-0.005696640275729868,0.015267500342702748,0.05744814383505868,0.0635235046690515,-0.04009513747618598,0.020273319291306234,-0.013248470591129363,0.031909473863574726,0.05544614882320318,0.02006558102580541,0.0778290896326437,0.017334418288138104,-0.023634057877456816,-0.04008411384134413,0.0499567026535703,-0.048917913095970704,-0.03651219946130101,-0.0181022353975965,0.05629249578637966,-0.031679501464144985,0.0349802111067347,-0.025911532144216046,-0.00663258793301106,-0.04914519966942089,-0.03667497390047536,0.06172700287632735,0.010819517895236472,-0.017474737906069997,-0.002682752015791917,-0.01800939697297945,0.03862096259776584,0.021154707290797162,0.04034477060316491,-0.0056027844245038995,-0.008335631878607096,0.003174606517592762,-0.02295454423152736,0.0021212065739717513,0.021737733457943446,0.006816874552920847,0.009690573713082625,-0.03973542743795937,-0.010803018239525222,-0.057548137714730496,0.07041984283108371,-0.01834320354166058,0.005517359395034171,0.02500285498080759,0.030862166443541145,-0.024668199188135686,-0.009292603067678899,-0.008762245634345814,-0.02062006692372359,0.04769460605217249,-0.03579450347110622,0.031388189394568056,-0.012090167893519856,-0.08969169741449283,0.0035168041065889977,-0.010728998546188112,-0.01810707446737957,-0.0551757034173655,-0.013897597172427606,0.0681198701314897,-0.031466534271793876,-0.032650248872722214,-0.01003460435390877,-0.04906188169880631,0.017585302682213234,-0.05664870581934386,0.024747085889174947,0.02029476003033885,0.03606414540887358,-0.04567394606445182,-0.03943675311893857,0.009860919530600273,0.011814542444953611,-0.03307201001386927,-0.09584974609213799,-0.024807437810892435,-0.04874768806372357,0.00862450302157721,0.033793426712293045,-0.08736076434447501,-0.009483809676517912,-0.03804585131389408,-0.008175110427381229,0.09183005902995386,-0.036815986223035224,-0.02402369023343336,0.03567480608693316,-0.02249032408450052,0.0655704616007707,0.028303432009261626,-0.006947146021829186,-0.006572601833733765,-0.00713740828115793,-0.017125704345088085,-0.03936441134622828,-0.009761242772870833,0.03866624045497857,-0.012668837879809863,0.015392760094797573,-0.01918918405365747,0.0010169333382077047,0.025612795860559673,0.01152783930758557,-0.04306610447658551,0.039714639551924016,-0.009860997324673802,-0.03805642512698814,-0.020960888232232102,0.01745193548502496,-0.018261501480425223,-0.006824936709359529,0.030729340096586323,0.04166725016853419,-0.0046892682066541,0.012485499777191376,-0.02830177299467863,-0.06275977000594758,-0.02361647614690081,0.013573776622265535,0.053791714105417304,0.0073447479968270345,-0.038410713494099316,-0.04326162986856212,-0.06431171568298201,-0.011979428470048941,0.0045244523476970335,0.06706657067919224,-0.005969165436101536,-0.015701161347190618,0.016420997727033086,-0.04785116166496509,-0.01368306718464798,-0.0569665129744044,0.003222089564608996,-0.013355438651995793,0.07720766128145098,0.0011406181249023636,0.022254571366805018,0.031838225577579364,0.007433287582626042,-0.035491349516913524,-0.04390132851716479,-0.07923683296786338,0.017039638100868646,-0.0643490037528055,-0.00882689927957075,-0.0013866028239994358,0.07317633562157502,0.02782806429143945,0.042379721150237165,0.004382680874382557,-0.05813139848548789,-0.03548530986947882,-0.032885230188927625,0.002101198129643896,0.06571437475269502,0.0036613368158306147,-0.06652178450292125,-0.03555080464847583,0.02221479365375748,-0.0014838878915836348,-0.014962075086133512,-0.014317415977775482,0.0296068289025795,-0.015869751601814624,-0.07137308544910399,0.07703281468205884,-0.03551872653907627,0.02977249925161396,0.005058143434135183,-0.0035883590752215275,0.02502126673144504,0.03892683842817064,0.033938353801789646,0.014007395738066687,-0.0070178655459204415,0.06236809818317003,0.05350842659829862,-0.04083293461478387,-0.00010756534259613725,-0.005668644940624421,0.038087749483793835,0.005912042064291223,-0.011963155619702168,0.013674328667653966,-0.07087049975421826,-0.011696426409714467,0.030237382661383972,-0.06142594974211013,0.021856046551783703,0.029741146452166214,-0.01732776739854429,0.019358466950629805,0.028359190211136438,0.029057346699382567,-0.030492186104433314,0.017889357386441533,0.026013259822711323,0.051312720891927496,0.04176437558198932,-0.03418959908770462,-0.010374058654040305,-0.003856323765157134,0.01884481636328517,-0.00010573445614018751,0.012458478452551339,0.009873319438952402,-0.054872069719966346,0.005818066677554603,-0.030066994471407142,0.04442727613174518,-0.10918845635245629,0.01202552483688393,-0.014200103842314108,0.01813148442123826,-0.04961443208594194,-0.046363289862639004,-0.022137743063495145,0.02132323644077742,0.028914269370017415,0.031077200970845455,-0.01929990067198695,-0.018983246380520975,0.03763014412141751,0.014230072068618952,0.01920433748200795,-0.01269083861628108,0.020874347191626674,0.05369473192312071,-0.017836480442312688,0.009450749569933923,0.025027013659404664,0.017090413733145942,0.042302262879687975,0.038034582161434884,-0.006885536961752567,0.0019988920376898243,0.0331469685990457,-0.05558430287420122,0.0366888012560084,-0.002422719803329067,0.018435546025510858,0.05906448708418291,-0.0014793530029517737,-0.019025764791508935,0.09428768908837741,0.007562320588074986,0.008297239978069942,0.05685387762490362,0.013393205495536822,0.023613742095570066,-0.02575239858836323,0.00504734472902112,-0.03450175860785974,-0.0551058981873065,0.010721122506787934,-0.006068512667587074,-0.03491608278267822,0.08600080816346359,0.029551499097549352,-0.02453810519513742,0.06823766713840838,-0.0034368932073673645,-0.027492703437917824,0.05297670510882609,-0.0348156011837327,-0.0256430792626666,-0.004693146670742409,-0.011219213757685977,-0.042251481646324585,0.025728750888701843,-0.04963494269349561,-0.012907019508361383,-0.0031104790244697155,0.011120338450781381,0.014589645341030435,0.027973224998269444,0.05900376099331604,0.040024788410368314,0.01996551724863119,-0.026848952550532594,-0.06035623505444059,0.019109254863363283,-0.03334149751369317,0.007624640947804247,0.004531950953019586,0.06564448746604701,0.022433688516844776,0.04790179987887191,-0.019023256426525807,-0.001774162321782878,0.06619742655344811,0.0064954137831001275,-0.01827275828516677,0.009239897037456958,-0.013302379300469637,0.019423409593073943,-0.061365082027572196,-0.031291553631686904,0.01081458125231609,-0.022775250463208364,0.045629230969596236,0.027251417699884914,-0.04441624902554212,-0.05465526090442213,0.028764321860153683,0.011152327137992928,-0.06140314280661825,-0.027313127764766302,-0.05421770035777801,-0.005743245038342617,-0.0033141445276357864,-0.007395658575323143,-0.04107937974969915,0.02004289529828765,-0.019826655105902466,-0.04502531474870336,0.05054204728783936,-0.031075914086847612,0.018974828011065575,0.04444952846345255,0.056025049280315986,0.03029312558182261,0.056806692774840746,-0.002076763690568369,0.050715976564301254,0.04650125514080021,0.03347723261218621,0.0007493159744222751,0.04068374267918686,0.00462918192835943,0.07028454604994795,-0.019378843202417007,-0.023751577794479194,0.039731807704920845,-0.02673686210638211,-0.04200065568314824,-0.05596594446592305,0.01358008065085863,0.0020415753482931715,0.0035730863867591395,-0.058862349143288584,0.06572552254927311,0.048860648721737836,0.03626526660727255,-0.05212998631194521,-0.002176785759367739,-0.010961132460121224,0.001796816756903727,0.032420840142243675,0.059440027805397665,0.010425311145615266,0.07221373491485564,0.04065041550174649,0.06488731165445294,0.04360816277760451,0.019097562556578757,-0.027705871217791923,-0.001543155378007576,-0.005253776659822661,0.057888497669531816,-0.00398431685472491,0.024627419497081648,0.029664437080047103,-0.016568151228939544,0.017899658505272975,0.027925419969987913,-0.04560171138771997,-0.028556281856018703,-0.004291858994862036,-0.045855713584167,-0.06768388949730446,-0.030709216107180772,0.013182417025431372,0.0007042010154854342,-0.07067092855457631,-0.002264487142695378,0.0418163670795909,-0.040414402266999494,-0.012455878559996959,0.06035282255364333,0.005578920327885254,-0.00023148264730437346,0.07106099718709824,0.005702050488944536,0.025603128204259716,0.0254558435413825,-0.007726596195834802,-0.022472909896435456,0.061947650602998755,0.0072746896198946955,-0.014557634130155622,0.006576754349023178,-0.027711090877147897,0.019978331793217636,0.010956554582506526,-0.00011119941343451638,0.013155836360570803,-0.07740568557400151,0.03792734082594567,-0.010214992650976787,0.015669840204753274,-0.010643028291668077,0.010111509291146426,-0.010149988305038946,-0.05144755664890104,0.05425875706269854,-0.02284948318547477,0.012884928397937954,-0.019827041699307768,-0.0020651802743618516,0.042016506637921815,0.003415910976300998,-0.11146227981445397,-0.004182645304383898,-0.03225207660277623,0.021858843997123685,0.05087320092856112,-0.017771845912435715,-0.018783355756688692,0.050416974699159275,0.0003812323343640261,0.03974536847129746,0.10498244566723636,0.04975397911820768,0.0528328757724258,-0.04292511973209355,-0.020334793459195397,0.019395528742862298,0.031612885519915666,-0.03318604894858804,-0.04187643194270358,0.09326671405205089,0.054316499695391054,-0.05766771437980953,0.06251866505376805,-0.025015217809872998,-0.0007370265565005916,-0.025665846864280643,-0.02833655960485359,-0.050661694789369396,-0.11746472114474044,-0.016048944659358723,-0.07448684677959352,-0.03506419314245938,0.0010448673519853158,-0.003940283013489947,-0.004901037705950348,0.03018117176470924,-0.03840238692152976,0.04697916484859211,0.018568063174261663,0.01927133399920544,0.05175860014494286,0.022656803371986826,-0.015589045609504571,-0.03744252609268026,-0.02498085169673324,0.031119321498470534,0.03889563227978537,-0.057360956221550685,0.009567606229849186,-0.041065587879083695,-0.028066753954607584,-0.025706307023527983,-0.029254496105098955,0.0408777078140177,0.04181759466210748,0.03963578371487676,0.10844158373089771,0.030115834908443235,-0.016979570956903684,0.025818137557043153,-0.0052435510310566,-0.008157135014849673,0.020635818209150107,0.06304630703378249,-0.005744544898405747],[-0.03702458620983752,-0.011453316740312861,0.022163737221139766,0.10353578105960562,-0.044593455306680456,0.04340211216883769,-0.020658803005251053,0.006560712437449956,-0.0036876534841351243,0.04036907320584714,0.012394230180540705,0.014425986873056464,-0.05684063290587126,0.023964936521102858,0.00065387421155202,-0.029961083067008232,0.014721759762340329,-0.01767775847913778,0.04524883721689587,0.00966661261711459,-0.023868004477921336,0.011706471619715489,0.04427598378971121,0.026048446561959322,0.014127373407670186,0.030059175252487476,-0.028036967324937077,-0.03294852601641279,0.007006690838079058,-0.01840106447944587,-0.021427983665791104,0.018088030141461642,-0.05059638783779354,0.0032822196004190503,0.016038516409874467,-0.06561219123076521,-0.06733806687024722,-0.01765493853506204,-0.0056915802185233625,0.006088613518211354,-0.016412629086709235,0.031718417744537694,0.035589293952381,-0.04079932076908565,-0.029428313620460268,-0.010661345872682058,-0.04886473587505302,-0.0102649016480474,0.029457523972023923,-0.00997867232617096,-0.0009986378250536657,0.053903565233395866,-0.00587206646215193,0.00933292392310438,-0.01318966667615684,-0.015856354116563654,-0.04047466659917766,0.027807427330939428,0.020978368920063217,0.03494051402325036,-0.03565041688080248,0.0066673018597541885,-0.03246797693001733,0.0025862516408195917,0.055099789953509996,0.04612941560903188,0.03509007331096333,-0.04924841416447417,0.0011391970089749018,-0.029224478119954038,-0.0336822462782347,0.00815074514020313,-0.00189634280615535,0.0040122923851856245,-0.013234318937330545,-0.008474936051988465,-0.026812469681318077,0.033829003374406884,-0.009819201791390923,-0.029696981296247937,0.04264254323560466,0.005169894687799023,-0.03526250485833517,-0.012994153151396164,-0.0597129610841658,0.03387021650577651,0.0016816429849510163,-0.03914632268455017,0.001638303963271107,-0.026731382365634843,0.0047576809093047645,0.029354647083014905,0.0008738433311895673,0.0016176351455482307,-0.013464932255969935,-0.005745989144288153,0.00920198798252305,0.026657676390861702,0.013606479493393652,-0.03872052332052671,-0.05008170325413194,-0.011171429756659527,0.001538021222359114,-0.03358641058143146,-0.052110879482770975,0.021222609635932487,-0.06388726251571822,-0.023087968439043483,0.04639788260590188,-0.018232243649974347,-0.000985409772830463,-0.00315530531688763,0.03888709242611709,0.035671371312682755,0.014833784284704343,0.015354350114660483,0.01732171825239796,0.03178455528334101,0.015357781798419696,-0.05693183886995324,-0.008819135568606615,-0.015450711332362678,0.005477313025800631,0.06683829229656832,0.05532011424129303,-0.02400853167437827,0.01661924513022178,-0.02137541787648721,-0.022084320933763717,-0.004261061063804699,-0.033195075303143064,-0.03448684446378844,0.043768139503799874,0.024681380707958136,-0.03867064072863326,0.02574671394331124,0.015853497055957646,-0.012680590549047455,-0.012848199388237736,-0.055212101302709204,-0.04326013939947192,-0.06097706339229804,-0.0017239608754515893,0.0773871325909002,0.01153177369120325,0.01817032096763536,0.03563583476146336,0.0060523178503424785,0.025010482733992333,-0.022807342568662986,0.027079482185920576,-0.042800358062506184,0.04244313110587033,-0.025401039858300452,-0.00954679803309858,0.007443711105738187,0.06425461915341184,-0.011586821437797967,0.011676487498571945,0.010108881911609977,0.004647299336766065,-0.04067620291402052,-0.05305209394840732,-0.011783151096999801,0.005727085199189565,0.035544688716266794,0.07570086661709301,0.006945981314510279,-0.027625096866726144,0.07779847301384082,0.004538267528556679,0.017502608926227292,-0.006427056492058692,-0.01752252818739836,-0.005660072771192855,-0.020826976268311613,-0.0011513837191154867,0.04274524224381778,-0.0023971265664811166,0.04895619017214137,0.047362724993306175,0.0447963371631771,0.03459839445903144,0.017167504489231215,-0.06346882477591881,0.04582410012649135,-0.0343176164640668,-0.009315700072107119,-0.06082212524277303,0.006768595670587019,-0.018936622487322974,-0.009122705764561196,-0.034419575429297175,-0.007230656078188453,0.04175225036348153,0.04117487198782467,-0.046117494392934257,-0.014027445109637052,0.06488374640304692,0.06528011805274948,-0.017973121363051597,0.06604435260461901,-0.04886572741690838,0.051112047769543194,0.07509686714766489,0.0012497889910543984,0.046743881108607964,0.0386292602510904,0.027131161772550247,-0.048341525727610725,-0.0457330991062334,-0.08875141681825949,0.006020879039569526,-0.019904519718051253,-0.039485705699013995,0.04144667246646987,-0.04663971747205896,0.07797247245425411,0.05479311905407987,-0.04387641150733541,0.014331614600770872,-0.0348320508015963,0.03552185094478175,0.07710424755303205,-0.009661762682775065,0.05486705833312564,-0.01748248756372164,0.03282861700273923,0.016003054414723036,0.05672618687184277,-0.021434744142641425,0.04504660278926546,0.04289352231220636,0.04435331853847431,0.054702707400133,-0.04549511321792103,-0.0032829933430056604,-0.014312385791164737,-0.0025933022923272354,0.016551630485704565,0.004585107015617131,-0.037396201418854226,-0.024859216286991705,-0.0012407578718349392,-0.030297066698915843,0.019884924066633655,0.029633022304657225,0.03129802695088861,0.0006575608205814017,-0.02020261800773638,0.006062920427398444,0.0047989408328849665,0.01043173711725782,-0.01784007019465668,0.022931351821604395,-0.042054409161163514,-0.027133951933273125,-0.005407387128770224,-0.016623057469645784,0.047270464974004875,0.004931480832760799,0.0013010917482355556,-0.01437393484451303,-0.02810409243975372,0.013550265800157717,-0.026060247385687643,-0.03801460004320309,-0.04782983244590616,0.07889460016808938,0.06500946943930368,0.01227863045180476,0.02112228411606331,0.0274063781960985,0.055191997663334685,0.04327893382388256,-0.025508565603722253,0.007352627729186422,0.014888220417466364,-0.0068570249339760135,0.05691688139856625,0.033871524831262066,0.03871014907016062,-0.022289063494411232,-0.015050660459547815,-0.04458326742479843,0.052449792469455456,-0.006886039790270677,0.03901973865315034,0.003330205169506262,0.03476942252694149,-0.053299824448410464,-0.030287983791495776,-0.04272535859697103,-0.033064202240028435,0.06582790726286347,0.004120523215937183,0.045603379711306284,0.05299444069084891,0.05150117330026389,0.02286073058029293,-0.011253405377570953,-0.05131191896241372,0.0733280358718259,0.06624330515197883,0.008462768823575448,0.060470233674597106,-0.0018359216471477786,-0.06267193625159956,0.022523822775458165,-0.05551886791426621,-0.027011171332583468,-0.029005757084159416,0.022238034571791996,0.009905063012691161,-0.02264936045746667,0.023563760019550666,-0.08098814501206993,-0.06062752599480141,-0.010835070000582958,0.02728784653413755,-0.044442150559904026,0.06301343470592881,0.004588756919219502,-0.004676787920301321,0.04678160547317328,0.03466152398313385,0.04775898244157332,0.09227873557130888,0.02111623677011368,0.015784218883665522,-0.002415898827648481,0.04631396824761131,-0.035428794346377177,-0.02335587009477763,-0.04418548794656444,0.02479961696612786,-0.026565400678937916,0.05427509619425538,0.019871586895652948,-0.03825095994762224,-0.022327714807027423,-0.006904965283093566,-0.021331497038142792,-0.06116250002937551,0.0407541212636076,-0.029864637742821314,-0.048983299554033174,0.029629788706319788,0.03997867101836426,0.018774082711208187,-0.02554151814401369,-0.0116707364728599,-0.017479892338313898,0.004749780055690101,0.0011709896953574143,0.05607006209249406,0.0245025565823547,-0.011019832393130872,0.04193815591137041,-0.0471997673008467,0.03284518873992722,0.02487623874139447,-0.018955211964605735,-0.009574806299598244,-0.019498876079041376,-0.005324893564028939,-0.015981562121719868,-0.021600654915060493,0.0023658768180760494,-0.0038159963337307135,-0.04047782642811024,0.005737625534129462,-0.0035050010726669655,0.0361869600127043,0.009922136132184494,0.05681422873102616,-0.004505222761863152,-0.07577195892208757,-0.062190500382394334,0.04459806799453696,-0.061500068700188884,-0.007842223618193193,-0.010489299374065475,-0.0047936685127491115,0.05747210486167177,-0.012871303604315834,0.00320167700957008,-0.011662777923293887,0.003442847419899164,0.047228153069918795,-0.026947467515692502,-0.011779284017083688,0.04860990574871213,-0.0182881936640498,-0.03351582802888497,0.026951242080282135,-0.018306368310969226,0.006509032252611452,0.05623738751080869,-0.021633956756501607,-0.00844484062131644,-0.03470307309282981,0.0170734109065408,-0.017314294839536542,-0.0727120827905808,-0.010508496959525772,-0.0019590357480624974,-0.047922895365832684,0.09090169280109717,-0.008018938698377193,-0.08036759297102444,-0.01416838717604837,-0.009759760168916488,0.0755375183248765,0.013518465643209458,0.03515741077984968,0.010391363247125442,-0.01646193619925719,0.03187692758974611,0.048566962802351524,0.04716302382454651,0.03415592111003453,-0.04707099163727735,0.058255093608097525,-0.011465272323461943,0.030780951564570332,0.026173615667971762,0.006958300522501951,0.04582192544170176,0.002592690023284683,0.04690459374718922,-0.008675530189619704,0.030245322762165502,0.001944432910850699,-0.02789350494944303,-0.030904481765443997,-0.027222410087766095,0.02664217926979065,0.01793762416748162,0.015006687039160267,0.021131632328645553,0.06945792486235594,0.04362716096946089,0.05668225999367758,0.015172006558718348,0.02604788248512123,-0.06548449601067427,0.056524057927993504,0.007885738023939133,0.027585389788047827,0.010371910782318349,0.019625448822224473,-0.0176925153439634,-0.01766879692578332,-0.02756099981155879,0.03636135667782955,-0.0216447708386979,0.019872917785023952,-0.029905413063503198,-0.012228595925253036,0.020233277604255227,0.003008964902802162,-0.03027990415580183,0.0011999149998704508,0.022214370180197215,0.0490179630855728,0.003110166661738232,-0.0012821524205969485,0.0625677458362124,-0.06294358218094039,0.04316840557248271,-0.0664084617759322,0.05658287695092394,0.008577860599625363,0.07582808603470181,0.05623953519888238,-0.030440622269866085,-0.020706406102149216,-0.020613740199742523,-0.0061996772672700175,-0.020591609297579718,-0.024381891529728066,0.0021359791012870405,-0.04325419921943314,0.0055197346319559555,0.037706911338961174,-0.05530677727408376,0.04717899188847808,-0.08371209262297218,0.01545050558435851,-0.03726424425973216,0.004322952834576158,0.004963165380553811,-0.011939356836166488,0.008063073111613937,-0.020424771601686657,-0.029437973361640633,0.02170090322418908,-0.008079561837721197,0.05341110069894547,0.027879549798505012,-0.01739306524398944,0.0024279141340031608,0.026969175404819735,-0.032311823573108626,0.002684316955845416,0.022561758221534355,0.0002716913394751695,-0.004038027170593258,-0.004113637249302067,0.07623308961049269,0.03731835205578629,0.01877588521383778,-0.025960908644817513,0.018427567484204665,-0.025470723314804627,0.045312221376627417,-0.0053525332144109495,0.046300725991637544,0.025952504539372402,-0.007659947882770328,0.02734172032644769,-0.0061632025796277716,-0.020948359884749402,0.03957800503066681,0.031054939121592913,0.10547041917967517,0.06169643285805807,-0.029621131745123513,0.010428378978664398,-0.021998536901600384,0.014794891641795876,-0.02263736172735446,-0.049410741741544216,0.02647870248621796,-0.003817823788278204,0.01974858874499001,-0.003036286590827834,-0.04071087854542325,0.03009160690866028,-0.03426203430586877,0.033892478927496195,0.0024806861516236457,-0.03708973328784806,0.016432151734082592,0.04547793986727824,0.0012514260825819627,-0.0026449148285784406,0.006364862505996204,0.010037983344723946,-0.051276353946263,0.021247614703263116,-0.017314697283373814,0.009651883041364375,0.04537655718261856,0.03904146637676862,-0.0073825830847621295,0.02024136932433366,0.04251877682559096,0.012283484717581405,0.0017360272296136213,-0.036758973167346026,-0.05094529691560331,-0.031543376500280614,0.00588921310546693,-0.0019484024909224241,0.0313760516083091,0.005064444517264322,-0.002095114479115347,-0.01625072683503313,-0.03557484523584612,-0.008789719460530242,-0.01982933914552215,0.013875811906744251,-0.04857322256249431,0.01814160149412758,0.003973898453854886,0.04471863337688264,-0.000534152797387589,-0.007340984903315326,-0.0068948130762331895,0.042312641390410605,0.012114333800083258,0.002519147287740293,0.029275525764160877,0.010646030936106644,0.029619259780965967,-0.013658634471633038,0.03352199586295613,-0.030707472981610286,0.057447218849964544,0.07538531744064256,0.05663132374359858,0.030436980075524606,0.011245040971263111,-0.010649274494950303,-0.04180088610471977,-0.02395576311260393,0.003007048103344422,-0.008031037763865973,0.0004373276803359956,0.042547888316471466,-0.04137510204345629,-0.03298334939458015,0.006978403340000447,-0.018217448394371734,0.031039700609579564,-0.023802065502790664,-0.007481922725042613,-0.011038240673843123,0.053814888793494824,0.038504922941924175,0.025119609491041372,-0.05256699901298628,0.033812422136879836,0.0753023852792138,0.022379526574846646,-0.04789644124566524,0.008048329608526491,0.0060563723816228964,-0.03127242145459463,-0.0047412682494763735,0.04167080859968972,0.020157781565670666,-0.01627653225651655,0.021235314614565893,-0.020143127943127177,0.008704624195937082,0.020198708340968735,-0.022223249053031014,0.06069310834279071,0.017159337619035816,-0.0073705052304832465,0.020376236344193836,-0.04408460555098622,-0.00004876179019139148,-0.06899043588967327,-0.01601959011188686,0.018450279199159616,-0.026857007043431216,0.023898328946230382,0.01152792812374842,0.0717373026471873,0.043672041196260045,-0.016555715036104566,-0.006140127362223484,-0.014363233679372579,0.006899113106113975,0.023909696529495223,0.03575242293472462,0.013916721571579178,0.012823893016803117,-0.010783154773692452,0.0005037014048772883,-0.04071667328042594,0.056964849713477754,-0.06586988206528986,0.049190496823151436,-0.013790148605767308,0.03095922581293925,-0.04256952770616493,-0.03273592220198399,-0.055408925725392404,0.05437523480215222,-0.01267064847050806,0.003967052860271117,0.010584966079857802,-0.08457851805489665,0.01840974940899496,-0.01600755503917429,-0.025239735249702657,-0.01313647494408719,-0.011766907278040124,0.0413477108023463,0.046185784423411175,0.03023042360603437,0.04417678810716993,0.035096112449626404,0.027994093357441522,-0.00976178783762406,-0.03624394155659491,-0.009841403436493779,0.0144875157368091,0.038112261132146746,-0.025211444858620834,-0.0066982979426224755,-0.014425502579524671,-0.024305580275556782,-0.016150973028626694,0.028462045187737064,0.005131293278544295,0.06957901473501288,-0.008485390247199775,-0.02824010906491298,0.025278003007353913,-0.005866419720207616,0.016283236400379618,-0.0020412453739230368,0.005836627403212681,0.007924420717237993,0.04376565612248333,-0.022802142818621318,0.04109261130864372,0.0032588566954171306,0.012471433811241458,0.02006904008984425,-0.0008755557559458733,-0.028331841701494487,0.011235765653624951,-0.004466732347867186,0.016175294019999523,-0.014679139623270644,-0.021555344401377605,0.061784213937528434,-0.012693933008700073,0.025352924687755546,0.010045419622773276,0.024340546211549526,-0.021064702056715536,0.0049301294502554875,-0.019136613299420378,-0.06377734863692394,-0.01051494714776537,-0.019690523778191377,0.013141173780737129,0.0485594213980236,0.004843331693418133,0.10791955260675119,-0.037068938226635144,0.042351492910082014,-0.0073512356394047,-0.008319980443278113,-0.024696146769461257,0.0641609290106658,0.007692475375690976,0.0015139374810156727,-0.0472787314499668,0.02361042287597765,0.034117743251566475,-0.07101461838992082,-0.012084284236736298,-0.003441236673581914,-0.04022193222774889,-0.04841895200127317,-0.03323941201000999,0.09877607497472339,-0.0018545935966031853,0.011430453235006448,-0.026689609036935458,0.036756093505354324,-0.04935895909007891,0.050012246346460114,0.03930767735433689,0.037906595424973884,0.025610680933467595,0.007647408851379793,0.06125564511126189,-0.012278312118101115,0.016802975512847422,0.022758837711264492,-0.036128844010188656,0.014525152340199202,-0.011046414994192413,-0.03413813364738429,-0.0027702535973825417,-0.03076010793021808,-0.013563277967252015,0.02653064219771417,-0.028131214626002207,0.02197788574595354,-0.0532237577966101,0.05113667341609594,-0.03330119878444578,0.03785967756955154,-0.10461530482877948,-0.009584222261831154,-0.01739082587914574,0.04605130814296214,-0.0064928698666664895,0.03671069161048057,0.011382744318866161,0.05005780533631943,-0.02562235512641207,0.028508498958590367],[0.10649296302757506,0.05745596961987019,0.016388390257699233,-0.04564895629304656,-0.03534117210309371,-0.0038115565381043057,0.029214276154736797,-0.03568093033200196,-0.023075882333635937,0.00798664262916873,0.0014161057450989484,-0.04177181046605828,0.0057890950808451936,0.05021010035354083,0.05018379584315215,0.03459038525483823,0.02720787252432364,0.006418441795480051,-0.020654235824041293,-0.018343091076597828,0.0335684529464904,-0.06477573460885908,0.0049689038584809705,0.0005305621295984798,-0.018127919973050053,0.017096356439975625,0.05676955474217569,-0.01880881464822728,0.004120112895402274,0.013540851686433222,0.027961607577137098,-0.03190649305514504,-0.02722634599955331,-0.015022511687554651,-0.018141468945742575,0.05743376103247525,0.0172180428046391,-0.01732143330261677,-0.01631412496742028,-0.029038895348137306,-0.03655616651664283,-0.020563564533461882,0.002467200489396804,-0.04903774015392323,-0.01818453249121436,0.032392180056923986,-0.005742214708734858,-0.03402746178188156,0.013081128889735562,-0.0067942919243580546,-0.024265496407143407,-0.01703897870492645,-0.02215814701077426,0.022420393627592485,-0.011382228902379875,-0.03433260082195431,-0.0004264104159781081,0.048962543697813436,0.01845142028954263,-0.007197898918783755,-0.022836286749795542,0.01490592536354305,0.0008547807841659355,-0.11025319693960799,-0.01908673349579869,0.016504125957050253,0.025265633162431796,-0.010773848477206405,-0.022969135504271224,-0.012038162925767926,0.03470069123448106,-0.003237770910790974,-0.01295629674897026,-0.03223870510318834,-0.00947267569480927,-0.03516481654838585,-0.049467387605021215,-0.036508599494262654,-0.03656604075475129,-0.01309367375851499,-0.06020563648780017,-0.033284804935542686,0.021889016132374737,-0.018879434884351422,-0.0061242364072179945,-0.004121059489306222,-0.007703416151437898,-0.03824745118085037,0.018783883794997774,0.012418365675543743,-0.04653516894690484,-0.06273369355163672,-0.003840936948615484,-0.0062759704741664575,-0.033292861816763344,0.080063085432359,-0.04083484056692037,0.00016782950437072981,0.00928997303755888,0.06189068786628863,0.037669533240218094,-0.011047965284000665,-0.02683026698383907,0.06047274309483153,-0.06303332583910283,0.1172878036511941,0.0032955359529614264,0.038479130944493636,0.040746266918332434,0.008481369623139633,0.03431100914015382,0.005305741648045677,-0.017216290814069612,-0.019849576279447546,-0.006823697438159176,0.000024874759129844153,0.06274857987982878,0.06925074289580689,-0.0015456931496867054,-0.0024103319433085705,-0.001528042980013118,0.05800744613601587,0.09075003647254572,-0.01813565527490488,-0.033404333676019755,0.0011540201640126437,0.013792687849772473,-0.00022254562560181467,-0.050328889671478284,-0.0158121606444652,-0.015529024096596362,0.0032813407424346123,0.036069552858468974,0.014280715409351202,0.028983011412624816,0.021445117809437392,-0.022910887534493066,-0.007799807864904156,-0.019951825226624132,-0.019255316474583086,-0.05072777937359706,0.04405415378355424,-0.0261078879853172,-0.03472973414684561,-0.06533493305789868,-0.010175528156895538,-0.07718658891175355,-0.020248359403843365,-0.013627523722870386,-0.010002913786625092,-0.0063761310249518185,-0.05830976295506654,-0.07233907612269246,0.040681334535052904,0.023557828343838978,-0.037604822648417524,0.05749543181154791,0.05960048708810347,0.04875384036619699,0.043223346078353826,0.05289897335770177,0.0214493031637884,0.0069979379486462346,0.05511511885788355,-0.01964017468254682,0.016789682351126347,-0.02904469451133393,0.05719765590973563,0.023491059641869174,-0.028412547825730678,-0.02417542241194217,0.005096754595173313,0.07345503074678772,-0.006241934645009337,0.024156068849946713,0.03508090393632485,0.006995414363365344,0.024490992551101744,-0.08941689903794559,-0.015626678634486454,-0.04854001822728141,-0.0015508389177013248,-0.06493890538399809,-0.04110718488324508,0.03158192956757588,0.011016194934176994,-0.01570154561466939,-0.004763664603565476,0.009877274869292609,0.004750975582299587,-0.007928616041223475,0.05172509407000408,-0.04998498877409134,-0.010841988263163061,0.0056080942286799796,-0.0013869869485839852,-0.01513207683533138,-0.012952474535144216,-0.032906108869238664,-0.08472737432539909,0.005342100111083572,-0.0015525826171402246,0.005490101289459634,-0.0012448934881808024,0.02432849960635273,-0.03422206272193633,-0.04339616806343871,0.004883894850490123,0.03513762792679984,-0.03480311803752086,-0.06517504913886595,-0.05940492697881929,-0.10743704249895493,-0.029692738218744665,0.00388134657233887,0.013322121626240134,0.018493146625078713,-0.020812306544701595,0.003831035560109612,0.00414732340220493,-0.022569078146213877,-0.017072473447371336,0.0666722046302222,0.06474485945246673,-0.033893599735066685,-0.03094873661120709,-0.020046175457838263,0.02641986047026807,0.014191429950213297,-0.06891210254062613,0.04294232691456366,-0.049684889413848424,-0.02283463226966219,0.035004535884303564,-0.011714613130373532,-0.026813040052353364,-0.05487057981964788,-0.05075702760174238,-0.012274037838564855,-0.032273815171260226,-0.02158725831031583,-0.0647225392681339,-0.03792407055810788,-0.024925145042861228,-0.07160690525881352,-0.0593228316118717,0.017809787057276316,-0.013211971337298054,-0.09364519916047824,-0.0197880478760799,0.003719721963856299,0.01715370571855582,0.009280710810193979,-0.05555155977266545,-0.018251338596209934,0.019740960118942656,-0.02704282463702176,0.035993266990327774,0.023557926768305124,0.05072524675646287,0.019025840733666897,-0.04260669226194117,-0.02852551105136591,0.03288071643461593,-0.000247505685237172,-0.012632028569656964,0.052056447522275756,-0.05127623997400418,-0.03768616412076845,0.006061846427925398,-0.031188647287659136,-0.017980678437126398,0.02616323656998254,-0.042091019158660835,0.01216181678154939,-0.022110747897984985,-0.0006347681126061503,0.009091954721542079,-0.016572100897413733,0.020254975830432967,-0.0037635178403775194,-0.05475121029613204,-0.0038120552757410255,-0.010577680292699112,-0.035868895802233396,-0.12273043995636551,0.002417564440283272,0.009219009813634004,-0.010184371352505436,-0.011516484409443133,-0.02063948069940959,-0.0143562637778536,0.06468627121715158,-0.03424796956541289,0.07900727828788469,-0.03698143216207234,0.07456808530037029,-0.04279204679014044,-0.04455025235832801,-0.06551509195499247,0.0186917296486607,-0.07663295447074202,0.027988219816894793,0.014358078909265284,-0.024650869386391723,-0.013674153505410963,0.007183936412961214,0.032692264348131085,-0.03298802774766888,0.09010843688317788,-0.04592101450102182,0.038992043949220255,0.017428234237273372,-0.00830054486384409,0.015057487720775748,-0.0086538527174583,0.01029173049987807,0.0028530535662179366,0.011594290928534272,-0.00593514234241762,-0.005602547353965803,0.05132721477671346,-0.04919081201003387,-0.031749408213371924,-0.024970679929014448,0.02797528772568061,-0.001432986829505891,-0.05667051363454563,-0.03138877714782242,0.0032628578128729197,-0.051206424782567116,-0.013190260680279526,-0.1288447977740079,-0.0004137084172086806,0.01084676071487959,0.015035288844316161,-0.06227681441135852,0.04827513799174853,0.007724438488555341,0.007211452502359105,0.048005408133591186,0.050447136773614204,-0.015004044560910547,-0.01124205360852634,-0.032676275548500444,0.018982768466875615,-0.03594530016296038,0.012651007498205014,0.03157879532942013,0.026331733187810947,0.02473264389529415,-0.03226238665240583,0.029447836799992202,-0.02429299355633012,0.029283172896942343,0.03628729870809953,0.042363692149402776,0.040701547294037826,-0.034358035663896176,0.0693571714126092,-0.014315524362529648,-0.0031955053145259365,-0.022538093129569396,-0.03612330079392084,-0.06354227434137259,-0.027298035281315792,-0.0640024670329805,-0.030075209195434948,-0.09666277691441579,-0.036755261853624786,0.042425538715048554,0.028781800222229495,0.02964014913732182,0.00789527718583828,-0.03327827680318645,0.028169857911119256,-0.015454122230883624,-0.03266438436732002,0.03465707121610457,-0.00802506958001925,0.03556843975391267,-0.06303522020591934,-0.0023754918285676,0.029054122340716762,0.019700637902236185,-0.024698214218155722,0.0046412818295813105,0.016742089325291986,0.007707334318747956,-0.03283834775595479,-0.0266748431267132,-0.014426017632423816,-0.025573937285951902,0.03751690865638432,-0.10019350450639501,-0.015673495151836938,-0.021877668598673617,-0.01816557546745584,0.03806013229832161,-0.057567555923531424,0.0709243748365159,0.05665806261938288,0.04000975964488409,0.019813014613443914,0.01814287952997215,0.0026133227934592163,0.08020350212191893,0.031088330815959915,-0.08506750669873787,-0.005851825780898524,0.01829834374163823,0.03823576464065985,0.01820556371838186,-0.026539579070671594,-0.013162357915926404,0.012025063967404355,-0.009410767752693835,-0.018703302344151143,-0.016385569577423858,0.0016805950492989447,-0.027068734519056913,0.027858360853341566,-0.0010126278034704086,-0.00975181233744377,-0.03475096728600189,-0.06198182212470574,-0.0028176266982368183,-0.031161637232562024,0.04742605079447082,-0.010103858852536535,0.002529965081662164,0.01128359174326148,-0.04204506550327729,0.046100511593064906,0.05750500080091036,-0.040625440739283064,0.062371120241648294,-0.007285788793615219,-0.00035122367610726675,0.02139596800341283,0.07658997899131006,0.024697252545669554,-0.01214783642288315,0.05754964582931486,-0.03795610410776694,0.014867389919761623,0.08069347615962938,-0.028883272887186073,-0.039012559830508914,-0.0001454603333077843,0.017394467317031127,0.011456529772244706,-0.032919731599392904,0.04912773464397738,-0.07072963584235124,0.027119749588624398,0.034047415666223074,0.007765044698897972,0.027905589132436747,0.041891296444945145,-0.01291080024518292,-0.0012173283681416428,0.02037482030004119,0.010968781341657657,0.06668101100289175,-0.04086836533086056,0.09493874404239284,-0.005057879870127732,0.014380484845309514,0.04429510448692361,0.012689589453300272,-0.0022713493290548578,-0.039280902088455194,-0.01475306093213821,0.00021166840963967736,-0.03831765867296436,-0.029879163573361612,-0.043124912208622114,0.04300341840842607,-0.02236118495713605,0.0109542364074243,0.025250071391542436,-0.013401831888833265,-0.009505147618593866,0.03162154012054127,-0.015372266837299801,0.022595364985734882,-0.04146856446316736,0.026204155449368945,0.05383307548043139,0.013236593252121636,0.028824853624038523,0.06041656730849974,0.007555576020453456,-0.021157881304314532,-0.060722567099206086,-0.012185737980784319,0.08914864281458779,0.009595319258094528,0.06634175180240559,-0.005464560946351712,0.044846984574757505,-0.017676699126334294,0.0487376069173588,-0.02818295226915265,-0.05006519981022729,-0.022644611760595037,-0.001318564122493228,-0.02248062779689055,-0.028507688980212224,0.010522990237877988,0.02615122064734454,-0.016923045259152326,0.011000461011393493,0.004780058375044245,-0.03313257125722104,0.03864905354189498,0.050709429653926025,0.010447675907794647,0.006131934997090797,0.002458992101218393,-0.05300974864988144,0.022692412096264967,-0.018108666664682898,-0.032066681375161686,-0.031895527799979784,-0.007253156181168153,0.0492131137771569,0.027867579271755132,0.005970542589808101,-0.0082087944644003,0.042933869806664346,0.013219363549968652,-0.04211339743573938,-0.011803449119012538,-0.021647883799510464,0.0328597754558324,-0.04185025278552116,-0.05435924442903026,-0.033286909168314095,-0.003521494734952628,-0.044231694737371464,-0.0285188029846691,-0.02107854212944617,0.04726495545439351,0.03725172893637485,-0.04780415505387734,0.04736561541709332,0.026252663458045587,-0.03605319853115422,-0.013081813663004524,-0.017996823406619185,-0.029471174625191342,0.02588205189861835,0.05338571739715374,-0.020993242012282615,-0.017409763453824126,0.0733482726845374,0.008876222356726289,0.025997679501343057,-0.06879244350630176,-0.004452013292274208,-0.0011573435197420507,-0.0071809578832792865,0.023893052791135877,-0.010822684551705286,-0.06100209986810322,-0.0445909367563627,-0.020793636013974045,-0.05527612334794065,-0.04333451040502143,0.06195605276063837,-0.01984795255835735,0.026369861215480652,0.03859957270595922,0.011012878957389909,0.04164672007652563,0.031507582902464075,-0.011741093221556378,0.007054636995973974,0.002297418203725236,-0.0734185381609698,0.027264385411623737,0.10496586944267382,0.0020379967813757387,-0.03417424188748101,0.025742833421511714,-0.08070491198402494,0.024508105192401288,0.0038424447417782243,-0.004781185449774735,0.03142830960030326,0.01112929008430225,-0.05326361260168868,-0.017351397299510636,0.009974896526580082,-0.02666335657657572,-0.029539494877156285,0.018610624211430494,-0.01686690828565671,0.05779804313757635,-0.02066498728403817,0.007828497721140209,-0.02920305624619378,-0.07408224157720203,-0.014020587991234922,0.03571642088487213,-0.07889582060609907,-0.02914737247484008,0.000432930189350629,-0.057834724530091,0.05080500566437214,0.07106319578683244,0.03969703509639413,-0.00348224276366195,0.02016075555837505,0.0037471018662520636,0.022271479932057525,0.032233659519435603,0.022052568877292653,0.061748910560238617,-0.0603218278618491,0.004146596196514571,-0.008092332656720316,-0.02327894750654193,-0.046462644302309924,0.019609970532225535,-0.02533675398112162,-0.052616483776079595,-0.0670897301025862,0.05670549284423743,0.028987905111630102,-0.0190217321153257,0.04229843245389729,-0.06291773710734214,-0.02503232070652398,0.017708352631767038,-0.030675720543347097,-0.06207083892462721,0.008402743164288282,-0.02496727495669487,-0.009476346860239833,-0.06859478370706142,-0.015942393852792447,0.009225344579710455,-0.0037400551627312967,0.07229043897668769,0.019551198858095822,-0.009593610315066739,-0.025666837661514324,-0.06264154435431003,0.0044065682601734085,0.01039190964619675,-0.026556144354232016,-0.030455224555164712,-0.061205860656921296,0.031249986335028707,0.01787017901738809,-0.04606532972229864,-0.014435733193142605,0.02914574924555437,0.009465940751567085,0.053436771610838284,-0.032772654551474364,0.026762187178936206,0.017226461597651836,-0.0515244715523461,0.03246379519792377,0.02156387660907727,0.03821253198029105,-0.003665196776607861,0.028071520777785314,-0.07287906975718471,0.033454095832702264,0.017962804279520943,-0.0198882399665594,-0.004949343617695984,-0.040242471220546014,-0.005445421626937573,0.016712792075545473,0.012898989353785337,-0.004129369820502694,0.01761421788249952,-0.015307251827299927,-0.031361629839719726,-0.013768118121093477,0.003188985543194242,-0.009795224112719126,-0.004096853910211337,0.014590186190675722,-0.053451962557249696,-0.016924274763339086,-0.0019345581585301617,-0.014139069887818666,0.019447103441276408,0.09258067367664587,-0.0008340745330614802,-0.030604142230327782,0.0027063706700406116,0.009768850396986143,0.012669979144239358,-0.013189323082164653,0.05408549323258091,0.08010131979994572,-0.005552193406477459,0.015310830137305456,0.04332124788941532,0.01644931020544914,-0.03382665488090754,-0.05032237566761971,0.052963163218464115,0.010732138341536735,0.032242528300814914,0.014870962396147741,-0.023542120398650505,0.014554177904488588,-0.02048456416743256,-0.015173426673033376,0.019254159833379265,0.0019166844773624706,0.008404575947707018,-0.03445351040763646,0.04303258437804573,0.04922512626534931,0.02917645373293023,-0.02954107421690501,-0.01469265455974339,-0.03809804859356447,-0.030168630583024124,-0.015175862578984569,-0.002845344490681811,0.02814681157047031,-0.0000032407243397357045,-0.052168117426238454,-0.018301273820356234,0.006420351546999842,-0.004566722271883577,0.015331646692327226,-0.013321344186196156,-0.04151978895749111,0.020902315036880087,-0.04119255645328086,0.06446214036380776,0.007457277908726941,-0.034461685870030616,0.005726381694295682,-0.04978800323803388,0.01562421405456049,-0.0618770002118023,-0.02180662436807573,0.015122525871151052,0.03262037640503492,-0.020803039693417413,0.03461361087455949,0.03059796735608828,0.013822211090286468,-0.09417524324024097,0.04663841995357245,0.030392064485759616,0.012274584827742994,0.05582630951988965,0.05323822419097042,0.0005332699368490584,0.10256762019911234,-0.042836044534632106,0.04116262794494472,-0.01442520897051671,-0.06614989874004339,-0.006680639116546201,-0.021913581057892297,-0.007827724575426707,-0.03405433593042955,0.03377020154874237,0.01016868651109412,-0.0537274496957332,0.011520869608052037,-0.009282914639552307,-0.05520535134242088,0.010138834890957073,0.00699211178426133,-0.09275852428713816,-0.052064262932821966,0.013611920126381679,-0.030376480037092472],[-0.022479799220923184,0.05017949483275078,-0.06428845671404593,-0.016542875382793375,0.019073773292714293,0.0026511357769484476,0.013598135570034508,-0.004584320912090077,-0.008650118162952468,-0.00011955693002641447,-0.04252270179581288,-0.07719841265871098,-0.015034366329704018,-0.02921703055785778,-0.042706941428009765,0.0013485862938201543,0.03213717333193491,-0.001661072715934167,0.039997919725092916,-0.018311194236287725,0.026286687674225095,0.05177042813506096,-0.04081290505149816,0.07772753314107332,0.011251999733298693,-0.0006260356152337906,0.022846458547440468,0.05713092397824275,0.0038752004012161862,0.0053285180569526015,0.026691087739163125,0.018043649355595697,-0.02004443476048064,0.0805632406669777,-0.05271594015495395,0.04010260287454953,0.0276206753384216,-0.04445658694306067,-0.028975967089596613,-0.03307427933634832,0.08134601064334095,0.032655032928169146,-0.033964168780829244,-0.026120869413068973,-0.011668777989240804,0.041408558820308736,0.0020325681977670885,0.019531665166323604,-0.013718642169005694,0.015548114730446731,0.10672459365847538,0.04632636344525347,0.034013149806137385,0.029598112437203162,0.014299831527116067,0.03758541174646307,-0.006344841551378151,-0.017827395159139815,-0.0023673084712624594,0.04172153235862409,-0.08184591614970492,-0.059258995529453774,0.013335495709152592,-0.028780282252098922,0.025869485682553955,0.021364063506774004,0.020949747829793253,-0.08607856847765323,0.05149576256092696,0.0543749839577142,0.015397533318200913,-0.02137834318755761,0.01769290718223819,-0.026971465505735055,-0.035595595229207105,-0.026275283329835517,0.034254337802923356,0.01846339703891465,-0.030957650809044432,-0.0687811793275892,0.018648387957420257,0.022276557887805314,0.04518674205203092,0.07398194578194779,0.022018050972072788,-0.016292623641123216,-0.004906297869546298,-0.00447173091600609,0.035625107811453796,0.021621049457402574,-0.0176608052484162,0.016968545573482572,-0.07007688977643713,0.004129016761894805,-0.023811859635661403,0.00024358844573723026,0.05673067642851181,-0.06763121443741511,0.00742780782748044,0.025119128847041487,-0.05952670200760913,-0.0036996829585421577,-0.008161140488177811,0.04793847247653767,0.05535900369044438,-0.04630516824647723,-0.009811417305490594,-0.02469253904571298,-0.014220136629952206,-0.02966495780960095,-0.05763621862409386,-0.01762643081711207,0.026965110462107998,-0.013243023590573116,0.02767540969960506,-0.053144842179751864,0.032671761432014564,0.010123078649600289,0.017503181672907032,-0.0234819820702269,0.06445006140902715,0.010139690901672433,-0.041134328602461676,-0.03869129265668176,0.03811279831827797,0.0028166252831863955,0.007775627037784296,0.051479255126070475,0.02608303939417257,-0.02379995874611502,0.019625617521365577,0.030534600286217427,0.039387170200021526,0.027029191388754075,0.019143967003023822,0.026598647332412795,-0.006395262010517393,-0.027415052990211,-0.02504925044689242,0.014855844299761597,0.13348169131972015,-0.060614581040169854,0.03576735627515589,0.09485879473374204,-0.08039888799705085,0.02260612771429038,-0.03047487889871218,0.03107056351824881,-0.0011064106366860142,-0.00042818397711996003,0.031002718545309546,0.03899277169539234,0.028554999304029657,0.029935832287387425,0.0036019731997414726,0.0186663985506701,-0.017779994651711657,0.0020765660911754445,0.010567811502770221,0.0008584498134342262,-0.040954720214658055,0.05594511569008567,0.013061363753416691,-0.0754930710801305,-0.03742350368659982,0.03404194988718376,0.01350700426066061,0.016598844072016554,-0.018407491717043846,0.0033312390957659166,0.04607344298487845,0.003819651294695077,-0.01200241788222827,0.036025284507818056,-0.007535272245883118,-0.029206997862335684,-0.011237167390532996,0.0065478515460450585,0.002481363728095309,-0.014930025774316527,0.013207631195528067,-0.051065476113711594,-0.0284047703903915,-0.002170055508716547,-0.001793521553787305,-0.022008562218282034,-0.01077777384516099,0.0032267572650720292,0.012493208202210915,0.07001750423576406,0.004171655763118996,0.004210337988006429,0.0006867517296251937,-0.04934774490122636,0.05764754939848686,0.0032553331059162454,-0.04480584919225241,0.034036796234190675,-0.01633737381449033,0.015481267529797045,-0.02593282179538452,-0.01887711678202201,-0.02284887340225082,0.02299384967713963,-0.020388150652250518,-0.10383822339652919,-0.029620033011684987,0.015194119513337599,-0.027188353783384737,-0.03755292110061955,-0.029255335761530527,-0.0047340150219979775,-0.012281467157655039,0.02510068372708408,-0.0016311169654565033,-0.00249786703320845,-0.007577299841039373,0.023769830101072743,-0.017560940784735177,-0.00326755697510244,0.031735882309302264,-0.010851172148812595,-0.054303229099900666,0.03704931977260444,-0.04903270711899599,0.01612507032117437,0.009504140292997556,0.03420637058258039,-0.018299699349177505,-0.03149961138905139,-0.030945895181698786,0.01366973679416437,-0.045070573240197816,-0.04558247641087049,-0.022652303726479514,-0.005239625620158846,-0.08126537380518366,-0.03660094805765872,-0.00597440091950994,0.04905019811409681,-0.05602367932894736,0.031767706130181386,-0.050276447925904674,-0.032460142122727506,0.03772548215663477,-0.042777818644202686,-0.054369331194767695,0.0013058100514858348,-0.013843970646584184,0.061446391101962344,-0.013104316121431932,0.056132771808959245,-0.026065314253030693,-0.008390479902734858,0.05642168865723444,-0.134971087481633,0.04406699454522265,0.007531057128523832,0.122227206593638,-0.014535577242809754,0.007982958238782636,-0.00034038372109283636,-0.022809293058287643,-0.04179248698094283,0.011110333714600488,-0.01437199847475539,-0.057513581195650976,0.044660208736254196,0.0006973220592434986,-0.003001362118255002,0.06191383389212171,0.001877705890254038,-0.013834984061031407,-0.08675791871790466,0.023005594370003074,0.022255271682955956,-0.03368587715193119,0.03635003998505204,-0.001094301892297964,0.01702196021046994,-0.0015118332929480894,0.027126826607843102,-0.03199913312555212,0.03969948681952015,0.08352750967688104,0.048174994892984005,-0.005831838887420533,-0.042272595242662574,0.004591187516310615,0.01436320105781522,-0.06915252277634952,0.0016417367894173117,-0.0223186356642133,0.003611341258660417,0.02268031792750709,-0.01604822128843596,-0.001973922104907834,0.006053678370914427,-0.039989211951114115,-0.002425395453114692,-0.05322275516327781,0.006023996803159658,-0.009903870024802235,-0.022225095118656085,0.05965618322186211,-0.09157425750104621,0.02224916691222235,0.020833794134903733,-0.04329180105393051,0.04879850793347536,0.0501068744704887,0.07273124877126703,-0.027274460105593257,-0.02849443606655959,-0.0033014790548390937,0.013982493048238048,-0.04555481376650113,-0.04160889585670374,-0.009579889145945233,0.006997797766988745,0.013181472170360123,0.026979067953000962,0.04547131468643835,0.07777656806481816,0.05581241707048288,-0.026675388679674516,0.09841108387773813,-0.05952306699467244,-0.021721606658895432,-0.0538098158389957,-0.01682947887623513,0.09578368289560797,0.008686721944123427,0.023737958321180794,-0.017074205282563502,0.00857553414188877,-0.05119639882335519,-0.009524704353355798,-0.020290763903859012,0.01725006218209438,0.0072866508591241785,-0.015714412701523628,-0.044908658618166106,0.002704339870504768,-0.005293612598578432,0.008442482550603498,-0.025668628424215342,-0.010797047015309647,0.019451155498949574,0.019734302205365054,-0.02930710347705145,0.023024456716414215,-0.05021624382016358,-0.0381310114614006,0.04555849655342817,0.01106779502682663,0.015387332899619363,0.03595999693087993,0.03292924974068776,-0.03816735842537277,-0.0441462496174064,-0.014789664198788976,0.062111998959502604,0.011552281375862858,-0.0007348392293306478,0.03155045934544553,-0.060008380689370554,-0.035585115296726325,-0.014978810240696873,-0.008034677715451374,0.00507195140103781,0.03935537649574733,0.03937958252644831,0.0034843393813510236,-0.0122786386505176,-0.03292620301153937,-0.02470316280908411,-0.003946235371006921,-0.051470294370435106,0.05680001171086781,0.011996651527286243,0.003138019196333357,-0.05061777791220171,0.07398791405074706,0.06404028250246029,0.009845711706308286,0.0634268929726366,0.03656922187579695,0.053359522037197404,0.021540197991311343,0.027564208808600624,0.006291474215639408,0.004251850620976954,-0.020686448148968393,0.03592941335081893,-0.04698934561651939,-0.007394943891206637,-0.01751058321355207,0.014554414805208703,0.040270853895092426,0.02467649588997651,0.011759336079534518,-0.0040572401185998185,0.037732357524618454,-0.022395864714600335,0.03623044448486597,0.00008141017737346327,-0.00742119374558513,-0.06193559618413904,-0.040962434005729895,-0.018848826558065735,-0.02033387553431777,0.05683954209096315,0.026579319939167904,-0.00195384221597656,-0.014170467357614394,-0.016412463008002476,0.036863015724146186,0.0386180929906417,-0.029080003118763728,0.03874992137124062,-0.018221412112728628,-0.024136009437615537,-0.020213305471738347,0.01840222219535182,0.10282090762132902,0.027617525358512005,0.02360850017919107,-0.023224956024254978,0.00908221775938233,0.05227317875737579,-0.028769378481246628,-0.03671408111842563,-0.01759314053984014,0.01920538454009004,0.050670829527335516,0.05050929134424436,0.00515473663066585,0.01069794199493087,-0.016199757836699264,0.09066662650597136,0.051975733839508986,-0.002050821536993703,0.007217556053120774,0.0033279004674769885,0.04214581023137567,-0.008568158987903496,0.10668581440792298,0.11048817263424394,0.014007292365969254,0.028593903623503687,-0.0340890978917698,-0.0035108842228716167,0.09421727357437654,0.05636933834417128,0.01710847610293151,0.014777097420248023,0.03399231712794423,-0.004003985911999332,-0.01451620557195446,0.0005856534351179219,0.013587501088923854,0.016852308650056373,-0.04431576710236167,-0.04276507223852397,-0.007593277652185498,0.010368648772664385,-0.010478673209288235,0.06644576801921878,0.026342614223387295,-0.02193554936112185,-0.10732323903442036,0.03843027316316367,0.04503171503905945,0.01866984984922662,0.04497365982920931,-0.05713330570360443,-0.008111250079836154,0.009175849122021552,0.04452966738411056,0.04028379367135285,-0.0164231200139168,-0.006422397335542889,0.010534410275259705,-0.01569934614219362,-0.003517192550891487,-0.006933586481838696,0.024652872955260273,0.02188487330737003,-0.014264634583223456,0.0027957553947754983,0.01968500461445511,-0.04243796617996831,-0.04349537626740847,0.014230975887803888,0.014251030175265857,-0.015198634411845185,0.015359572053240084,0.06661510608335816,0.039495253057910816,-0.049656686792521644,-0.05872314264534338,-0.012950253903853924,-0.03692277723826502,0.04041755213467359,-0.008174675457220842,0.02081456218256456,-0.005786158641378456,-0.06695034892916976,-0.03323094178245653,-0.030881912797569522,0.03445452593929324,-0.031818424778345726,-0.005826703487701637,-0.05324383732102538,0.010137297317588403,-0.02112873715785726,0.024648007867810514,-0.08131125096315225,-0.009372623961097611,0.03376165432157448,-0.030517579813523488,-0.02313501655719594,0.11206922566314718,-0.06430382160552585,-0.03896223319744122,-0.04705187387566041,-0.03649950436773062,0.014444493388575287,0.009413680024495783,-0.012041759789764371,0.03260577379552916,0.034752081378533604,0.019960665546832113,0.07343530217377696,-0.021447671593651428,-0.03927301367395045,0.0050372735541191534,-0.007845744824331207,-0.005276431356948103,-0.036282156536587326,0.0037971882168945778,0.04502705644416296,0.006632460369554184,0.030546762435607694,-0.013138962345999077,-0.0010102550729968944,0.02605670898014356,0.015253007102744862,0.027074554677311923,0.053061839216222643,0.044553945162239386,0.022783471233435357,0.055007427772482895,-0.017215901769526358,0.009013608383227872,-0.004767836817074,-0.04109554644120726,-0.0009322821186889221,0.03920548692307325,0.017369176935341863,0.02750773341615637,0.01736861736179245,-0.01142693888030084,-0.0010297275404646013,0.017009133957280518,-0.0015503106530964986,-0.013856006633473882,-0.011418945205704415,-0.0565239844566803,0.05609595823802181,-0.025339227953107155,0.007479610034151652,-0.01134466357916795,0.0498073958147052,0.02283317344436288,0.036459845185121895,0.011173126641039696,-0.04472216933671959,0.014480050002783776,-0.040844964715123895,-0.01984694174217419,-0.012894238042352252,0.055784959194445954,0.039984024317406754,-0.020109186983316082,-0.020583178807478043,-0.026039896433106658,0.0008880656978736638,0.03154844824370449,0.01918075760823818,0.003350323019896691,0.04884960255397948,0.016708951818037755,-0.024944447690018814,-0.010024376978867875,-0.027997842872168555,0.013023038188430721,-0.030609879815684294,0.03702940667440076,-0.019492609267880285,-0.009680931201992055,-0.021099460325292238,0.044906127311166034,0.051947273677497366,-0.01567109017007785,0.02114018407089635,0.007004020960288008,-0.0296501538120366,-0.05000274121007665,0.04790357598808433,0.0010022351663225837,-0.027419572575245535,0.05270195986142043,-0.04236621085832583,-0.04426933698938945,0.050183793401405524,-0.0177515999475331,-0.031256396314338436,0.03559900587458454,0.07585476365757299,0.033453943008548453,0.08719674223483642,-0.007610112868765295,0.05422823100812629,-0.08309291257894408,-0.06680308355457364,0.005494484157167274,0.003126663098159575,-0.008942815130109156,-0.00419293748508326,0.005330634504679006,0.022036838885466647,-0.01839556688349845,0.004072465504307353,-0.05390094275205212,-0.04572225341853741,0.02170852223901315,-0.003099434184921819,0.005465944094082366,-0.013844240955763022,-0.07325593837517218,0.002765220289154888,0.029934230640044288,0.02901125772914748,0.07135638555389018,0.04039789174500162,0.008586920397738678,0.027089932508675484,-0.008010827162503405,0.032187475356954716,-0.008371342028961002,-0.013476337720525963,0.07411016906359684,0.06459668014537615,0.009830127596292326,-0.011007486844096312,-0.011715799335063596,0.03244907987780904,0.05640535734976795,0.03168910505870173,0.008586570767501685,-0.02027862408363166,0.009713606650999244,0.03859839690082432,0.0068563777671114155,-0.03489185325710423,0.03101140725627507,-0.005002978847025005,-0.04845379287199268,0.049971345537735336,-0.0507177357372745,0.00691931746142334,0.0016528852259858559,-0.029074668504568097,-0.007108282094843389,-0.01594807984848979,-0.004362765658079632,0.010870733928971575,0.009765692859447068,0.01599943974733469,0.007326205002391421,-0.039808133157214515,-0.0008968238092932295,0.004967477404174239,0.008211652361010055,0.02469952744324404,-0.010198315286078776,-0.0010404141042442447,0.021513392258173416,0.03682216685995766,-0.05253843658096285,-0.04971833093936652,0.021901449429560734,0.06899508931882586,-0.06492047043619249,-0.0030629087109011553,0.010371447920151173,0.03092779095935371,-0.032153076734645555,0.024211476930295083,0.0028884019849920203,0.044824333453169565,0.02146363448052553,-0.02265384704236441,-0.02439158764325564,0.05601918648118286,0.01913277510517425,0.017764476059981046,-0.06399653911300611,0.04775511138210662,-0.048998939530607785,-0.05940306515931857,0.016170714147708216,0.006883541054180589,-0.004344965864851732,-0.015379131994735626,-0.05127821198746568,-0.06319940035304862,-0.010772773330672449,0.08028229639026355,-0.0423702967790199,-0.03842050804236443,-0.019271809821394436,0.033762631914378796,-0.011371608862745849,-0.04387427098004342,-0.025804780014020805,-0.027881576769939135,-0.021749171460814256,-0.014397225284797302,0.0452427006740675,0.007493729853979369,0.030191649964779774,0.0008273701384831854,0.009034503709680283,-0.025393191668852285,0.018150089206593122,0.06129315891105089,-0.04183229753840721,0.030815738605597227,0.011889341936297272,-0.03715479013050911,-0.04151970719215259,0.03981776283702557,-0.005571290649685575,0.01884444715245282,0.022022497262545782,-0.018364524776595635,0.021010131821131622,0.008143383286824579,0.007856644559871416,-0.0636339961850076,0.003659336661828127,0.04837576870352761,0.04403687354657133,-0.028003012456249577,-0.030312122021651434,0.017021840254130133,-0.0056856583243440634,0.022163585093118776,-0.02383374769426144,0.058934498074725165,-0.03149948882676195,-0.03404255998186565,0.01306680962724828,0.006740071439307231,-0.054619359112933724,-0.002178376454384052,-0.004900608089801615,0.0321906217378847,0.0658632155806176,-0.020360712591382467,0.013848446899240108,-0.004613843954222123,0.0013710910578370197,-0.0018807856238251667,0.014551924295873977,0.009634734753384493,0.01497625367735469,-0.033714263946433495,-0.010930909105446826,0.06785794937876012,-0.024287751294906675],[-0.021212825247286772,0.0031545094753276637,-0.0003335229540531684,0.013673841476174481,0.014692556383251707,-0.043310081177254496,0.002897882182341616,-0.03924149671818466,-0.006625753527458829,-0.05471273309404613,-0.09228392973538499,-0.040139285205414675,-0.03195977182423472,0.005085937010679269,0.05033334628169391,0.028839323818739913,0.013581319764687733,0.012976521207232247,-0.03177254472538007,0.0038089965381757017,0.0001806313685426989,0.012633889096753097,0.00876636827129689,0.014643165274731864,0.04699599437964187,0.0004779065394374165,0.0709038091510508,-0.058827970333292304,-0.03541557699431044,-0.016121505032691674,-0.07824847018384144,-0.00208072817286451,-0.06435721809163757,0.006089874328422588,0.04040588495065656,0.0628711287291034,-0.014163755430504759,-0.024452827792958723,0.014572129579509157,0.02682338587308281,0.002718615625446308,0.014853463556266941,0.02698637825309101,-0.04660543900635152,0.019739814381180523,0.01572435776715092,-0.014426531126025637,-0.07496891539680425,-0.049253094441486185,-0.012241836017106147,-0.02337398390652119,-0.019457278274389846,0.014181646526996133,0.04106392998138136,-0.05344209616085808,-0.003723165917430156,-0.012657594369505984,0.003250662139439046,-0.01767690243329998,0.010250214232107646,-0.026123973625502294,-0.03331265478579223,0.05610330903365985,-0.03337528247271464,-0.007280799310726561,0.05307215083341209,-0.037853291339737354,-0.03711885694924409,0.02141033033130186,0.02095720502244684,-0.061248084153728004,0.09839728000583695,-0.0234391931307163,-0.026282603942989324,0.009462292676572634,0.01684733284162682,0.03575117711713149,0.06919957058580244,0.001408806650191839,0.03615832747634612,0.04475546091234417,-0.05994007712110022,-0.018237352156446125,-0.030814578592923532,0.06174705537863676,-0.004649961493634144,0.012787641290748542,-0.023760009283671293,-0.034603461265596006,0.016210537430862388,-0.04655108422674239,-0.03858186158115603,-0.010315224158034212,-0.026025679370632715,0.05077777930416088,-0.03470151908477171,-0.03288362591021009,-0.029987644553780054,0.033602306254669576,0.05516028119000866,0.06095585239193228,0.013377165075443271,-0.04676916416761446,0.018075403014795797,0.02690761108250062,-0.00491276029172659,0.006054583090004288,-0.007307912107821411,-0.000739760453277069,0.04499604593816891,-0.01383316413800312,-0.043770402677526375,-0.03618217207062456,-0.049975729867859524,-0.007825195637425984,0.047887573119996155,-0.003112506452392312,0.0039003509680343145,0.013219930656063153,0.058413441373689146,0.03262201465821833,-0.05071115053744989,-0.015514507641532213,-0.010622251114299243,-0.0013592872994637798,0.05407626759102957,-0.02171146350830587,-0.0035431141449091025,-0.07971835388293118,-0.006973754392816502,0.014959569892565631,-0.0042214592598997965,0.02699007702391782,-0.02028818049504825,0.05944501100704848,-0.05412235733094759,-0.03441525539457488,-0.010759258366173577,-0.02785898135400591,0.031486329631229465,0.011878833843629769,0.005096396462872541,0.07153836310388019,0.01358792323427441,-0.05284611762556305,-0.041659559786924816,0.05992694210071074,0.059734330348081253,-0.008945103826918965,-0.05591110746252656,-0.00917648217719229,-0.022548053558126648,0.018081406963827297,-0.004875678222131559,-0.04641275985717557,-0.044774255231858885,0.05149451075169081,-0.02617337179039709,0.03328338503722609,-0.03371656217765916,-0.024232357721189552,-0.00435667085120259,0.015339964339614662,-0.028538372683657443,-0.045898863089593615,-0.012793504701692122,0.046223454825311226,0.05798386381621068,-0.010803656706657337,-0.03913712430991951,0.0011772672672394533,-0.09161696232753155,-0.0696726734538992,-0.0948055876669026,-0.026412192721659865,-0.04774429224528947,0.028749747494377906,0.011736942530564228,-0.06795576919937804,-0.0030833656617345454,0.001404329748685984,-0.014277418384471451,0.030210883501817616,0.023889744476026372,-0.04183907092289959,-0.028974679746129522,-0.01650132111561842,0.04158953039234536,0.02252433507114032,0.02473633610579564,0.021783680170196076,0.020975775953139923,-0.02632349983615022,0.053124200297176634,0.028116929434797898,0.020036719510454125,0.02098345655448052,-0.06423471853744059,0.0017595432622130457,-0.02129153226414879,-0.033351767384440206,-0.035052955645088486,0.0021621915090701002,-0.05694184638898608,-0.0299762177815402,-0.046910342465520165,-0.056878021224797765,0.013368558074317747,-0.06145448033771628,0.015614516839971546,0.022192095302024643,-0.09516713649880543,-0.05901160950610594,0.04117409834754836,0.03371942663347529,-0.019023872682386252,0.03564306735187132,-0.03165300257538568,-0.0214569990105526,-0.0084050196825535,0.0113552922548746,-0.019134151581037734,0.03839111924680314,0.00045126740390969073,0.0011867909134556126,0.058662441278121966,0.03371600108082046,-0.016849782445120916,0.012732210483528164,-0.08361205834537812,0.04140051899398301,0.002410184407342661,-0.013672965152118358,0.04261912088202771,-0.015390060836380596,-0.007199427656793785,-0.018106311661001188,-0.05283717675382169,0.054883245419870434,0.011322628203845579,0.024792465375627487,-0.07787272315104082,-0.028866741922378217,0.007579052805453825,0.042189245340342234,-0.04255071660846256,0.026799173090690086,0.06182476174436157,0.009723535382083476,0.041459088739277505,0.026480568952870237,0.03016912805833515,-0.040124323434908654,0.02767878025344487,0.01682730667590344,0.00208515647265206,-0.06669316694171758,-0.0022558623195095655,0.014097969368596305,0.02873784906324355,0.058327355622962006,-0.0036206703926100954,0.006057968814589791,0.016614169611208828,0.05950941412497383,-0.017021855802216882,-0.017711667669352033,-0.021044871778176117,-0.031159604900634193,-0.09450661288119169,0.025152405556745444,-0.02140334047959464,-0.03568421092504158,-0.04317346886124861,0.08322311689551008,0.01889581525883487,0.07879286409349325,0.012112499179929312,0.008721036295378893,0.015587925187562931,-0.02829277008177471,0.01532009784131832,-0.02079124063688855,-0.011162413725970814,0.03295705396207992,0.02552649977885274,0.05178211959307375,0.0810729525216561,-0.04493006101869586,0.05995973220809469,-0.013101998852830218,0.01763909818110364,-0.01517248871108574,0.06166068775589231,-0.004209906527866376,0.04284229962169444,-0.0006882573548908584,-0.0672312121535655,-0.04595223540005103,-0.0022517894578746632,0.008149034864494496,0.0023651662432409705,0.07678262246876044,-0.07132599321400948,0.010018105924075385,0.004366395155733725,-0.046735061959542,0.0026366817431063816,-0.00970482929134885,0.030757184269568926,0.04306887307977018,-0.023869970461727567,0.010374555337461747,0.045524837779508706,-0.030664623497245122,-0.04786524468989951,0.0034815630749290257,-0.0014492055891530207,0.022925790603219334,0.03052024050474473,0.025200637116901063,-0.005400124372155053,0.07648800269434604,-0.05285237981258576,-0.004383099667031118,-0.035903010416698966,-0.04392024071965446,-0.04088415625902894,-0.100120069920812,-0.024753418820370972,-0.010879993462705415,0.05291866992656392,-0.039680137488196494,-0.01722819253637435,0.008779804829042852,0.08275978774288215,0.07932144211477325,-0.052084565814356616,-0.021491884197649004,0.0013654453635535896,0.004967923089387926,0.03316779614145301,0.11360411415939912,0.057045839604428945,-0.014415350272450146,0.03857257714607526,-0.02211706475606664,-0.01349295732060794,0.02110931250699359,-0.06436764454571402,0.02531657007757479,0.004196838793138623,-0.006815030108173797,-0.05364603714505902,-0.00971436722605486,-0.06730671469359684,0.034928908820386205,-0.04246591203044109,0.037680494522222184,0.022157828357946063,-0.03293353070988014,-0.02461849785858846,-0.019371875020385402,0.07685886077676865,-0.05648339470494414,0.04915527436491963,-0.02681584575709111,0.009499474978510605,-0.020567240203190274,-0.025338893941733782,0.025795115649034844,-0.04443278309256788,-0.006726451675863092,-0.010757676354779784,0.03151965566102594,0.054234595936087815,-0.02890617761837826,-0.006734142435711153,-0.017116498275157186,0.01310378492949188,-0.03593046744769607,-0.026459687868127597,0.030020898725203797,-0.04689089776178413,-0.021161931535673466,0.10530677779164135,0.07634244732246562,-0.025373014439297736,-0.0024980159761883755,0.051560192547769404,-0.007241837265522363,0.023380487979849467,0.008552669843526834,0.03743718794440109,-0.08413483849058678,0.004615527114475226,-0.00789745983853728,-0.06137690410345176,0.04199705652703219,-0.04972072099913795,0.014238346180913634,0.0240229224556273,0.00469028104274443,0.023748285442619876,-0.012061738876727924,0.0692798630071908,0.027867821758636387,0.06412599291594993,-0.041708859622163495,0.029217912291291743,-0.06561074707764354,-0.011638410867019309,-0.028629394635809973,-0.028412968803279346,-0.021935838984396674,0.01951716582935237,0.03569362807766105,0.01472062688221699,0.01381723764984339,0.036959349494377736,0.0213740745085709,0.0139481755342095,0.004235847808393515,-0.028138643754889205,-0.0220293993801029,0.0035931845617716376,-0.06729122104702648,0.006222836491195529,-0.06941880417503521,-0.014286083171640407,-0.04933397071401446,-0.051362794611633754,0.03849618199796294,-0.0032537224411310793,0.009087615458921177,-0.04438816957389104,-0.012548685676648777,-0.04666194426671049,-0.05072819922839441,-0.009815146066862467,-0.02262943453045183,0.05188220162749485,0.009556873935491466,0.024563356345499054,0.02166409231445592,-0.03822626143048131,0.03572157593231359,-0.04264191249390173,0.001750891170576477,-0.04279416523704893,-0.008231075536239689,-0.04507642109717914,0.014620459978829381,-0.022718849806495633,0.022089555709606454,0.022722170388035246,-0.014516122490518974,-0.00982903609612922,0.0021058058578203357,-0.0032484985012271863,0.017720362048225864,0.011781405597843048,-0.07588688477623663,-0.035203272148143575,-0.04313592427038825,-0.054252880207154505,0.0025474469945458,-0.05236305014298834,-0.017016614264865493,0.08542349478886781,0.01302145044047053,0.011657690695142678,-0.010809738846926957,-0.07471587819518086,-0.014764396137869824,-0.028566016564417627,-0.03748719087806256,0.022626882978437155,0.06751409152694923,-0.07519842244903552,-0.007152235837080549,-0.01919702644045985,-0.03661512543981305,-0.04641307177218503,-0.026765643449865935,-0.026996790593997917,0.03764687672894806,0.02951035009349966,0.07429071238383672,0.024926919539986287,0.013017578658792594,-0.002212597841742818,-0.04770688655530683,-0.03447375789952104,-0.005177012448537236,-0.01693719643626497,0.003525075828502035,0.05667005737980974,-0.0064331156818624065,0.04663289478992664,-0.023447476594008542,0.005682702848715523,-0.0059912341505833555,-0.0941329235911033,-0.0034180842413206783,-0.052551527536862666,-0.04983545655890237,-0.023511193446773885,0.011616525343447705,0.009356597898447049,0.007594012604787235,0.025954252904787697,-0.005469258266344045,0.028647820446515208,-0.003306391484290139,0.030998730651363927,0.07294362842906434,-0.07346956195507365,0.027174033254048408,0.0016292050765133758,0.014838982084127107,0.06339813417078496,-0.04435269741182182,-0.011195687812474323,-0.024543741694526285,0.006402714824433094,-0.021549095667330407,-0.010978284891221284,-0.03998577477657931,-0.015310213005334144,0.008811560804324148,-0.029639169666451255,0.036338622240486305,-0.005393275829372168,-0.012711761922543224,-0.041981674408462046,-0.006746169323452241,-0.02032086295804874,-0.031211090382392878,0.03402242426771692,0.039609741166250136,0.06690596298671465,0.019480600449463013,0.04695332684121296,0.02975216253015518,0.056336972346449334,-0.02539742622743328,0.022062716165555454,0.010277672885627634,-0.011604164382081408,-0.037419284752305514,-0.030002580780197713,-0.03084942457219526,0.04438266415414379,-0.01597068960241921,0.038632398821733006,0.09949471668102798,-0.015295025825186173,0.015873066834737385,-0.017817635083660608,0.02846726219343981,-0.029452183964885227,0.021141787171599737,0.03937860565299089,0.027705552326135884,0.041862492985899336,-0.0342167348639176,0.036668620607585196,0.03376479000819366,-0.03123504850948363,0.0619180059761307,0.04060632206083598,0.04525530618073728,-0.01928831795404106,0.006204357380277731,0.00045701610920213337,0.036654558736339465,0.0371027179076164,0.07140269430010324,-0.013668769373927721,0.011924285184025442,0.020598154068898592,-0.014534274630003027,-0.01550046999758987,-0.03453870753514975,-0.027479897066150494,-0.006274268183181009,-0.07826719293865052,-0.014208910316703668,0.04158661898113248,0.012128309252885978,-0.043873251866910525,0.03248823499121831,0.05153327074365953,0.023087062934496725,0.00594481082131514,-0.008560504470916672,0.01040749276355817,0.05553790796822418,0.004660516494148957,0.05915791047027807,0.04307916770201953,-0.008094088268987982,0.013310014142026635,0.02285580164182195,0.028152547305655164,0.09590268533136348,-0.00737465438769918,0.024702263986285115,0.016439149889612575,-0.014958252671634364,0.06018513776815135,0.014516148334174256,-0.006024579175277455,0.0012635631896543852,-0.03664397199133778,-0.029369010911664457,-0.015041541701658728,0.01326602801436527,-0.03753140117113512,-0.06502900032815856,0.023261506674333764,-0.0036200769376148268,0.013167745168247183,0.018793860546155214,0.03201075951897493,0.04856258118247874,-0.027008756578887995,0.09252800800121391,0.030288371056116984,0.07056473699539778,0.06370733735743087,-0.003959698593741203,-0.004525493605403689,0.05833956242919638,0.031461478967109935,-0.00045313797017395235,0.03578480791195103,-0.03499308764634012,0.01014201265890114,-0.018841550005020784,-0.05294914236412463,-0.008909215838803202,-0.011586732780546645,0.004133898990173167,0.0722227726385855,0.029067387785084223,-0.07867763568905559,-0.000225722740153025,0.0019544260396031038,0.0148656729508622,-0.024475449623018963,0.00887376704617827,-0.004291134535610703,-0.04662706553867593,0.0047426890174953155,0.038334950564103,0.020908502337955073,0.016342824560021212,0.03790557883932423,0.04730471589291733,-0.02494785412082439,0.022563455778355935,-0.017428097891407774,-0.027806778721096246,0.022384521561931662,-0.001455845617984106,-0.05459164918872112,-0.015306914159950905,-0.019762422366366585,0.025587142069338972,0.07519291639029291,0.036235435065347085,-0.05065705209484741,-0.027479604358933346,-0.00034731074793329573,-0.004011527721095632,0.015745489774454176,-0.02981356627735673,-0.0819815572260212,0.02491743521315262,-0.04675063929569353,0.03249817071612273,-0.06475242325542455,-0.03033376610591964,0.037496135170506,0.0575815992162164,-0.0006293646991075145,0.024792146224915844,-0.025864030221699162,0.020144479914955483,-0.013909263099126871,0.036437299928794416,0.02865361238629729,0.08528704903134765,-0.034919845580479676,-0.002404632902284036,-0.010187558542057674,0.0068385772933670435,-0.0024264832104338996,0.05541916438395146,-0.011708055069990059,0.00795268049427725,0.03978149846750684,0.007564160631625714,0.004154877087388433,-0.03690358068465133,-0.03354781458663453,0.014601146533078773,-0.010786735419484463,-0.024967416961722867,-0.026633490720145477,-0.013493887010283555,0.036066916671759826,-0.07069137045236927,-0.016838246996901556,-0.05049853821304194,-0.04408989891649435,-0.02795725937571658,-0.03787505176393024,-0.02097535787311795,-0.0650932451170184,-0.035131895234739266,-0.0072059711583121345,0.02640257566523666,0.0317742878835999,0.04885010068725039,0.002459496263941732,0.022012892490654964,0.00741256278415574,-0.002232091826272894,-0.0004784831582846875,-0.04397083238604675,0.0422127772504733,-0.00305101805213782,0.0008531115737601239,-0.003797097232243694,0.040217003949488773,0.021666130481395544,-0.021958875251398335,-0.005930342366309297,0.008838488806148221,0.011458129575098544,0.026686568322686243,0.015225349747601737,-0.051349736751313664,0.01958604778112502,-0.014300910231173674,-0.03766323587632075,0.045933312867783335,0.0019307758994500121,0.024143143367405577,-0.05727531311154249,0.045181204097979086,0.013356485848592088,0.01957760560243587,0.013072449490212737,0.051260074193869146,0.02173515924010372,-0.023059922069594417,-0.028043756996230167,0.013721153361831927,-0.03494542582970876,-0.01955403615665934,-0.013463215970934467,0.007168002634720384,0.03283689194856886,-0.05461368243946416,0.06256028983138151,-0.05839857253879664,0.034567820635760825,0.0024125957111598654,-0.08877169300660348,0.038432536010376155,-0.030475119853660138,-0.030806063956336435,0.02472432293930316,-0.006992810949654582,-0.03102027372797933,0.07577540110903948,-0.002204719657623917,-0.0020999047014551467,-0.07439282091449441,-0.00756291858669855],[0.0763882365755107,0.015518228069731013,0.07193613515421426,-0.05611182373542384,0.06591932773291483,0.06750310956297091,0.03914947134464397,-0.06750394816861285,0.014931161819732289,0.06870176399364454,-0.00808180777407089,-0.016538541796220527,0.005061129481961693,0.0041465747837157,-0.008472866958238933,0.03190376036088634,0.00480732491191106,0.022074060119047677,-0.018214618606795633,0.03555218953559462,-0.04870983640165888,0.003166878282993303,0.06194349567461149,0.011472378857351745,0.02893316031263547,0.021343434522493574,-0.04326557391989572,0.018394024350279307,0.01587458696356401,0.005086910827900616,0.03115203406133422,0.032522872770023595,0.06032394398067135,0.028630991216442386,0.011091260737712818,0.0015866618271496863,0.017826502773950814,-0.0028958217377146513,0.07046165129228675,0.016676566235629443,-0.011747293026711023,0.009070471274936555,0.02264992527997716,0.002668690519211117,-0.01911073721517076,0.08205647391457853,0.026444806638823485,-0.0014869734045941318,0.02906582333151215,0.02492490963250862,-0.004878234457343768,-0.030488901181650496,0.024189578438623672,0.04013814390813914,-0.025370840865977826,-0.026731015513492967,-0.0012163137760990467,-0.058209257471033185,0.03297800336311675,-0.0058938240768404895,-0.06326114729868305,-0.015671073778651956,0.010694248439928233,0.059582305988864534,-0.018585720211249126,0.06770381740200701,0.030447439839680138,0.039142589831229015,0.025231415477316967,-0.00363417528284486,0.10357436175634606,-0.014751610231668242,-0.08825453687909816,0.025174966784652607,-0.07789689596675363,0.013067674198122317,-0.01503116332946381,-0.02825409662842808,0.002147063128475587,-0.013236017616430418,0.05336596770200265,0.013984143350093216,-0.018525596179438292,-0.00665477691900554,0.06562788895985108,0.02437076178599085,0.03126447382112669,0.012451077782737444,0.00785615858389295,-0.026609153276765104,0.04166721834146305,-0.053815262567655155,0.013684197802549274,0.03479777255011391,-0.016237260560729314,0.039332311681269445,-0.025797851759437242,-0.05023184333171681,-0.048438122938316064,0.01612497285631204,0.06105499053854684,-0.04586820876073745,0.0019004600675294808,0.060065721386948566,0.012488443194600107,-0.052282558253659774,0.027480842893265925,0.039560954781021736,-0.020456782177483968,0.05228903044024113,0.009595726452785409,-0.034300544654887404,0.04215543659781688,-0.04887958034881928,-0.045465864216605784,-0.025086814732192354,0.0013763638143566301,0.0024753907527682653,0.07212396088740328,-0.0005955768194081493,-0.027189163713572533,0.026896181707620623,0.024158790665782068,0.017926246524430436,-0.03280055260182076,-0.003785297333190546,-0.012782306519957896,0.029382809332806608,-0.019481900377322316,0.006434794564678033,-0.006735087747920107,0.02704048610253892,-0.04260133073893523,-0.009025555591786123,0.010605515633261958,-0.03863565768072165,0.0021771287621653907,0.01375689263777095,0.006733567850052667,-0.03322346721391309,0.0342755573428599,0.003870336868763384,-0.0017671880751026934,0.04334488613756461,-0.08900739505274699,0.039421868640840275,-0.014519826457792472,-0.014925507414993665,-0.055757084018006865,0.033301035188632915,-0.022938093713385628,-0.02342049835227611,-0.030581194782389225,-0.008862677628825524,-0.03862633255581254,-0.004327435654640829,-0.0014865357120461466,0.04377499502694479,0.0012427328100812734,-0.019908058094779094,0.037619472920784144,-0.0027987025642396334,0.03128458861585795,-0.005729085353539069,0.013834002787164398,-0.050051912008685244,-0.01794679639658916,-0.027101449317260475,0.011591989314404624,-0.04464718638264635,-0.010288920435073352,-0.027465903309245098,0.014784895689877653,0.06208147473424978,0.0593127228547607,-0.05998640407841954,-0.02425449386443869,-0.053567165270282296,-0.01356047962387596,-0.012787886486399622,0.01618789033575983,-0.0434845479202635,0.0030836758223114435,-0.013497426980589495,-0.049246750161774856,-0.02936800063533909,-0.022559790351262165,-0.020670170156609328,-0.055969662923321346,-0.005463874163253691,-0.03445006055907532,-0.024056727231451882,0.0757007989814256,0.06738233199038042,0.05353890281683105,0.03305132872075119,-0.03341921359150758,0.037988444139057644,0.024905358871186646,0.03254432163084916,-0.04856732840841832,-0.06974960196555446,0.07636481119628127,0.0030970408930195933,0.057379632696087986,-0.03935618638452048,-0.059916291563102755,-0.015328552978457144,0.0007900410881832838,0.02727821846323987,-0.002175059197048884,0.02247743080481703,0.001039239222542243,0.010496366247802012,0.03340859577457678,0.0038432915484526054,0.0320279408448016,0.016510782601614024,-0.025980096520037722,-0.041070358557459365,0.02688056779246199,-0.06872619338979606,-0.07126915677100554,0.022674461555313125,-0.030391665873220702,-0.005342736799639617,0.007143260836959717,-0.06706896799787382,-0.0013252711470271477,-0.03279148771002616,-0.001392450572882812,-0.0032741158510159623,0.0380235857111561,0.006737467938018778,0.06262130352864627,0.003661621328107694,-0.036591039460383605,-0.042498485721125814,0.018118236843502486,-0.03505521735063124,-0.03751681535474171,0.007380126982645118,-0.01291767510863112,-0.011469058296264439,0.019070653167579155,0.018457259777075973,0.010174589114507589,-0.037653211363323294,0.06641755543663316,0.03554692038952926,0.02618317495224148,-0.01666452628253591,-0.007064153115612626,-0.044098787813498706,0.007797867865617486,0.030608289775733346,-0.05787124723949737,-0.06441729274890541,0.0018126295740631057,-0.011785975300279562,-0.030320788610455812,-0.0481247141072157,0.00007118283396925947,0.03545461938641268,0.019759639897961066,-0.046202848993508745,-0.004325934947238353,0.015153111952710262,-0.024918331550937225,0.05105939278611022,0.00018228126368384577,0.02729462186115594,-0.03963115012439317,-0.018345706592506617,-0.015466922302058555,0.026596125914528448,-0.018891055569948783,-0.0008916108929061261,-0.03399908992418898,0.0035103051348089236,0.03245295240071438,0.059247634470839125,0.020738692720192443,0.019844089067245548,0.006027620804708878,0.02515855946633768,-0.04449080457367671,0.023939300623302504,-0.03510893966946844,-0.057644125526702374,0.012000694323266689,0.03598047684622351,0.04578466602758867,0.005961319920087459,-0.011348236466362835,-0.009697736027179932,-0.018136697084755005,0.046452360413457724,-0.004561755424970716,-0.009926203176207331,0.029862948608523784,-0.0468582051050208,0.016621376167208858,0.0021440340230718152,0.030258917234597955,0.004311570963561153,-0.01590839279968253,-0.0296652219585432,-0.030795283792564142,-0.011732432029415828,0.020508168328691203,-0.010459634914582005,-0.03991905728086313,0.003836490043395136,0.0001549095951746919,0.05793600151231369,0.016942230002040756,0.030512484343673346,0.03506080859640101,-0.06831202755864418,0.040643409386505604,0.04543286372874695,0.05117668107620206,0.0052372332446262064,-0.0012647678261571219,-0.022878869695116027,0.02905879384044768,0.05544450892088759,-0.03056833733481295,0.008025449067374554,-0.0703161163063031,0.041376533225718645,0.020193495200283757,-0.01176277392209906,0.05147423992820506,0.021421944142708038,0.0034816551939584627,-0.014774443331226251,0.025364708075988913,-0.05248118324214462,0.023173014992836184,0.015307219692895469,-0.06164932891694432,0.007695099093176054,0.015330836647763245,0.04805562790804157,-0.004990364932601153,0.01525954985744317,0.03308678392701358,0.00082635761359953,-0.027845420376196885,0.07749106979586216,-0.006355866337713841,0.029328578113110643,0.021594247303794965,-0.005658634763462941,-0.02827455675493019,0.017399844110737826,-0.07964630820690469,-0.0015457920272258054,0.0698033775121475,0.015872644301740263,0.042903833118063846,0.014872968162246723,-0.01393016333106328,-0.033304559414187127,0.02432684019990595,-0.01103269021600431,-0.005835368510886323,-0.009297129194618586,0.007920241976190222,0.04077114578033781,0.021215541647325014,0.06923337014121222,-0.026079828665141573,-0.04456297968487475,-0.05799365720473244,0.002334911167215894,0.029895453665027494,0.013062900528115694,0.07215020284170368,0.014849628485585605,-0.01763881650365079,-0.00513488934494883,0.007415029815344487,-0.022527896771282047,0.06354763702553565,0.022330993286109133,-0.02094151719516029,-0.11435239769150449,0.018965464759039877,-0.007328632398296583,-0.03134042529345497,0.011665634173401454,0.03999195784700526,0.07277646407167294,-0.03966055934602767,-0.044998199624151344,0.06679473453851856,-0.036888023089909065,-0.026046582551290203,0.08709868188038963,0.0008033610511549077,-0.013462461357398852,-0.02520692205652308,0.0033753953231264074,-0.00842428311498027,-0.023106598596775385,-0.015827479824279234,-0.0497742225163889,0.05605981104704576,0.017727999099611515,0.03605376204140051,-0.04529963599936429,-0.00352176582063085,0.026700516115791363,-0.007198910833527563,-0.007637087153121706,0.014257530580030897,0.021106982197032564,-0.004653795054145258,-0.021435079507386868,0.06892898041727365,-0.0030291896629168996,0.044051994246202264,-0.03270155404191792,0.056768116279002204,0.04137100423443475,0.03939419009459169,-0.05093571048037579,0.0026640114798013527,0.0007452961460892083,-0.013541717499860512,0.007654289744140652,0.0573679371308678,0.019605623458857566,0.006218595673154485,-0.02433498627159646,-0.02687695319945496,-0.02629345999823889,0.016297081997352893,-0.04927607324089985,0.03292842318397093,0.05938345511937436,0.06201573424502142,-0.09142292367892801,-0.029524412994666266,0.02971758804930504,-0.02541273026234377,-0.0843953068019164,0.07771102065583568,-0.10595318614142973,0.04354895496585485,-0.014030883889009275,-0.0020489664471549595,-0.009972490128036266,-0.021985873255121816,-0.050897465843997534,0.003666382757586419,0.018862244005425317,-0.0243848021318221,-0.022237486398190228,-0.008267462704151778,0.009995088109588561,0.006350538915199796,-0.007807620095566644,0.06447938504691796,0.008358856595843947,0.03409550793519862,-0.05876998470491789,0.035241450084767534,0.07126182135553978,-0.039201039310043456,0.0052874057754138,0.008855182794140274,-0.012726660947943386,0.025520511831005458,-0.055708312730331305,-0.06553841141682183,-0.039581367621889865,0.0333247272480117,0.04297658454811091,-0.011267600336061374,-0.03290936623508461,-0.05224955705733088,-0.02165330615279821,0.04286590210674763,0.026739946989940026,0.05328032242542582,0.0513814547153221,-0.03654362601675474,-0.0494110273101559,-0.02453865329845087,-0.013742900979862926,-0.013853489778019987,0.040506405794078715,0.05008915493417572,0.02420975616518361,-0.013209975022240122,-0.001145435228515818,-0.026703215356438156,-0.029675468219025822,-0.027072585409726065,0.02699615840590907,0.008518044498379703,-0.019627293906106524,0.040909277074985706,0.03618749658798767,-0.0317972733405183,-0.03359427599383443,-0.030624747951246603,0.0161335896744292,-0.028253233750764925,-0.040269330674186504,0.008579838464127519,-0.04927342226356179,0.021500354530573265,-0.022611098814255194,-0.03224722439199818,-0.013206214252266363,-0.0038983106467245566,-0.0007638908250599787,0.03310007015127125,0.009779639323527482,-0.0023037949387439667,0.016657865136593678,-0.034125858606684205,0.00480469256514646,-0.09585641149131302,0.003329675272803657,-0.006537576807370525,-0.033194602046287165,0.026626738149989955,0.06984260349869846,-0.0033485948266161565,0.029655516029666686,-0.035600834883616456,0.047922723495647225,0.008810170698555728,-0.011876903577442375,-0.045883336769508114,-0.023556390137910475,-0.018040861454724957,0.029526459022975585,-0.014949268277512409,0.0006844053584257441,-0.03293155206538993,-0.02844868098327219,-0.01198844281660905,0.07178204132555514,0.03720948246562316,-0.08340101300225836,-0.005604804504542662,-0.031226911062757143,-0.06335468248246676,-0.0146179606868525,0.03264558310437334,-0.07064657333510888,-0.034567676131028575,0.012202225323685197,0.012447224379310128,0.043140420304284645,-0.01794769837239777,-0.032189548089903146,-0.011495257538293101,-0.06977128058421665,-0.024848236995907276,-0.04490904296479393,0.04452109354873288,-0.021314000690206593,0.036251282537917574,-0.013578528823660266,0.06248621500256982,0.01988613495224137,-0.0013676432270016488,0.04329400676187992,0.02790198168795064,-0.030632348222987296,0.02450793645765149,-0.0003825378816078709,0.006958522868552326,-0.019032189173021186,-0.04963740659127047,0.02739402551107943,0.00889592554239416,-0.027009348080344185,0.033046227348386276,-0.06586252703781283,0.000955334402695151,-0.020490552819129797,0.0330434269208351,0.006441911202353465,0.03511868910340231,-0.0025499802507292237,0.02752368503176001,-0.03557655480173584,-0.00950891629040038,-0.06792983235833723,-0.044783611209046094,0.02880880782550473,0.03087276109823402,0.056056879871942585,0.029765067591876488,0.038981578141094306,0.017138216896472196,0.013506119619634277,0.010229272535236391,0.03139581296636952,-0.06476924479698803,-0.019641711653423426,-0.024074613976913663,0.015052089466856143,-0.026323965835126317,0.09532638235373633,-0.1162635620321441,-0.0984421652773975,0.02690910874152832,0.02046549044794294,0.041024529509958954,0.09565401656093361,-0.05094375057380486,0.017532224343253335,-0.008768638722611384,0.047474977434892596,-0.0077736147578346335,-0.05284502373867124,-0.02484034439852238,-0.05001807948896589,0.017074842012383948,-0.021540693306207944,0.00016065832800032684,0.06215351939721545,0.06954214084207509,-0.008395486764481446,0.027832970530710006,0.06432206645593953,-0.03584155107553192,0.0146341402109253,-0.01120662075664548,0.06143808821462522,-0.005129771870338836,-0.019414253910143637,0.018126563310083794,0.014375239614166981,-0.016469963002058295,0.03325503713870534,0.03429437349125968,-0.006718430473001567,0.01919214305256019,0.052019745652506645,-0.02803978405214415,-0.03449560301504888,0.03625647975550956,0.01014322678335046,0.12508360985544315,-0.006277200661604136,0.002662275578815511,0.10610004454270694,0.06782739697659557,-0.00030308611606633145,-0.059375569282816586,0.03665613858967042,-0.0001578892291902115,-0.04197206793725188,-0.016418315215001523,-0.010843296732650944,-0.0309405827916212,0.006174071072800778,-0.004397569857266623,-0.03267370964104959,0.009288017115033912,-0.07432612743078197,0.015411029957134096,0.038396626888362054,0.007602298118636674,0.04940428270774542,0.00039483555790194465,0.06834452763604196,-0.018280207840363716,0.02605136234586193,0.03080147074020193,0.016498965327141183,-0.024933829363438725,0.014861284320054884,-0.030938340333830753,0.0019546370326552816,-0.04512022909206173,0.007839179989361513,0.07694524579663999,-0.03547298486979004,-0.05387292023068704,-0.005985954494264673,0.012271925612660226,0.04008622245743605,-0.05668947271551911,-0.035717876638042614,0.02681372499447358,0.0071403506393572895,-0.027827035349731914,-0.037849630175246056,0.030362339571015567,-0.05656652535108986,-0.04909049199177994,-0.047229927375960816,-0.012134813054004457,0.05420807497231687,0.010241796920552392,0.02811172916027283,-0.04884351517428068,0.04926333375730344,-0.031440868433075926,-0.049481610563003695,0.005954310129046264,0.06280184454873823,0.007830813308238468,-0.027914369126084755,0.046605310673934745,-0.05406590476028278,-0.046808600785142256,0.019799407099681143,0.016769840571401115,-0.019902038131315584,0.023652980195416638,0.01906495248901044,-0.0015776829741700753,-0.04305249292153189,-0.0222033290255001,-0.060272843561055015,-0.004595616902303667,0.053625599409721995,-0.007997771105344244,-0.04015419152578913,-0.05544385629895232,-0.002962533873163379,-0.04186290971274657,0.021793676979240947,-0.033303420753630714,0.04260719942913595,-0.0027350979277159567,-0.020630697984323838,-0.012177885607395529,0.022392942411112646,0.01622421033048566,0.06781446812464598,-0.005562117408425746,0.05935881552478446,-0.01137446327501339,-0.008209314827333915,0.001197038992750963,-0.027629649241453044,0.016362887038740608,-0.011924156068796406,0.024217701335141686,0.04334912865533253,0.024203212272555525,-0.004024035693243459,-0.06736810474133578,0.0930715720334245,-0.003724169388779485,0.005429957042690664,-0.015318016182043995,0.04349917463276737,-0.003285698830680488,0.015610064209694017,-0.01818696183107094,0.01669362160307073,0.023205683529806516,0.005663495322095685,0.00975181301153289,0.014150299460431408,0.0333979374243627,0.010275817763264182,-0.007532721769294014,0.06162622064101435,0.0508176830197421,-0.004801720757273895,-0.01033567508610998,-0.002073109596721963,-0.047478699046393805,-0.0337874550637394,-0.024712840378916145,-0.019976924298929843,0.03448735173035091,-0.08374724616172544],[-0.021434299271997703,0.024051068084472126,0.010421347073021723,-0.04960402259703122,0.008764761730151163,0.005382678923873519,-0.03046786656184044,0.026093784988793556,-0.0216714487872951,0.019401778595234783,-0.07236577393380282,0.03319826262723023,0.004563371106645638,-0.020459444944046706,0.051016441012194026,-0.02216525511487653,0.005133908743925497,0.053857589564859365,-0.028106857329273417,-0.11026326571164421,-0.008227078247158088,-0.024074282549397478,0.0854941786719067,-0.031112509882590508,-0.0032707976144196018,0.021414853841988487,0.04384340848740017,0.01580418432651633,-0.014406619973656354,0.025703693069588498,-0.00972093888514693,-0.058824720051324,-0.028163777967338374,