{"layers":[784,200,80,10],"weights":[[[-0.042350014836352985,0.0006921896490709656,0.020180326556289183,0.013031223909392159,-0.012998884200238531,-0.020488030792892454,0.03302234177625603,-0.05556626008932382,0.04075912303752234,0.010787813259497878,0.027481636463368226,0.12831881032575804,0.06961442543204059,0.03049595826064308,0.07522522046037979,-0.019377322370887358,0.013259569838352614,0.019036725299663375,0.006922244808918574,-0.0629426388802374,0.0066815376996592814,-0.035360897505013845,0.021705584272631587,0.027885678990758483,0.019208034346637454,-0.008250436790123779,-0.008737292304863486,-0.0010681130625618544,0.04837363084765898,0.028700584920930198,0.006221756686770575,0.04688911916187847,-0.0817975451812925,0.011750928850173536,-0.009779200530528873,-0.005389239733322027,-0.011562296189043348,0.004237663949415583,0.003969482010310315,0.02280829293791852,0.014866122238772355,-0.011470461977843138,-0.05426392267587831,0.021511010249029065,0.014918860096822082,0.0015981810925129254,0.04069113284372354,0.010815512341437534,0.014832322974509378,0.007196430661418762,-0.012141529291227863,0.027271940084127966,-0.02300140857524801,-0.012320777603211862,0.01820188003194768,-0.02165873079569403,0.033356943079035396,0.006409958786765326,-0.014481063113447828,-0.0016731763302808957,0.017688362037538385,0.04359037320628763,0.0201114448385275,0.0023439411850784846,-0.006232839664773228,0.008584795148153043,0.026030919022817265,0.015463471361527837,-0.020454637842214088,0.015969346418267943,0.029043154852560243,-0.03210470040379607,-0.028510531200927197,-0.041663141083797914,0.017300141721488055,0.002273074985831866,-0.019174604424309273,0.002793332439904316,0.012622285185281376,-0.04663043214419694,-0.062002411766032536,0.0023364037929378603,0.0670854670303269,-0.014265707265813221,0.0880915289026261,0.03603842760748497,0.04754331507979314,-0.060358265282906366,-0.03611010859386399,-0.011815093968819673,-0.05939328916841191,-0.03319380311722575,0.027430508888613443,0.03112030887878612,-0.07916961664552874,-0.002858245532248423,0.033904364732141826,-0.020337752114691483,-0.017157811674129272,0.01728038971281944,-0.010728094394434026,-0.03686489409894737,-0.031035044612108428,-0.04025454316259037,-0.009355124089259355,-0.05737704298814438,0.00011725638317676642,-0.07132407317525694,-0.008791773927787152,-0.025425423415161668,-0.0009046687504470696,0.03374417345509439,0.016351416830439936,-0.0013926736501494368,-0.07793535406172188,-0.027050747819284203,0.016720833893603373,0.017553532921173145,-0.023944240818735404,-0.012659300929657422,0.036728787261644316,-0.027137139305017075,0.009513388298726827,-0.01446542127269465,0.015007015570606493,-0.021879394091864672,-0.040322708944845784,0.03713895013863701,0.036536174374354,0.03868904509463132,0.02139163331082831,0.026806384623996597,-0.03832557992063681,-0.05223373248562917,-0.028123189474335328,-0.017277265048358408,0.04897659344199153,-0.01417028433041602,-0.018814650600742833,-0.027885523251541616,0.0022959028185117066,-0.01431890089060689,0.03409117567777024,0.01479730075479986,-0.054784967204338376,0.05434013559348876,-0.03710518989378841,-0.0012241150223234792,0.004118121324738402,-0.052158938532614295,-0.008627171172355787,0.08643010545559389,-0.013228126328116922,0.02863183068446368,0.052605841785182184,0.07773243096818314,-0.00999307111772959,-0.013127638406046712,0.03523499895248978,0.010893358752836148,0.003317257141888544,0.009639168198027718,0.015461748422191095,-0.031159635119365318,-0.01560683008500203,0.028090652428554175,-0.025336709075980016,-0.07141512599111267,-0.04526877630797612,0.017142247739759607,0.05579683364026798,-0.016605429836256427,-0.036016889113402145,-0.006461249231044937,0.00976640333396276,-0.03242254668215088,0.022545228767339758,0.009726848095957042,0.034663968688750525,0.04058209918263007,-0.01458428259965307,-0.010937098590071371,0.047132842272015946,0.09386575455042384,0.039424357647772336,0.03851284453817436,0.003027555556173629,0.0296494894041294,0.02407321552936996,-0.009019716323563957,0.024792173696038398,-0.04846585784426035,0.050645264238548614,-0.028710986654861232,0.042723886192855866,-0.033444488401158885,-0.03773104873116255,0.016281219216355967,-0.03250838547977196,0.026210290073515424,-0.0303869232284485,-0.025474365038928356,0.014063740858796438,0.013711584112406295,-0.014213127461876439,-0.0012673932532464157,-0.051341341467538354,0.03788841917058572,0.000875659442146839,0.03654687807792807,-0.03905402909189313,-0.012631593891351973,0.04183282068099658,0.07353885737130189,-0.023104673578912573,0.029026868547995258,0.022045712583955407,0.04625094765369979,-0.002997795299255046,-0.0015513987490806225,0.018058909938487647,-0.07370652052441509,0.0003264618529223867,-0.014884811676562562,-0.051653991936516305,-0.0186831291808419,0.019297853996083872,0.02328411405175582,-0.09883563581239616,0.0008277512385280014,-0.07741381353082295,-0.020553654797185808,0.009030773516114816,-0.012280794254106643,-0.022255571135743668,-0.04096034649843048,0.034882588545882734,-0.01415832725902286,0.025106918763415646,-0.014494634023736094,0.02039862423099859,-0.0009734075668911996,0.0015078639317047033,0.0048928436955527925,-0.06900907841361825,0.011351668921450592,0.00016133217142115202,0.034125992114709985,-0.055510007601516136,-0.029633089427667972,-0.032782071358659265,-0.009758420153823956,-0.03493308986311118,-0.012507781713157473,-0.03855092272897114,0.039184163471456424,-0.02366376224052789,-0.04509674152079004,0.018636461743710066,-0.00871274220816154,0.026629556116789372,-0.02657887695267042,0.0018207392299512766,0.007379853877526657,0.006218069932584138,-0.036335128389589424,-0.009928959833904408,-0.0393710089761579,-0.019985760235978756,-0.02386054841205178,0.03568577208282452,-0.025689601324206342,-0.004927612518718013,-0.004647899804132012,-0.0074480196048104,0.05004889373102924,0.07333658274568547,0.03084733625102328,-0.007270677059754058,-0.015039984338885433,-0.06457989152458689,0.012496460792721568,-0.03863777590711989,0.004185844238607826,-0.16120254687822771,-0.008296567800963228,-0.01214589207123091,0.012829676366680821,0.053665538017070205,0.014588647972339061,0.0057816622055943,-0.04667700772202523,0.009232114209195837,-0.005338515349049826,-0.0016784463808785042,0.06555323364242614,-0.050420788076254885,-0.040088251186350746,0.048069868825508844,-0.036394329737063094,0.005565993466926811,0.05666775777702702,-0.005751816046471007,0.012662328469141395,0.05502301877437797,0.06311032099875216,-0.04013416597920776,0.020213668971179474,-0.013248470591129363,0.03231132003008347,0.05609130210816906,0.02079053178420411,0.0786602531074411,0.0163920965993553,-0.02529392435255163,-0.041664047308970595,0.049754107910462884,-0.048430991886582224,-0.03671411335167069,-0.01588246232275432,0.05648428203685184,-0.03297282545796344,0.03371335810529657,-0.024572953271613827,-0.0028642505918559462,-0.04955513119442374,-0.03430949180371645,0.06284204269355513,0.013988063355914838,-0.01669014003228652,-0.0024171412136013352,-0.019242847161626792,0.03691031803138958,0.020973909359876503,0.04022718099870885,-0.005602784452275594,-0.00832594358637019,0.003291697693725484,-0.022450018004846566,0.002858029214036915,0.022829678432654966,0.007602226773079573,0.009741199978901922,-0.04006390155420242,-0.009525724615060774,-0.057489579731411874,0.07195397322952198,-0.01684967255606873,0.005610860274860277,0.02117963332023203,0.028400105660730368,-0.02284986863139217,-0.00618845648302435,-0.008769624932245344,-0.021266387651439015,0.04684996634483036,-0.03600424254603842,0.031915616142471875,-0.010025296962856017,-0.08981904973761907,0.003316948220395548,-0.010906381732922818,-0.01811018611231659,-0.05517570373942574,-0.013897597172427606,0.06812843779488896,-0.03139035768323682,-0.0324848378166839,-0.009256876093222252,-0.04773412875890062,0.018580665009002375,-0.05586441388564573,0.025567415957568493,0.022516114594558906,0.03946934380357518,-0.04341893199719508,-0.0408389039432557,0.006816644112821324,0.012111069243861496,-0.0291767465849333,-0.09077236827926638,-0.02239259115465942,-0.049365479061720494,0.007659622832378194,0.03492281808434566,-0.08655364880518615,-0.007666997211485214,-0.037322565164622325,-0.006884856340885821,0.0919312437230768,-0.03681618974612962,-0.024023690457443538,0.03567510430033449,-0.022497625631845795,0.06560908731383808,0.02857671336196309,-0.006255421915379341,-0.005147210559515287,-0.006526369546511634,-0.016550512893987967,-0.03979527407296507,-0.008719339611764092,0.040642884200366984,-0.011789900416787735,0.014037561101330637,-0.021123230415865994,0.0004994660730035442,0.028799361243902803,0.015199085336512954,-0.04040611038449166,0.040571310263628035,-0.009823447568235244,-0.03696897070524005,-0.01948574409778116,0.01977630459950273,-0.016530954158284605,-0.005512040978616663,0.03084645163788906,0.04113030492112721,-0.004689268207422527,0.0124856364097079,-0.02830177299467863,-0.06263247387662194,-0.022744978193920604,0.014240675587151346,0.054344177621844826,0.007061870554969843,-0.03802924125958226,-0.0424290196149525,-0.0645157189538643,-0.012978619184019262,0.0022120424720014804,0.06546438113665266,-0.008560347205739088,-0.019424390096595096,0.01664821072052512,-0.04805148203279832,-0.009567024831100503,-0.05360533327302654,0.0058171498976013454,-0.008843133987729252,0.08161505660731437,0.005033960160144357,0.023662573722125244,0.03190533556488833,0.00715339361590706,-0.036210683462493835,-0.04390132851432812,-0.07923661018260333,0.017039638100868646,-0.06439267303585113,-0.008431199737577489,-0.0008095388858268746,0.07364536217709627,0.02731718009904569,0.04287792567382624,0.005737296281272271,-0.05520465810314756,-0.03388674921421181,-0.030426608079594616,0.004832208347961078,0.0635897583524414,0.0016658590979724732,-0.06868767814167073,-0.036536800898615024,0.025455904701619392,-0.00020561606456866952,-0.012597953809047609,-0.010325765893847963,0.03371270468837661,-0.013558522760111947,-0.07106408679114132,0.0755052856001781,-0.03624931199213435,0.029219035786971593,0.005058143439333696,-0.0035883590752215275,0.02501992422401993,0.03885690294959859,0.033893648963267034,0.013804731580585058,-0.00793119739036715,0.06026808808175225,0.05358928653407596,-0.03884487313417353,0.0032168655441415406,-0.002577318708704923,0.04297999214602041,0.009447952659108185,-0.014203508351152801,0.010793484807405489,-0.0735806600328092,-0.01110875060879859,0.03142390800619412,-0.06496794073185888,0.018453610533799986,0.029596595709043935,-0.017708458845678152,0.01884258112890689,0.026883833052278067,0.02633546423533522,-0.03209287025005252,0.0176735764078873,0.02601325982791631,0.051312720891927496,0.04176403522799422,-0.03423663506156861,-0.010476638959837836,-0.005022211030977186,0.01635711962874069,-0.003722606037012495,0.011207989046779448,0.01071011822466847,-0.05496230881909523,0.004321498491895959,-0.0304128577665735,0.04338893965393893,-0.1162154437484562,0.0074102425958013475,-0.013388010793863144,0.020374500288298274,-0.05117629197973242,-0.0545071363863216,-0.027743959406925738,0.017381211187123023,0.025429533475887466,0.028472661981097637,-0.02173037593404422,-0.021652449446805284,0.03676108305875153,0.01417163083143418,0.019204337483884813,-0.01269083861628108,0.020862016834554867,0.053626266861862656,-0.01793094513955184,0.008211924693365678,0.022022565598356615,0.013414213050159628,0.038800756323452715,0.03285748368412301,-0.011543571831020958,-0.0015300266218056914,0.03030635478668397,-0.06130924194249943,0.028976771209365187,-0.005120289093007309,0.0237984579841326,0.06495619759865666,-0.002009620513797134,-0.025552113426877982,0.09017570520507133,0.0023467580512283276,0.0034075111071644438,0.053691117576119586,0.011272818785858372,0.02241682370832435,-0.02629608467569399,0.005010473181108336,-0.034501758607875604,-0.0551058981873065,0.01069005949025977,-0.006140771604213154,-0.035085161125934766,0.0853604966641952,0.027532585061757785,-0.027943855264270883,0.0648225397120097,-0.007630105512267378,-0.029494390339953887,0.05131522450489001,-0.03800583169784456,-0.031069607594600063,-0.009921269383913855,-0.01082258077258585,-0.03710070173375258,0.03138637093109673,-0.050917459900113315,-0.01924501003202166,-0.006927790373703256,0.007391912258434176,0.009910391131116683,0.024579262801690625,0.05736442407311667,0.039319941178325254,0.01962815896477761,-0.026879442168316656,-0.06035623505444059,0.019109254863363283,-0.0333418465062475,0.007556083863306887,0.004101726512007464,0.06486329856373227,0.020935314482152988,0.04586773054854325,-0.020965499887552447,-0.00396722978810078,0.06721263729347848,0.008315453014832564,-0.017981854424818828,0.006283260803617152,-0.0164134021060607,0.02143202083690169,-0.05546891186552102,-0.026287166022864752,0.008443055967799245,-0.03012079554468365,0.040207980616713684,0.02383154106472191,-0.048640501760980434,-0.05793039921553962,0.02687719379334261,0.01034087433020372,-0.06180649822503621,-0.02736064492773399,-0.05421770035777801,-0.005743245038342617,-0.00331414452763652,-0.007539443023233267,-0.04158805872006291,0.01958091042072777,-0.019959250395686936,-0.045157873361409966,0.04872677347002923,-0.034916887166459645,0.016835022936889144,0.04408606217608595,0.05555212230708865,0.027604868236744576,0.054492390566582706,-0.0018259430692429434,0.05354010769953767,0.04833596268838027,0.03099354716983619,-0.004935249313907887,0.03572452079357493,0.0011944404381520524,0.06767695875819765,-0.021605805977140964,-0.02501987030131975,0.03921474754460188,-0.02680627113685533,-0.042002803509262214,-0.05596594446592305,0.01358008065085863,0.0020415753482931715,0.003524971617219658,-0.05908776391744302,0.06635170300356523,0.0508831114948724,0.038428352116097395,-0.052906852642628836,-0.007587617972041242,-0.01565758592284651,0.0008082943245472035,0.0334274033901103,0.06003363803695384,0.010723771986829984,0.07294425847911781,0.04165795370698119,0.06475170191093826,0.041095719504039195,0.016055367409183525,-0.030510345507939712,-0.0032987210622808195,-0.005715183371815647,0.05744413940508034,-0.004215955602893032,0.024508418150445813,0.02959874867880345,-0.016568317254071402,0.017899658505272975,0.027925419969987913,-0.04560171138771997,-0.02855628730612387,-0.004255415207013513,-0.04426419503835616,-0.06476566507590706,-0.02799250023726891,0.013145396992836157,-0.0018381774854296638,-0.07220196724734396,-0.00015950237757342425,0.047272279774044704,-0.03681461350189305,-0.010678102699130223,0.06079224626998811,0.00815520277608573,0.0005295322076748912,0.06971399664251475,0.004658076126580423,0.02467130262703972,0.02483930067017585,-0.007796026086213317,-0.022382610556092645,0.062059205048885326,0.007292814812460364,-0.014611367093023984,0.006576754349023178,-0.027711090877147897,0.019978331793217636,0.010956554582506526,-0.00011133176088448913,0.013177130267425702,-0.0758316883974762,0.040453970960350756,-0.008750290708014889,0.015777470130776336,-0.011190917510438455,0.011142874822306898,-0.008382845115931209,-0.046582530958974334,0.0588428579329603,-0.021281364811574142,0.013431996421702445,-0.017686883487933416,-0.0018116221934749409,0.041010161815454235,0.0031168221122229623,-0.11158323845440825,-0.004268043889995923,-0.03195712343638188,0.02200268975072001,0.051167674984246195,-0.01772766508675631,-0.018811671467507708,0.050416974699159275,0.0003812323343640261,0.03974536847129746,0.10498244566723636,0.04975397911820768,0.0528328757724258,-0.042925119732088506,-0.020292211694685324,0.01970050029665897,0.031923897447628836,-0.03282105155160284,-0.041133661313935775,0.09456802975511859,0.05514457004563396,-0.05600090076733644,0.06297304172540517,-0.02450571403833138,0.00032513207389885617,-0.025385637770829292,-0.028229359596542946,-0.05049740384744873,-0.11740456394432322,-0.01610116627177105,-0.07457249515851383,-0.03510553785571459,0.0010254034386211004,-0.003940283013489965,-0.004901037705950348,0.03018117176470924,-0.03840238692152976,0.04697916484859211,0.018568063174261663,0.01927133399920544,0.05175860014494286,0.022656803371986826,-0.015589045609504571,-0.03744252609268026,-0.024980701282957214,0.031126482332045156,0.03891931981190775,-0.05739074391859667,0.009488359240273024,-0.041100016185197666,-0.02795502812761807,-0.025619695207609348,-0.02923034182287594,0.040884217862206036,0.041829710280901516,0.03964130193384225,0.1084417745794916,0.030115834084444366,-0.016978954430886376,0.025821636204262706,-0.005242661834861746,-0.008157135014849673,0.020635818209150107,0.06304630703378249,-0.005744544898405747],[-0.03702458620983752,-0.011453316740312861,0.022163737221139766,0.10353578105960562,-0.044593455306680456,0.04340211216883769,-0.020658803005251053,0.006560712437449956,-0.0036876534841351243,0.04036907320584714,0.012394230180540705,0.014425986873056464,-0.05684063290587126,0.023964936521102858,0.00065387421155202,-0.029961083067008232,0.014721759762340329,-0.01767775847913778,0.04524883721689587,0.00966661261711459,-0.023868004477921336,0.011706471619715489,0.04427598378971121,0.026048446561959322,0.014127373407670186,0.030059175252487476,-0.028036967324937077,-0.03294852601641279,0.007006690838079058,-0.01840106447944587,-0.021427983665791104,0.018088030141461642,-0.05059638528876759,0.0032822270881827835,0.016038516409874467,-0.06561219123076521,-0.06733806687024722,-0.0175814301828345,-0.005603592770529415,0.006088614239113961,-0.016412609510868804,0.03171857165558967,0.03565761498955541,-0.04065075147649018,-0.02945909804921766,-0.01066195148523772,-0.04873303982890963,-0.010190120850112368,0.02947897335845744,-0.009970120358183208,-0.0009986378250536267,0.053903565233395866,-0.00587206646215193,0.00933292392310438,-0.01318966667615684,-0.015856354116563654,-0.04047466659917766,0.027807427330939428,0.020978368920063217,0.034945680328491574,-0.03565040308010941,0.006667318107142927,-0.03246558655307024,0.0025872498201819872,0.05507512082219971,0.04619689032993831,0.03528119049708602,-0.04908144296110131,0.0011905112723108707,-0.028868297245551972,-0.03306647840972135,0.008641707673055669,-0.0010408286645521912,0.0050909032877268475,-0.012130756186820333,-0.0078541438117886,-0.02634977851169133,0.034135554661464056,-0.009698042230471418,-0.029666250314102357,0.0426454609415837,0.005170043232995522,-0.03526250485833517,-0.012994153151396164,-0.0597129610841658,0.03387021650577651,0.0016816429849510163,-0.0391061422131182,0.0016733214652974492,-0.026731367859623004,0.004756994322673387,0.029304648810701325,0.000613806154975383,0.0012120239593216729,-0.01395507954857035,-0.006319653259087791,0.00808175978074997,0.02500562607663277,0.01264419174095568,-0.038716031402765985,-0.050287236024671285,-0.010480697047192499,0.0041177671053234865,-0.031249034834651603,-0.049970128356619514,0.022614885406854798,-0.0629677673585648,-0.022860895583277394,0.04653920515427351,-0.018188985015473023,-0.0009705046329309101,-0.00315530531688763,0.03888709242611709,0.035671371312682755,0.014833882104285762,0.01535438456606312,0.01726456242419332,0.031005093256421503,0.01456073904046054,-0.057945269486953464,-0.010836435407724073,-0.019039412888471146,0.0022723156907617013,0.06609248587814053,0.05557953543103741,-0.024343044668547274,0.01533024547906078,-0.022215097004331733,-0.022403464797808966,-0.004048844707587665,-0.03296763527125489,-0.03165062370037607,0.04836309983095081,0.028670490325584223,-0.035888877117716045,0.026466091818548358,0.016116693889566786,-0.01254014649024855,-0.012842619785223894,-0.05520748744755723,-0.04326013939947192,-0.06097706339229804,-0.0017227680827242514,0.07738587613645857,0.011384967069869353,0.017350551692775218,0.03464269930345709,0.0042125146683209495,0.02099977412746428,-0.027562080981816898,0.023508683264767908,-0.0432917460777663,0.04527163540252013,-0.02332009597545763,-0.013676797071976833,0.0011957592268665878,0.058822208082087296,-0.012064213359392768,0.011783057442120054,0.013207515373598312,0.008496564590052068,-0.038450195495882696,-0.05253307477860364,-0.012799226776285488,0.005467550474201915,0.03557654701863964,0.07574076394458164,0.006952614194826585,-0.027625096866726144,0.07779847301384082,0.004538267399611455,0.01749374458845703,-0.006610325909144916,-0.017980240211663747,-0.00660193890455969,-0.022556613418713463,-0.004483803176523731,0.040609542691077444,-0.0026115067018754106,0.050934227459151556,0.04984841023177086,0.043175259115103955,0.03199713985747668,0.013670342140356645,-0.06552123277431063,0.04713130076527173,-0.031215103270416295,-0.005248622077710757,-0.057410059180707844,0.00853876571889036,-0.0204514714206154,-0.011231605748418822,-0.034763101057561044,-0.006909095620127127,0.0419936513308942,0.041175321490381785,-0.046117494392934257,-0.014027446083224343,0.06488373860501692,0.06523425618959822,-0.018083092934208088,0.06546034610965774,-0.04973855333694311,0.05063021541166372,0.07357792237431315,0.0009591443873693595,0.04712170819877023,0.04069898544583254,0.03076901249445105,-0.05124783061932197,-0.05022720750045527,-0.0919986198339873,0.006803173827930887,-0.0166178499770635,-0.035254310127773934,0.04574692449243819,-0.04440757473961814,0.07879271094136064,0.05432834644640493,-0.04456665848424024,0.014209097213913701,-0.03413000508359337,0.03594402742024591,0.0771075049555285,-0.009661762682775065,0.054867040392130806,-0.01748451033732623,0.03275971850768676,0.015601588423318316,0.05624360850034072,-0.022132381238302856,0.044062453525887973,0.0401366416094083,0.04158615513298027,0.05344606435159228,-0.045004613336237946,-0.004595516690822948,-0.01879294242796346,-0.004905661370485972,0.014766232808056496,0.004891006497386443,-0.03374946775973086,-0.019681762090247974,0.002988574693799737,-0.02896961010965485,0.021530110638340105,0.030444406591221888,0.031521538771779836,0.0021704538284978846,-0.019018322621096893,0.006590695961766088,0.004857979459735858,0.01043173711725782,-0.017844781335089023,0.022813893882370078,-0.042232651174544326,-0.027999142742550897,-0.00657524067439123,-0.018863801452501938,0.04346326870510809,0.00015543540028441536,-0.0023805118924292547,-0.014802591468573404,-0.025454143993362755,0.013586234667687892,-0.02598621492110591,-0.03524366798711233,-0.046668535657743294,0.07614586352999209,0.06502029042257755,0.013722769539619414,0.02042492740551913,0.023820236341075024,0.052065709935721405,0.04120116141686702,-0.02711434182577681,0.007371163531226639,0.01573819766134382,-0.007037216083053624,0.05654137621902302,0.033871524830746534,0.03869802792695288,-0.022833197920440137,-0.016542462146352518,-0.046696176748044466,0.05049483619954151,-0.00989837845183373,0.03436606321024377,0.0008011317609980578,0.03534448855235403,-0.04891392579026153,-0.027203240748856994,-0.042778971881536614,-0.031949229675694454,0.06869536980162348,0.002727521016290241,0.03909228802044559,0.04867095529549302,0.050240269753108885,0.01897608361175759,-0.01590562961914722,-0.05446430154568033,0.07133335825979288,0.06338566737753733,0.0063673175169353035,0.05977720842850043,-0.0020253571303315873,-0.06277370803724024,0.022523822158414288,-0.05552588069177734,-0.027041866659910173,-0.02976334191892334,0.021029803026522402,0.00894064331435327,-0.024100892658783325,0.023769303337932132,-0.08148044609254455,-0.05621500910720996,-0.007050851596851013,0.028675778561382814,-0.0435834411263825,0.06794312112538241,0.009696124453539989,-0.00721685398685134,0.040771342443979494,0.03316353043647192,0.04855487759812193,0.08884430175069037,0.019629150531411867,0.01649435181166781,-0.0034910228899152616,0.043836647226302344,-0.03740587701762543,-0.023429438192010318,-0.04419781562976283,0.024799616966137198,-0.026565401277751644,0.05427411923535678,0.019863042540046963,-0.038327439168138654,-0.02267555197955264,-0.007746496310475309,-0.021641769685939508,-0.05924684913499851,0.04090055496371542,-0.028956218270039594,-0.04732803894832505,0.03363525215683631,0.0440220002815063,0.023311420264608997,-0.021347356120336395,-0.012979125480874532,-0.016952242869685316,0.010255011424481321,0.004336886723830732,0.05583573344248549,0.026967335897798882,-0.008141610227166318,0.04118267564980005,-0.04906086691668962,0.03183936537659044,0.025103819877779363,-0.01889263343775923,-0.009574811387803474,-0.019498876079041376,-0.005324943102459622,-0.015982803075193126,-0.0215653518655437,0.002416952158092633,-0.0044213484852197674,-0.03976867277930941,0.007372506738787935,-0.003318514300276332,0.034724310713216175,0.011737571040757339,0.0585700642361198,-0.005086931410344441,-0.07807413658550036,-0.06263940774533819,0.04518281477548955,-0.05874172642877479,-0.004485118956379221,-0.005386277937424364,-0.0012383394858568363,0.06088320389385289,-0.010826288020462944,0.0016765800576268094,-0.01456494274521794,0.0022642909203150706,0.046711499166939445,-0.027121586806219077,-0.011779330560873921,0.04860990574871213,-0.018314323771722645,-0.03353447324704037,0.026964846469862427,-0.017551345542427262,0.00680919519498914,0.056881766393941914,-0.020965080993371,-0.01208603167278368,-0.03661739467945397,0.018108126711015343,-0.017792952154163835,-0.0787618080369833,-0.01720433601232133,-0.0036728124939353493,-0.044172422736794614,0.09341727074730402,-0.006985272662607803,-0.07483547331421884,-0.012726989688885281,-0.0071623566271673605,0.07595823265539886,0.012574341555535901,0.03306212331059397,0.009111309581257492,-0.01687128797791723,0.03165171488433536,0.04856696223672409,0.04716302382454651,0.03409641390731253,-0.04711469791785057,0.058276338198778144,-0.01090062809340705,0.03139697438406649,0.02640405654986496,0.0073162301665452645,0.04424728797293152,0.004343836104379136,0.04879046470500462,-0.00978558338534989,0.027964831203048532,-0.0007945270018214531,-0.028856931469770305,-0.030344825195947188,-0.024033618062829804,0.029149312450697136,0.01938057930096892,0.01534094303875436,0.02087673924510137,0.06881095248588208,0.042588860779880944,0.05423566546505904,0.01320772917950072,0.02526822283299481,-0.0658371670154576,0.056523091006547274,0.007885738023939133,0.027557188187339834,0.010295385814245628,0.01962007277027003,-0.01746887380574353,-0.017598433594855255,-0.02790766867454727,0.03559955940413607,-0.022233800995461024,0.021632199432264618,-0.03157354215238037,-0.018314761181103183,0.014051192535409266,-0.0033010737172026517,-0.033906736442052395,-0.0014851248485674292,0.024305037059875405,0.049214716765210345,0.0018059861392822182,-0.002638061487318121,0.05929941160007045,-0.06564638307711644,0.03975420931018218,-0.06939753396804232,0.055045110238086184,0.007542853349317342,0.07535953614098188,0.05622150911125424,-0.030440622269866085,-0.020720333854468722,-0.020720884718335227,-0.006261172926600231,-0.0204842476617756,-0.02480109261425984,0.0015746982896326315,-0.04476193143531924,0.004191079036244683,0.0366742605118644,-0.05793218868061712,0.044077514277227045,-0.08649011793908482,0.012883785401997585,-0.037965503593734254,0.004847124598874519,0.007228771852132499,-0.013910617231526944,0.007235908489398877,-0.02062973307663896,-0.03243157883496959,0.01794495308286811,-0.012734451286718629,0.05127455347475762,0.0266203149623285,-0.018386905464814658,0.002135887947251667,0.02694382211865539,-0.03231182355122912,0.0026832562463155255,0.022473653686633045,-0.00013454981642031514,-0.004687786183401802,-0.004104557617225317,0.07755786419663457,0.03916757112206909,0.022275999676575942,-0.02372272389603327,0.01790022980284005,-0.025020235089599416,0.0469619923247803,-0.0037240029468943443,0.05040625465482645,0.02833173606718047,-0.005352269084200499,0.02764180582899668,-0.005450234939268972,-0.01952973715131801,0.0384931253752543,0.028212896341999902,0.10343331116199529,0.06051455618574001,-0.030618023575702057,0.009912640714273781,-0.0220188332903825,0.01479424166984209,-0.02263736172735446,-0.049410741741544216,0.026415728724319486,-0.004496712683469281,0.018553833175291797,-0.002706061257863316,-0.03828723187144751,0.0346631803922067,-0.02778442915222427,0.03704074792621077,0.0027165424756462166,-0.03762462479346974,0.016414954363297842,0.046106034150350514,0.0028272651157705045,-0.00008873495570844112,0.009531955538359787,0.011468342384696748,-0.05038768449802042,0.022360766759028223,-0.01845115249762568,0.008952524663443439,0.04463341819032648,0.03815554978366741,-0.008020233354612022,0.019861082174558623,0.042440322664527075,0.012283484720504563,0.0017360272296136213,-0.03675904137308649,-0.050982896329194775,-0.03175209652039385,0.005102813489317298,-0.0017690709127503195,0.03386290685853637,0.01075414823672483,0.0038308613199780303,-0.013948073708754567,-0.03566208130722433,-0.010477547434187417,-0.021484455096636556,0.01563826467759008,-0.047926444750382144,0.020752185362089386,0.006876162519403177,0.04654457083577625,0.000368944264748476,-0.006719961756671304,-0.008921890039682428,0.04199451527863277,0.01176549900414101,0.001835323051075058,0.028619998313793266,0.010510940902538362,0.029619234394146914,-0.013658634471622938,0.03352199586295613,-0.030707598899894155,0.057433374563441664,0.07556940834371864,0.05668456384948268,0.029289569509204548,0.01157018404943559,-0.006091977149219676,-0.03569702284329555,-0.020985537054378896,0.004143778636556086,-0.008151838067240274,-0.0000691649597943729,0.04224697267348794,-0.042947413516391454,-0.030910144694128602,0.008702208505799289,-0.017636611196869524,0.031290336962234704,-0.025193132046299922,-0.007798666083342639,-0.010481659642095248,0.05393181862733771,0.038506616608977355,0.02510832113517185,-0.05259667402870884,0.033828174007089915,0.0753023852792138,0.022379526574846646,-0.04789644124566545,0.008004229876090584,0.006059405490277181,-0.031199612310474727,-0.005577631852997556,0.04109735635863482,0.021236072303081145,-0.013911994445465026,0.02276121546233334,-0.022157916840957928,0.005780047479293807,0.01717448267331612,-0.025311346334196662,0.05830596435019403,0.018000320487980895,-0.005798758747833495,0.021768453529416403,-0.042832536206882155,-0.0002220448732957834,-0.06758889490066637,-0.014966361168797964,0.018525902711312114,-0.026761066111089006,0.02387291216334557,0.011510772246479636,0.07173725632422706,0.043672041196260045,-0.016555715036104566,-0.006140127362223484,-0.014386123055589874,0.006976853680544966,0.02365319003173172,0.03582548135872613,0.013962582528813732,0.012953562641688465,-0.012139374183932475,0.0000983295273729841,-0.04097828229653861,0.05542915521575406,-0.06778366947295232,0.046709607591180695,-0.014155830659600042,0.03191319956688548,-0.042606333640897005,-0.030973449244656795,-0.053315620290429126,0.05552503456022748,-0.011219402719145033,0.004870712949450572,0.010928216469934075,-0.08456746319335452,0.018387801411664916,-0.01601047701491263,-0.02523973510579708,-0.01313647494408719,-0.011766907278040124,0.0413477108023463,0.046185784387225017,0.030283289529036066,0.04406408819385506,0.03462834432429668,0.027725482294154145,-0.010713347677873608,-0.03859685836350838,-0.010572101179640775,0.014817889346437615,0.04038867095105486,-0.025205485398080773,-0.006705897734030074,-0.015029842267791327,-0.02468609293910567,-0.017131227878450145,0.03006818621263664,0.007755342586494426,0.07095396945703313,-0.0077486653304665275,-0.027655115811819692,0.02576030505063866,-0.005615635138252428,0.016283161994487316,-0.002041245373891952,0.005836627403218062,0.007924420717237993,0.04376565612248333,-0.022802142818621318,0.04109261130864372,0.003250922616015599,0.012262104268958485,0.019541942902481086,-0.0014936794907137378,-0.029108176544910953,0.010105242309228253,-0.004528685690107679,0.01874796362934632,-0.012853695754273078,-0.02076602146772087,0.06419169547157588,-0.010066312665419515,0.025949170794201094,0.010352329036026706,0.02584328256692008,-0.019414291525652314,0.005589089424597025,-0.018859637269209317,-0.06343609400270488,-0.010352348438863639,-0.019622236589763427,0.013150632678018134,0.0485594213980236,0.004843331693418133,0.10791955260675119,-0.037068938226635144,0.042351492910082014,-0.0073512356394047,-0.008319980443278113,-0.024696146754941382,0.06420764822526898,0.007651398790242817,0.0008399655244141745,-0.04779840951766209,0.023879065016068842,0.03448316424751135,-0.07039359831695469,-0.010361251288945822,-0.0006880420260021772,-0.038206565051176,-0.0486377271191447,-0.03378868052983944,0.09872840962169771,-0.0019359535063261759,0.011306808297670657,-0.026545383485547257,0.036918862583598826,-0.04932448348622707,0.050012249839245154,0.03930767735433689,0.037906595424973884,0.025610680933467595,0.007647408851379793,0.06125564511126189,-0.012278312118101115,0.016802975512847422,0.022758837711264492,-0.036128844010188656,0.014525152340199202,-0.011046414994847967,-0.03413815560201868,-0.002770295518339386,-0.030760156633282316,-0.01358556511771133,0.026487159503297074,-0.02814203650342433,0.022177576492642275,-0.05317765551701053,0.051087584758061313,-0.033313910023757054,0.03786320735357739,-0.10459931097924416,-0.00956756825802045,-0.017343490610193545,0.04607045177021182,-0.006492869866661303,0.03671069161048057,0.011382744318866161,0.05005780533631943,-0.02562235512641207,0.028508498958590367],[0.10649296302757506,0.05745596961987019,0.016388390257699233,-0.04564895629304656,-0.03534117210309371,-0.0038115565381043057,0.029214276154736797,-0.03568093033200196,-0.023075882333635937,0.00798664262916873,0.0014161057450989484,-0.04177181046605828,0.0057890950808451936,0.05021010035354083,0.05018379584315215,0.03459038525483823,0.02720787252432364,0.006418441795480051,-0.020654235824041293,-0.018343091076597828,0.0335684529464904,-0.06477573460885908,0.0049689038584809705,0.0005305621295984798,-0.018127919973050053,0.017096356439975625,0.05676955474217569,-0.01880881464822728,0.004120112895402274,0.013540851686433222,0.027961607577137098,-0.03190649305514504,-0.02722634599955331,-0.015022511687554651,-0.018141468945742575,0.05743376103247525,0.0172180428046391,-0.017321433302616363,-0.016314124967419845,-0.029038895348178387,-0.036556166518136986,-0.020563564519174248,0.0024672005239058568,-0.04903771641625948,-0.018183675814611614,0.03239264254868174,-0.005742214730380207,-0.03402746180746618,0.01308112888973556,-0.0067942919243580546,-0.024265496407143407,-0.01703897870492645,-0.02215814701077426,0.022420393627592485,-0.011382228902379875,-0.03433260082195431,-0.0004264104159781081,0.048962543697813436,0.01845142028954263,-0.007197845686962402,-0.02283626839396525,0.01490592536354305,0.0008607163546776025,-0.11027543726459334,-0.019123680427866933,0.01631058252376912,0.025256638839177215,-0.010828701797786618,-0.022941718946423342,-0.012049754632950625,0.03444571390621978,-0.003730341246539748,-0.013302644207401838,-0.03259885941762055,-0.009792080478072169,-0.035389030042577846,-0.04976850796889965,-0.03656258550114325,-0.03658537326083008,-0.013097004311817867,-0.06020563648779992,-0.03328480493554253,0.021889016132374737,-0.018879434884351422,-0.0061242364072179945,-0.004121059489306222,-0.007703413727786772,-0.03824729614240061,0.01878377308457022,0.012422186148063685,-0.04654523714893951,-0.06271156168365107,-0.003855634636105754,-0.006593761969133211,-0.03356543498997592,0.08060937145704508,-0.03921217476720248,0.002034893836321217,0.010247570193736325,0.0624849454721814,0.03951522072631345,-0.007916665459233882,-0.02465810302476952,0.0602731467670088,-0.06328788230551034,0.11656587698119658,0.0020395384160718645,0.03803901643434731,0.04080769113233494,0.008724267819592275,0.03437051715817272,0.005305741648045677,-0.017216290814069612,-0.019849575890497934,-0.00682368912849817,0.000024878269740065033,0.06275850434738732,0.06933308587704676,-0.001380508844706261,-0.002276468987667632,-0.002010507317867073,0.057144767048270505,0.09196657600987851,-0.015412171992813332,-0.030261283601826016,0.00490870742669613,0.01866405110125633,0.004064816179032637,-0.04790425155484818,-0.01648606662451472,-0.01792416939771362,-0.0009081715661239336,0.031977371676429237,0.010696973492828107,0.024714639187606066,0.019523326041297535,-0.022753239920054506,-0.007678338864532861,-0.0199262244180293,-0.01925372908985836,-0.05072777937359706,0.04405415378355424,-0.02611275247506336,-0.0347339667473428,-0.06532370579893668,-0.010103018084834332,-0.07738812789583052,-0.02085382319159117,-0.014070423282709046,-0.010292375106368724,-0.002509736551644325,-0.05253670414472597,-0.06699506925436562,0.04708555546022397,0.02720310963874993,-0.037959614492655454,0.056453478366522564,0.05557090094687842,0.04108632515673146,0.03535062400203507,0.04666201525823706,0.01723283049082977,0.0013188526695068071,0.0501412412699713,-0.021121799330491655,0.01665951599110276,-0.029042604832247992,0.057197298669898165,0.023491059641869174,-0.028412547825730678,-0.024213829650149513,0.005183185364100916,0.07335222797762393,-0.006555602170956593,0.023381613573717333,0.03369015207799517,0.006713882885906288,0.02823701624123463,-0.0840276358074047,-0.010425903955785375,-0.042782603067506815,0.005818288548393736,-0.059592863634230483,-0.042810886083232205,0.028455471969320467,0.004804026758017596,-0.019787808728370215,-0.007631085276290565,0.0057832438053560045,0.0003125266696623432,-0.013100427738814212,0.049164677367164046,-0.05049435936349614,-0.010870485044977526,0.005817523700181953,-0.0013528917073963686,-0.01513207683533138,-0.012952474535144216,-0.032947608425721246,-0.084819222603662,0.005276421206144126,-0.0015715215413732529,0.005222182489909447,-0.0020566931863047876,0.02578637672644076,-0.030265389371404477,-0.03884075100605537,0.013168284165837813,0.04000770138400047,-0.03266414137574544,-0.06770381779132069,-0.06424431728602417,-0.1112899890006905,-0.03215391432391986,0.007033588212372156,0.017104537701282143,0.01788469813941837,-0.02469675254311519,0.0028414848926417973,0.005492859074557066,-0.021201271730250163,-0.015878285783113177,0.06682004837883976,0.06478850765363689,-0.033893599735066685,-0.030946434434842223,-0.020089070106854033,0.02620718356861851,0.014557977198306647,-0.06854947023251438,0.04343305616453495,-0.04976849829458738,-0.02008184927822159,0.03901381572992234,-0.0064610786106075275,-0.021742218895663402,-0.05351558244911205,-0.056374575114995586,-0.01421136143702626,-0.032571449782281874,-0.020531622729551554,-0.06094628108247202,-0.028311430226261033,-0.019190936468663728,-0.0714462913577327,-0.06114002299673029,0.02006614257013577,-0.008712767170618304,-0.08979094457666646,-0.017998554195895813,0.0045308977135926345,0.01763866890445317,0.00928067839103307,-0.05554121399667563,-0.01830055608363466,0.0194331404246873,-0.026705382327031436,0.03624905278503091,0.023945063115484663,0.051090590655012105,0.022994672277470696,-0.03675731202236703,-0.02473865857569691,0.03520798981864261,-0.005732584095248958,-0.019506586714139938,0.053108125415274744,-0.04918248293661811,-0.035091274282006105,0.014455345458290986,-0.020599819563520607,-0.011145208522058539,0.027760273188507174,-0.04170242564455602,0.015119158989830414,-0.01686674226798988,0.004883920950227158,0.011511926768063797,-0.01579969301619888,0.020260425264614697,-0.0037635555452711876,-0.054751525835222865,-0.003839374453389497,-0.010908990656491268,-0.03585492798677334,-0.12218350781457454,0.0022561788406907273,0.010009815915476639,-0.005136315997333653,-0.005484971004639121,-0.016671806271690324,-0.01607877966131998,0.05518145861855665,-0.038069071142028725,0.08104986797880853,-0.03761189905816794,0.07938130393711315,-0.03417615772384042,-0.038695906861062675,-0.061940272385250454,0.02239634374254397,-0.07634026169328399,0.029747809150177103,0.018141913168441298,-0.020189617044477963,-0.01179997632890125,0.0075087357573969645,0.03269226437782885,-0.032988031800063995,0.09010822828632477,-0.04585116597589932,0.03901198175015173,0.017838250454744273,-0.007641025169612393,0.015165011907667053,-0.006607812160261013,0.01463180926279766,0.0061939128776790945,0.012524485298335246,-0.013666676933335732,-0.010506283830227135,0.052105676674579736,-0.048851894240169176,-0.03230605955437941,-0.020556706202039643,0.0317891497810012,0.001558035695478494,-0.05334373525916053,-0.02907789970007056,0.003084029842275923,-0.05215045614860807,-0.01214745253650862,-0.1266549732347667,-0.00013833592424017269,0.010937725719056478,0.015035277047303416,-0.06227681441135852,0.048275126754043975,0.007737130124363102,0.007670142360495729,0.048949322110155034,0.0505902237429385,-0.013325428862967377,-0.008740449814505554,-0.03133728249268169,0.017224412763000133,-0.042851983473119755,0.006229766792271683,0.03004465185106653,0.028283890696299104,0.026267862678641323,-0.03085131399294697,0.03144444639434597,-0.021015911010869043,0.03128487971087826,0.03909463635861998,0.047668593225139756,0.04172538015095162,-0.037488762628508115,0.0678529636768673,-0.014213367556349206,-0.0032922953302149463,-0.022483371762628157,-0.036123316539957165,-0.06354333738224989,-0.02729803326655142,-0.06400216260998993,-0.029046467558202078,-0.09613068452326423,-0.037675184426374964,0.041647925705,0.030226738824194604,0.02892278452845365,0.00009048679809919056,-0.04323296512503242,0.02044634523787629,-0.02078830898834576,-0.032140834719669616,0.03665288234452835,-0.005902826973803273,0.03874718473699607,-0.06136510691681896,0.0003169205516364519,0.03134806178401996,0.023403434979447257,-0.025508421153877477,0.0009429201139849548,0.014220026377860748,0.006768798737628859,-0.03303186427043265,-0.02657358220326836,-0.014426016907666544,-0.025573937285951902,0.03751691144447442,-0.10019347871993634,-0.015184167824609747,-0.022604084860074997,-0.020358073349999596,0.036914235538268614,-0.05811864719532391,0.07047544818705719,0.04905816916161343,0.03255040334164313,0.011946041140348612,0.011622496384949266,-0.00037508630410013966,0.07832049751150535,0.031147465624826655,-0.0852161963114057,-0.005791273240696807,0.01904372212123515,0.04029669958712805,0.018947403134234264,-0.029399992434593944,-0.01690643969149184,0.009500387502560968,-0.011121425013670028,-0.018644656481757813,-0.016236137667838362,0.0016805952331032362,-0.027068734519056913,0.027858360853387446,-0.0012930404524452081,-0.010330664579287803,-0.03584845425588261,-0.06373129353541267,-0.005124815040591196,-0.03182571542331348,0.048794469910540775,-0.011152618055119592,0.0038005190799955805,0.01036186569691283,-0.04415141629168335,0.045380529121049236,0.0557740456990617,-0.04173080544857481,0.061639496039086104,-0.009528273961732217,0.00014331135496832998,0.025609436759212983,0.07714038124048819,0.02172706808228717,-0.013610351268441985,0.05562987687515007,-0.03867924635204711,0.015385770228866509,0.0809503162586385,-0.028882824951770483,-0.039012559830508914,-0.00014564221782588675,0.017388057319172406,0.01145137954628334,-0.033314391925195065,0.04777677758766072,-0.07399984739358892,0.024534143108167452,0.03335272602964361,0.008347807888468112,0.02952260865774348,0.044575097248266186,-0.012391632145364114,-0.0006583747262462879,0.017599854406121013,0.008062832316808911,0.06660250064835244,-0.04452289562875504,0.09386003161478532,-0.002132973506037455,0.01268220483082673,0.04342778755820691,0.012617722221962174,-0.0027078745028227573,-0.03954032642073293,-0.014520268729167968,0.00024112452007701184,-0.03831646025314816,-0.029879163573361612,-0.043127666460217665,0.04300739936759905,-0.022080398574451186,0.010884466037516116,0.024442944971545456,-0.015244689396935355,-0.012723178532409347,0.027434978122317148,-0.01888227584653714,0.01771000343912957,-0.04230714445554875,0.026597518999440257,0.05307757246824179,0.0106508036950931,0.026861482812410797,0.05990544460686103,0.004047725229402224,-0.024276825099989886,-0.05877325558085181,-0.012252143765182476,0.08881727317553985,0.008202381313208398,0.06523720749844178,-0.005647445044808608,0.045067606182064374,-0.017680958111960344,0.0487376073603129,-0.02817323439777277,-0.05006551161229556,-0.02264292953599186,-0.0013509859143396895,-0.022269550178223435,-0.028051148891984977,0.011085305347224178,0.024599846297371372,-0.020835058963087544,0.005412896070513457,0.0007445324629112448,-0.0321123531715353,0.04185509413607306,0.0559471263583938,0.011560306203842978,0.005578949870062922,0.0010056194315867756,-0.05571518271907668,0.020413383792675936,-0.016086803677885963,-0.0313636757966679,-0.03274090718448139,-0.007313251528071403,0.049304705881537264,0.028027164526097253,0.0060903044011337195,-0.008191728446181093,0.042866581865553595,0.013219363549968652,-0.04209095948934652,-0.011783950456297421,-0.021514190196245852,0.0332442324427658,-0.03969318115087333,-0.050931101032456676,-0.030666014908355764,-0.0024938878884531025,-0.04806803371015164,-0.03065893742366437,-0.019880349352844853,0.05533576066829132,0.047232819312882965,-0.04419190423718418,0.04866283146450709,0.02478701296067672,-0.04083460351738409,-0.014506092520145362,-0.016947556276807357,-0.02827595674724054,0.02582399716871716,0.055485784283755286,-0.020045567311829823,-0.01719520048279902,0.07338621146481096,0.008892463863363126,0.025968835704402695,-0.06879244350630176,-0.00445201832288449,-0.0011331827823357792,-0.006973952611402833,0.024429236981544786,-0.008159596656111481,-0.0566797945580286,-0.03975566205907058,-0.017084397285655344,-0.057778476839821936,-0.045825128968377725,0.06435084724033874,-0.010482993003857091,0.039041218706873125,0.042728009145356405,0.014322869766986521,0.03931480581182999,0.02506729729804633,-0.01375298791185338,0.008457988295374632,0.00259140169988995,-0.07226938214731145,0.03058176658126114,0.10600283167200913,0.002188578977418947,-0.03414638958952787,0.025736285847079373,-0.080704934299997,0.024508105192401288,0.0038424447417782243,-0.004771728233785286,0.03153874779795487,0.011548991198636643,-0.05121708168440216,-0.013656082694920118,0.013387467530854234,-0.02476499998665848,-0.032938363107142786,0.01088707403913681,-0.01983584334701749,0.06032736147501916,-0.015478272333060768,0.010911392069241188,-0.029633727538845103,-0.07924907472017684,-0.01853839388991606,0.0355689730696567,-0.07742600446419919,-0.02973457800737901,0.002683902133104078,-0.05430912328539791,0.05174034157176276,0.07122085392149892,0.039662661622671284,-0.003483145529167105,0.02016075555837505,0.0037471018662520636,0.022271479932057525,0.032252398835608015,0.022065571307810963,0.06194716125933736,-0.05958106008596969,0.005794951456559659,-0.007283711377562039,-0.022945215439915186,-0.04843121642732334,0.014535649576036931,-0.03170375774861598,-0.05748432708840303,-0.06822663295884743,0.05671119129454984,0.030153708926472036,-0.02339949067370432,0.0378856797025545,-0.06283010696436868,-0.02306049105666495,0.01933670483122116,-0.027584819803612846,-0.05961243938500354,0.0087089595204406,-0.024969652514303137,-0.009511818315179036,-0.06859480425521237,-0.015942393852792447,0.009225344579710455,-0.0037400551627312967,0.07229044115050906,0.01956873419265285,-0.00951486138489892,-0.0252964651315086,-0.06234793120771348,0.0030048222039538515,0.00854043391845396,-0.02763840209996109,-0.030875202364535122,-0.06247163228762562,0.028428854771912388,0.013066914379901836,-0.05109007430239475,-0.017945985453484754,0.026486751395536308,0.0082123838470217,0.05452293623095564,-0.030665183433240432,0.029277877594565755,0.019478501358207747,-0.05011689031987696,0.03269502245990418,0.02158850365332251,0.03821252757911501,-0.003665202759083337,0.028071520777785314,-0.07287906975718471,0.033454095832702264,0.017962804279520943,-0.01988509415749273,-0.004902601578924501,-0.04006648135058056,-0.005784946352048067,0.015605745201237017,0.011968337801409596,-0.0030197388561098194,0.020109478185308522,-0.012624508220379275,-0.029109152303013586,-0.013610776976078142,0.001282497890946475,-0.012062483949475934,-0.004603785583731611,0.014283813908127076,-0.0530956687715882,-0.016436681789409602,-0.0005151979501654241,-0.011471790394359145,0.021479887121156848,0.09278926854514859,-0.0007729355616505871,-0.030604136321589676,0.0027063706700406116,0.009768850396986143,0.012669979144239358,-0.013189323082164653,0.05408549323258091,0.08010131979994572,-0.005497750918153399,0.015544887064505707,0.04387166503725013,0.017272774573177115,-0.032842046771636324,-0.048929931861612985,0.05522132068949508,0.013908777996892932,0.03628989792360871,0.019254517457535,-0.021797176069818416,0.01506015227993188,-0.018952148820745342,-0.014782075037595209,0.019415017949325583,0.0026029814612388976,0.009739642533522013,-0.03239528724756184,0.044475880032876794,0.04949407676133776,0.029234957537799984,-0.029541071095551662,-0.01469265455974339,-0.03809804859356447,-0.030168630583024124,-0.015175862578984569,-0.002845344490681811,0.02814681157047031,-0.0000031945624308403704,-0.0521457026584456,-0.01808660628813034,0.0066315767255904195,-0.004203234992773781,0.0158732510753213,-0.01200670262978322,-0.04012826860672996,0.02244903000362109,-0.03894841612486673,0.06685960698714452,0.009180738267748935,-0.03253060293176215,0.007172367588239375,-0.04921790416252906,0.015796650481629985,-0.0614767708179371,-0.02074663701465776,0.016009189580958563,0.032931977575862775,-0.020803039693417413,0.03461361087455792,0.03059796735608828,0.013822211090286468,-0.09417524324024097,0.04663841995357245,0.030392064485759616,0.012274584827742994,0.05582630951728377,0.05323678002062934,0.0005242352061411432,0.10255290256328065,-0.042890625998718096,0.04106935158953546,-0.01442941625469314,-0.06618878918097033,-0.006666657087911283,-0.021684082670523987,-0.0074913183259750285,-0.03404464097192107,0.03385584967284727,0.010248068671791757,-0.05370502210010295,0.011520829331618854,-0.009282947370087821,-0.055205356199459814,0.010138807336937217,0.006992104782830056,-0.09275852428713816,-0.052064262932821966,0.013611920126381679,-0.030376480037092472],[-0.022479799220923184,0.05017949483275078,-0.06428845671404593,-0.016542875382793375,0.019073773292714293,0.0026511357769484476,0.013598135570034508,-0.004584320912090077,-0.008650118162952468,-0.00011955693002641447,-0.04252270179581288,-0.07719841265871098,-0.015034366329704018,-0.02921703055785778,-0.042706941428009765,0.0013485862938201543,0.03213717333193491,-0.001661072715934167,0.039997919725092916,-0.018311194236287725,0.026286687674225095,0.05177042813506096,-0.04081290505149816,0.07772753314107332,0.011251999733298693,-0.0006260356152337906,0.022846458547440468,0.05713092397824275,0.0038752004012161862,0.0053285180569526015,0.026691087739163125,0.018043649355595697,-0.02004443476048064,0.0805632406669777,-0.05271594015495395,0.04010260751779432,0.027620728588933642,-0.044534665962164925,-0.029111500823993504,-0.0331731632326516,0.08131278296004499,0.032649266598302036,-0.03396953936828065,-0.0261481524208034,-0.011701433022082939,0.04136897473919913,0.0020231652079866756,0.01951388442738065,-0.0137253197991677,0.015548114730444682,0.10672459365847538,0.04632636344525347,0.034013149806137385,0.029598112437203162,0.014299831527116067,0.03758541174646307,-0.006344841551378151,-0.017827395159139815,-0.00236730930848255,0.04172153235862409,-0.08184591614970492,-0.059259014728651485,0.013324764804065813,-0.02883901409715517,0.0256950936587776,0.021136794982077232,0.020710529344973173,-0.08655629598919655,0.05088029377467286,0.053750377066372736,0.014246529330092622,-0.02324013932952211,0.01595850513630584,-0.027402780017688595,-0.03518790297455405,-0.025963196795863803,0.034372111395935906,0.018343280130632286,-0.03110736147348349,-0.06904817403860758,0.018493389235409323,0.022275215285038893,0.04518674205203092,0.07398194578194779,0.022018050972072788,-0.016292623641123216,-0.004906299714046811,-0.004498057802281785,0.03562270514512092,0.02155498328524365,-0.017785312713250737,0.01676062435509977,-0.07005278096401053,0.004154031078886482,-0.023879706039091068,-0.0006764615662243194,0.05518682953280408,-0.0696454519326168,0.005786801373919771,0.022964474994998735,-0.061393534210611576,-0.004874923297622714,-0.008988809988370894,0.04836466288662787,0.05510538819315433,-0.04747100800927491,-0.010034680662682045,-0.025035985027837816,-0.014575264515521965,-0.029496694522444963,-0.05763621751620513,-0.01762643081711207,0.026965110462107998,-0.013243023590573116,0.02767540969960506,-0.053175051962199134,0.032616454364339256,0.010079974649945532,0.017183997136749524,-0.024188176641729675,0.06377045145098749,0.009398659753340284,-0.042582408311628225,-0.04024258896607908,0.03743049936924015,0.001243466073434698,0.005937905451004019,0.05172247166889468,0.02832966650492755,-0.022054975715660653,0.02195194463964152,0.033557268660725156,0.04109483091881122,0.02634825032294893,0.019121292067443337,0.026786009400905305,-0.006333881649198547,-0.027302034649275872,-0.025049181445782175,0.014855844299761597,0.13348169131972015,-0.060614581040169854,0.03576735623733788,0.09482058995824569,-0.08044681483963445,0.022693281429704077,-0.03104202525597743,0.03060389950432541,0.000014268881766680157,0.0011618751745763767,0.031775175568134834,0.03897990255226036,0.029292310052563414,0.03217850782743426,0.007061369971700254,0.01990480824703296,-0.01633237851863265,0.006026404290237658,0.013274273198836587,0.004056645796037214,-0.038778880814798834,0.057182474331613,0.014169392701895546,-0.07565694044010528,-0.03728266809578808,0.034590264324527886,0.013666449710794282,0.01659884407215885,-0.018407491717043846,0.0033312390957659166,0.04607320232892568,0.0037063657547263588,-0.011883474216695271,0.03642824139127988,-0.0069527649054213665,-0.02808990521406057,-0.00935144253416825,0.008690782934885071,0.0054141289675773835,-0.013732638958388941,0.015315652154739736,-0.0468098308059408,-0.025363394311147498,0.0018590105111226697,0.0036898029771430837,-0.016135643400113683,-0.007824050404071749,0.00417982976026054,0.01349525628033816,0.06919047255074023,0.0036902898710664996,0.005630837212974017,0.0017384534582395984,-0.04894296386285836,0.05766012308579829,0.0032341063294893165,-0.04480584919225241,0.03403601458153127,-0.016347868506196288,0.015436717505539543,-0.025629186349279773,-0.018201349316790634,-0.020942721343360202,0.02580340419993719,-0.018413748692402917,-0.10165513941515339,-0.026552346021524717,0.016982189597026045,-0.025271243004073657,-0.03459769259230583,-0.025727557140153946,-0.0004683912912972007,-0.00768741132771857,0.026427077589061876,-0.0019269200506688562,-0.0021887322442809463,-0.006250300029087022,0.023059942239427512,-0.017494728125268665,-0.00039054040972520834,0.03367626954848327,-0.010471420360259163,-0.05407856622069807,0.03703895002556948,-0.04903270711899599,0.016091247523974353,0.009412849222899703,0.03407335431608533,-0.017955934823736978,-0.030418394620240027,-0.028237475594342743,0.015624928115972948,-0.04570310510264257,-0.04394720168123372,-0.02078308251566793,-0.004039660965566502,-0.08054421736180935,-0.0306131454951674,-0.0008073273269425236,0.051024389704932616,-0.057218457866888055,0.02967992422287455,-0.050770060329104694,-0.031064824948771597,0.041626426330565756,-0.041530571182672144,-0.05147431545357675,0.005031666353251312,-0.010960389850378243,0.06259730662054364,-0.012845994306815819,0.056140275124031566,-0.026065315385969668,-0.008472742736628722,0.05632169753520273,-0.13480490167823014,0.04438737815860581,0.0087285175572291,0.1244500218766896,-0.013996421823782529,0.008122118154156787,0.002341169543608036,-0.021944019025056126,-0.04144594883995226,0.013966078695570993,-0.005696886963096086,-0.05206878270307026,0.042962276571589124,-0.002449509205652022,-0.0050742918879302,0.06344055255308709,0.003906301352874708,-0.012504180273734272,-0.08487399438662785,0.027148571049499814,0.02598848000400024,-0.02934600570243648,0.03909615042555637,-0.0004352166151722773,0.017075182312487263,-0.0015118375489818184,0.027047344791113415,-0.03211174906340254,0.04008416700075546,0.0848019893355705,0.0490264109190973,-0.004532077073914414,-0.042545781587800674,0.005037733751753718,0.016243335740462012,-0.06895012482835643,0.0013325889567101167,-0.016348508441185988,0.010530703773200652,0.025391239731847502,-0.02429524904954811,-0.008702655529487903,0.0022121082517840207,-0.03954478464946454,-0.0019511358966925962,-0.05174930469669612,0.008497403575004395,-0.007122853956939158,-0.01923831367167898,0.06206594658220779,-0.0896827785878921,0.022895899557343245,0.020833858790403576,-0.0432919982199714,0.04871698981470415,0.0499686831590559,0.073401395393557,-0.026050395998478987,-0.02819598111489338,-0.0027595168483247993,0.01352180134952968,-0.0460590048701726,-0.04265362040113867,-0.0124084883881403,0.00626139170536561,0.018563145561014658,0.03216904506029452,0.046460219384272194,0.07290047522362539,0.051623135908898735,-0.031134494939664407,0.09576005931780922,-0.0594880612218903,-0.020296442711235485,-0.053484510926046724,-0.01758386725514567,0.09447842180549994,0.0082895415818852,0.023706389612172207,-0.01692637902479215,0.008575426789014082,-0.05119639882335593,-0.00954151519554525,-0.02035839497797181,0.018082060013711133,0.00833415092839922,-0.015616748401685929,-0.04543543933382797,0.0014734298463425501,-0.0071014988008535895,0.004841535828805868,-0.030171615776427838,-0.011945957996074077,0.02168056194693906,0.021523097139742323,-0.02836252702982642,0.024869178187355737,-0.05079178358623174,-0.04046079116833218,0.046848117822860844,0.014366836909875726,0.017398009133814937,0.03582470408693716,0.030732266110203844,-0.04170304399966001,-0.04621218732962195,-0.014855783176014672,0.06229476550975179,0.01155215236304799,-0.0007348392293319302,0.03154968413695435,-0.06005466749899374,-0.03499465296828903,-0.014179184908445679,-0.008226650634661275,0.0024476761935132846,0.03735462722180195,0.036626205296651365,-0.0018200035962870394,-0.01634159713649778,-0.03410245813476371,-0.02608555972272507,-0.003488722519263239,-0.04957290517922818,0.059620551413790676,0.01210346221564507,0.005524581591227961,-0.04679790965798977,0.07716661021937576,0.06536992706774586,0.009401314472630273,0.06103437469411721,0.03261882246852148,0.05012626779451774,0.021636368918057473,0.027748665316969845,0.006291671271844359,0.004251850620976954,-0.020686448148968393,0.0359155082152156,-0.04656857315062231,-0.00666432031873128,-0.019079715450375342,0.01031225372641948,0.03859570998003175,0.020380196136418928,0.006199383924404953,-0.0067851402496356536,0.03631389118544573,-0.023899392952459467,0.035282255740102464,0.0012121156747424398,-0.006030286238709623,-0.06069602788920837,-0.037356793677970665,-0.01605269794685756,-0.01995571228578123,0.05615295495514595,0.0252278582925957,-0.005408057818258092,-0.01877737561949731,-0.01941034991625191,0.036419240060457055,0.03879335614919653,-0.02907421752259054,0.0387499213711879,-0.018221412112728628,-0.024173253902261122,-0.02018686097644884,0.019417827051184677,0.1005327634657549,0.023513531250543524,0.02097987089030994,-0.028028065298482407,0.006229274102649622,0.05040707050850246,-0.03042036410043159,-0.041337220942719265,-0.022569245300267264,0.01588367311650597,0.050144940488110044,0.054411501318290555,0.008994584387764475,0.010965599465180338,-0.016169627896743036,0.09212495410314052,0.04979400668176552,-0.006381943651023853,0.003363608042224184,0.0013642569031177164,0.0418962402611463,-0.008397124907516073,0.10670675129664495,0.11048817263394269,0.014007292365969254,0.028545934218891532,-0.03384582389189421,-0.002488525795523084,0.09293041274904454,0.05401694932536516,0.014939381935975559,0.01095295621792352,0.03141097152461083,-0.004671453066690704,-0.015354834197624177,-0.002175561580704339,0.012358088084312739,0.017034415001587856,-0.04251772568223509,-0.03894554465377121,-0.002991549623291343,0.011461699243403503,-0.010519868912863058,0.06844185501008167,0.023530876344132104,-0.025108763848645268,-0.10928553051198718,0.037045896687201,0.04476728429195502,0.018715099064274293,0.044974916515148365,-0.05713330570360443,-0.008111250079836154,0.009161008852870406,0.04471022933297578,0.040967316097799876,-0.015921280351172518,-0.006476591058288816,0.009723925685201421,-0.017735386684979638,-0.005759120831436051,-0.007612007803832419,0.025546364162337368,0.022080313802788038,-0.011938358778686365,0.005597361740458019,0.02391751204484969,-0.038471950545513514,-0.04001069390808337,0.014894689098347888,0.012906787393258595,-0.014903075964363818,0.012441413751016763,0.06420550030566179,0.03851929976597565,-0.049964092202756785,-0.05874991158599399,-0.012923745083249217,-0.03692271264594126,0.04041726977245726,-0.008174675457220842,0.020800092909468805,-0.005497356762369168,-0.06591292003084098,-0.03141909690961905,-0.02691547924532389,0.03436944276878136,-0.03678912652248848,-0.008916197416288553,-0.05195534804559603,0.009674398072675802,-0.022791295671383535,0.025880373549502997,-0.08025620046360611,-0.0069719868141815255,0.03465261974601493,-0.029590159904177966,-0.025295556581034915,0.11010119178324534,-0.06453678818176203,-0.0409835297644545,-0.04978573340457888,-0.037618242016058366,0.0148188222044756,0.009548562840862947,-0.011999039615265552,0.032605773795539694,0.034752081378533604,0.019957976807652954,0.07334631888363861,-0.02161563942384019,-0.038223846811220874,0.007963948832051631,-0.005550948467039347,-0.005269416827793588,-0.03973550089270748,0.0017988602287987772,0.046304606253994504,0.005092273137682993,0.029830802832333633,-0.012686961672242253,-0.0013003562467933693,0.028207688221309184,0.016500308912581738,0.02435467908909805,0.04919827881095657,0.04201977820547497,0.02253378285780511,0.05451012988827032,-0.018032586499382622,0.009516918906715995,-0.004190080049548724,-0.04101504853159503,-0.0009281069824968114,0.03920548692307325,0.017369176935341863,0.027502167824813625,0.017259213541232155,-0.011654533379521756,-0.00004141276598312498,0.019748156543314188,-0.0009444589704627772,-0.015787283048348637,-0.015972098746296143,-0.060553748315603756,0.053829743693997595,-0.026795200091723974,0.00935884251346195,-0.01111695707761941,0.05108427206797818,0.023027676877363627,0.03357654965669609,0.0036548901626427253,-0.05101295464587586,0.011108710437408678,-0.04032816601444497,-0.016685750131515492,-0.010485908792230755,0.05722552317187931,0.04053485966570057,-0.02001135954342525,-0.020608659791094552,-0.026039896433106658,0.0008880656978621477,0.03154509546079152,0.019093132523702202,0.0030085361503929572,0.04922804062204062,0.01847361096647967,-0.0234749419469306,-0.009841648851767196,-0.03117476395073522,0.008532048026829747,-0.032685903443957665,0.037658428210253496,-0.01848178185753459,-0.011208457589801086,-0.021552125499869474,0.040069354581717384,0.04417051025242552,-0.02585569933675844,0.013485970542350255,0.006507610708030907,-0.02490299200771689,-0.044947118212852084,0.050861806088273134,0.00192197991382319,-0.027512554890714837,0.05284069050734089,-0.04235431867097984,-0.0442709281118433,0.050183793401394367,-0.017751725005172962,-0.03127237676771512,0.035300986941963514,0.07547679316618204,0.034097368685537706,0.08797865248786318,-0.005210886905028504,0.057996757773585594,-0.08382038245545602,-0.0681242050023688,0.00821324545762628,0.0047088870700561485,-0.010595042099113522,-0.006173098855698128,0.0011718990405253408,0.016890491518459835,-0.023608972842274444,0.0032845000057874383,-0.05013849416459018,-0.04063207181042668,0.025709961046888625,-0.0010715725531868247,0.006185825521014558,-0.013737095534770122,-0.0732528215440623,0.002765943496331754,0.029931293183206416,0.02901125772914748,0.07135638555389018,0.04039768537256687,0.008411529602655255,0.02684718660873154,-0.008259354466717,0.03265655224518194,-0.0054943778352790126,-0.010045826157631433,0.07600838662089515,0.06736396661705427,0.013673706018597548,-0.009243689716861247,-0.010737393784071032,0.03364192853246719,0.05749299122020957,0.03285734470820544,0.006901369082961794,-0.020151523959344345,0.011593269581284574,0.041450203962945374,0.009019781728383539,-0.03361477827444013,0.03147760847728575,-0.005027697366624039,-0.048561575656076814,0.0499603451631664,-0.0507177357372745,0.00691931746142334,0.0016528852259858559,-0.029074664330399905,-0.0071515392550411585,-0.016037260289565574,-0.004311681465561121,0.010424446391121415,0.010197712463320008,0.017135007383316466,0.007826270900085272,-0.03859048916062659,0.0011432725347279573,0.005965717639204148,0.01029675482401378,0.027974127565540238,-0.007989572523269204,-0.0009416991101270037,0.020938662129417113,0.03708239877810654,-0.051322514988500614,-0.047773805692796954,0.023473979161911438,0.06968136148735046,-0.0646320013370576,-0.0030483388063958215,0.010371447920151173,0.03092779095935371,-0.032153076734645555,0.024211476930295083,0.0028884019849920203,0.044824333453169565,0.021463466711322772,-0.022574004072010326,-0.024411947661905072,0.05570513359817873,0.01976961643659899,0.018672489135768886,-0.06430873174831704,0.04818000986639153,-0.04748166995856324,-0.05845191302091729,0.018251092737892976,0.009146002270988413,-0.0025807237127688743,-0.013626913641979462,-0.05100924678339129,-0.06324571563593301,-0.010339825630034025,0.08129474348462347,-0.0410965020304984,-0.03810543397629837,-0.019318131492859426,0.033753163297346636,-0.011371608862745849,-0.04387427098004342,-0.025804780014020805,-0.027881576769939135,-0.021749171460814256,-0.014397225284797302,0.04524270067406756,0.007493751473071631,0.03019154740641477,0.0009606840639728022,0.009241671875637167,-0.025415803338602782,0.0183553595410042,0.061573339533485344,-0.04157420110534132,0.030947134214952474,0.012497955861681823,-0.03569365094783202,-0.04066469494765125,0.04044788387288589,-0.005583074982598271,0.0187820598461366,0.02194766731627946,-0.01810755148595944,0.021519085122004594,0.008304771721011172,0.007856812707886017,-0.0636339961850076,0.003659336661828127,0.04837576870352761,0.04403687354657133,-0.028003012456249577,-0.030312122021651434,0.017021840254130133,-0.0056856583243440634,0.022163585093116823,-0.023833836431118267,0.058934013123731525,-0.03149997734681088,-0.034043350891256326,0.013064399282009576,0.006737720885696915,-0.05462324665457419,-0.0021730030619735927,-0.0049033683729893815,0.03223867799266221,0.06584974098378267,-0.020382993652219624,0.013782898638460214,-0.004478146894155762,0.0014521101834259946,-0.0018810231957443054,0.014564599431512146,0.009812186652319626,0.01497625367735469,-0.033714263946433495,-0.010930909105446826,0.06785794937876012,-0.024287751294906675],[-0.021212825247286772,0.0031545094753276637,-0.0003335229540531684,0.013673841476174481,0.014692556383251707,-0.043310081177254496,0.002897882182341616,-0.03924149671818466,-0.006625753527458829,-0.05471273309404613,-0.09228392973538499,-0.040139285205414675,-0.03195977182423472,0.005085937010679269,0.05033334628169391,0.028839323818739913,0.013581319764687733,0.012976521207232247,-0.03177254472538007,0.0038089965381757017,0.0001806313685426989,0.012633889096753097,0.00876636827129689,0.014643165274731864,0.04699599437964187,0.0004779065394374165,0.0709038091510508,-0.058827970333292304,-0.03541557699431044,-0.016121505032691674,-0.07824847018384144,-0.00208072817286451,-0.06435721809163757,0.006089874328422588,0.040322778678113395,0.06274836025739693,-0.014186830079347573,-0.02449797865752582,0.014482541130705788,0.026742610736165337,0.002627631418827797,0.014786252252523563,0.02689989772267197,-0.046689055751490564,0.01973572798882591,0.015662050209540396,-0.014520430965784238,-0.07501628591322916,-0.04927721762628766,-0.012244004632586677,-0.023406875234528706,-0.019503232823594306,0.014181646526996133,0.04106392998138136,-0.05344209616085808,-0.003723165917430156,-0.012657594369505984,0.003250662139439046,-0.01767690243329998,0.010250214155572028,-0.026123973661058415,-0.03331265499885734,0.05606787502814396,-0.03355738155385476,-0.007338454517749747,0.05298629416199893,-0.038165791552921956,-0.03793535124419421,0.020797803410015952,0.021736607089334253,-0.06098465734171269,0.09850414903159274,-0.023244963492114586,-0.026913869187676256,0.008720616493116411,0.016397710204720677,0.0356217165230495,0.06911693975266503,0.0012976305983322268,0.03607486442869488,0.044733496935517945,-0.05995662532227228,-0.018237352156446125,-0.030814578592923532,0.06174705537863676,-0.004649961493634144,0.012787641290748542,-0.02376000987076209,-0.03470622458900942,0.01617162100348462,-0.04644970176584656,-0.038908616713409935,-0.010623560270723227,-0.0263349336931297,0.05029177099656705,-0.035565254021262364,-0.03267104727481447,-0.0285609660254936,0.034804866836007545,0.0554639223340953,0.061214029741926794,0.012889446283159923,-0.04756181412488479,0.017406369741253338,0.025936806105106656,-0.0055003708820140764,0.0061855325900981376,-0.007388093498431473,-0.0007456414498163675,0.044976477850337974,-0.01383316413800312,-0.043770402677526375,-0.03618217207062456,-0.049975729867859524,-0.00782519563522714,0.04803473060977636,-0.003254171002062695,0.0036572775605564797,0.013636962385462014,0.05833308391363675,0.03318707482348412,-0.052010325506481804,-0.017864034342423445,-0.012351254172966872,-0.001143588921438153,0.05513324619731658,-0.02237483998734203,-0.0030331683613821904,-0.08073287432058923,-0.007222549464686596,0.015686017324995218,-0.003309873352157745,0.027027599623602325,-0.021708959706571097,0.058213247955977376,-0.05494811463602123,-0.03413314927954839,-0.010586526829587838,-0.027880800921101408,0.031486329631229465,0.011878833843629769,0.005096396462872541,0.07153826055587421,0.014369799387945978,-0.05249376001521464,-0.04141714567862007,0.06084872110971285,0.0622674212453571,-0.005361578490968677,-0.054674197260786324,-0.010274742993174402,-0.023620687139914512,0.01876718046313633,-0.0020579560220620858,-0.04527189363122934,-0.04481449356228064,0.04968679479825236,-0.029509889152393217,0.031009290155652916,-0.03485783526853606,-0.02506749941689101,-0.007707026910380536,0.012563592170783639,-0.029374353338043304,-0.04615962644595008,-0.01314779345531504,0.04623048750507135,0.05798386365716061,-0.010803656706657337,-0.03913712430989315,0.0011774879717202122,-0.091008967638474,-0.06873744626698411,-0.0933817463178997,-0.02340122170454942,-0.04365999528622271,0.031989037918315845,0.014165849780773048,-0.06553837335992614,-0.0023509796942591593,0.005251212079972554,-0.008832697445221355,0.03399051698303929,0.028430159699200097,-0.03695308079898805,-0.02430868046110457,-0.01382960382458508,0.04437259171433376,0.022712453809550347,0.024712800130841765,0.02042932536188826,0.019646154109381482,-0.028213974115710482,0.0523272305644664,0.02825811588677604,0.02004018404358162,0.02098345655448052,-0.06420381572264379,0.0017590410216303594,-0.020541690241107836,-0.032470902718219126,-0.03416123889457539,0.004123181556452316,-0.05587762770615009,-0.03030330220530739,-0.04571293298044825,-0.05773055596811905,0.011601281956592113,-0.05782098035616026,0.02050013013056834,0.02770560416453096,-0.08960573149070514,-0.05376506718236038,0.04828188766676516,0.038825626325457274,-0.012286270506918518,0.04045659244555398,-0.03240566032988873,-0.023537135002925598,-0.011743216209734104,0.007160332625041715,-0.020492184728048538,0.03836521260228694,0.00043364169872333203,0.0011867909134556126,0.058689843152851646,0.033731930451103946,-0.0159690290761092,0.013483240695677507,-0.0839772159673733,0.0419255125382752,0.002370733218705283,-0.016047329341252168,0.04052028722104676,-0.019126449498278058,-0.011270090404959318,-0.018067402370219376,-0.05018860512487241,0.060374500918882044,0.0162328859273502,0.02662681700619887,-0.07716775362126473,-0.03049152096741133,0.008223521741006119,0.044164273648382935,-0.04494863968275633,0.02306417200425249,0.057888549993278735,0.005952743150298109,0.039487116050717835,0.024825997149904327,0.03012424146614883,-0.040124323434908654,0.027687413118843377,0.016874718546150226,0.0026195017195965458,-0.06645355223604642,-0.004382030492245396,0.01346211451526469,0.028621037468542988,0.053660089632084115,-0.007036131369009615,0.003911967556039606,0.014963951151672664,0.06130830344138862,-0.014776975822257656,-0.013288654696390238,-0.01853185863383458,-0.029216927110170314,-0.09865302875026763,0.020661544677571298,-0.021339224484910865,-0.034512299893875054,-0.04419657527970119,0.07989756988062507,0.011456770516935865,0.07275150322944139,0.009964976462582525,0.007846980962196099,0.01558762427911922,-0.02829277008177471,0.015323503930191312,-0.02070871398214904,-0.011011250126129251,0.03231257879419181,0.023129097055947418,0.05110844271391859,0.08003370403269747,-0.04832582590015171,0.058058375446748064,-0.01557100348622115,0.015944301822275127,-0.017692502415794488,0.060673816985525986,-0.005676406550974223,0.043563981113728306,-0.002135061003261062,-0.07036226272137017,-0.047841513989554246,-0.0001477307028821204,0.011979946481945333,0.004050677663200887,0.07464982199659138,-0.07699354150588252,0.006961387347848654,0.0027632981814097544,-0.04726514879470404,0.002636681420246998,-0.00970482929706426,0.03074095956820008,0.043153623978718955,-0.023687712176585256,0.009872899564073575,0.044512740366038694,-0.03124177414062574,-0.048680842280313295,-0.00012022290573655485,-0.0032857566318094094,0.023431006487388308,0.03031930022937499,0.021472110172296624,-0.008482662483050345,0.07020044436236622,-0.05469915214160809,-0.006508866770315673,-0.039372556786312116,-0.04486647606663974,-0.03862671651831829,-0.09416200803348111,-0.020829902948944417,-0.010094759077149006,0.051717733436936454,-0.04116279554162524,-0.018098105413015868,0.008167020236762764,0.08275978771168588,0.07932144210856251,-0.0520835366746598,-0.0214459008742377,0.0015279982684160514,0.004875999375209499,0.03334793231015764,0.11301691668142229,0.05628430092645038,-0.017309821541278962,0.04113608008631826,-0.01817598815272473,-0.012211457855473326,0.017426826176666205,-0.06982200555947493,0.019710558006602635,0.0031998346376759692,-0.007205007734092492,-0.0554777431489914,-0.012776081152252889,-0.062032121490646804,0.04301198534980023,-0.037445228374787774,0.040479610307940325,0.0231069515683036,-0.03206973159094444,-0.02455547723305603,-0.019389336105208748,0.07685887225044216,-0.05648339470494414,0.04915535587152998,-0.02681382008164279,0.009768576347654502,-0.020156887995632786,-0.024302057348415392,0.027284005732002167,-0.04444685339442119,-0.007165136060613435,-0.007839253821025561,0.03363168425012452,0.054914259775179566,-0.030313313445525427,-0.011378258965226417,-0.020822568167553065,0.010964688597034145,-0.03853209737389346,-0.030817780081318368,0.027570896317156136,-0.04225766971835867,-0.016026913880362908,0.10855358255275947,0.07692001156113733,-0.02586917801839742,-0.0031599754577013037,0.051766673104326644,-0.007138480400956797,0.023380536171928312,0.008461182892877048,0.03743718794439833,-0.0841349064878283,0.0049234931896248585,-0.007630687175758719,-0.060096823404305964,0.0442927082611721,-0.048251873680132625,0.013969657364876731,0.022660969770497225,0.003771366277247753,0.02567048684576586,-0.00894433816640796,0.07361136016280073,0.03245667529435864,0.06667028249747184,-0.043561957045245306,0.025578061482325005,-0.06631928402578417,-0.006269042137592537,-0.023251140026193877,-0.026857949568238244,-0.02268582614080386,0.01801954400986366,0.03527664021998891,0.01567871083343314,0.01434157023458601,0.036959354850921854,0.021344222080340897,0.0139481755342095,0.004235706353588065,-0.027632255104950355,-0.02180990053578231,0.004851493427932744,-0.06563021503734173,0.008255971578943797,-0.07047764767237369,-0.01953314515741391,-0.055796822891924606,-0.05122564793788699,0.04131611602855106,-0.00024064456094345782,0.010308311692582285,-0.0407105792526748,-0.008029701973671907,-0.043649643898519816,-0.048976915197767625,-0.005574153925385713,-0.01986971416727295,0.0524241626538525,0.00820799143017732,0.024194653586159406,0.022361254587346276,-0.03662698780984511,0.03648029324281044,-0.04247757254872038,0.001751482461805376,-0.04279416523704893,-0.008230243286310696,-0.04469511140268831,0.01668335550931347,-0.020382550907549497,0.022793519336095833,0.024508409052074145,-0.014809445693332986,-0.014931995412059699,-0.001441844689253537,-0.0028697820710571515,0.019872925393697827,0.012145412981975821,-0.07746368690491293,-0.031907566360478284,-0.03909080257429632,-0.04713975744820947,0.00791265577345489,-0.04918220364487735,-0.014076082704469523,0.08663091816361342,0.013099125609227526,0.012628830385774732,-0.00969374149729422,-0.0730234244374868,-0.01421711706442972,-0.028566016564417627,-0.03748719087806256,0.022626882978437155,0.06753366457036052,-0.07462526700069601,-0.004978164614352368,-0.020390259909622347,-0.03807637081252284,-0.04456510095356659,-0.027363902322402198,-0.029593056084458978,0.03706538654583991,0.029467817647253793,0.07864495480715238,0.029958246537829438,0.015941640560894248,0.00151790203673367,-0.044400871215343723,-0.033232910523213754,-0.005140857994765193,-0.013084667206033084,0.006083256490119211,0.05949110564246339,-0.00663761804057936,0.04780520147182447,-0.02222227114744349,0.007264846904063316,-0.005360008853625122,-0.09413284301194189,-0.0034180842413206783,-0.052551527536862666,-0.049759349051655646,-0.022067310081331077,0.013113873127988172,0.0076303709984901075,0.0063345012387132716,0.025340491526311012,-0.004549737671320499,0.028645880526249886,-0.0032961795059483863,0.03243154998090308,0.07829843967145719,-0.07294158207581182,0.026513046161146494,0.004911060118177842,0.018438185094475226,0.06334317086703974,-0.04379017251612125,-0.0056282185976860655,-0.0206882910310893,0.010066110591228647,-0.02151897049847142,-0.011921183709471494,-0.03956797005846268,-0.01482492724494381,0.00890584255245409,-0.029638990733320027,0.036338622240486305,-0.005393275829372166,-0.012423445584493863,-0.04009524152478609,-0.005393889659678603,-0.020982833723260586,-0.031118633919095962,0.03322009831064148,0.04073544355295441,0.06712157335970685,0.02082135727123108,0.051518489836772666,0.033992381764190706,0.05402827204559838,-0.028621327795384354,0.02092673400415968,0.00920436118368284,-0.013385963278810808,-0.03662685731386205,-0.02681921913641569,-0.027064659261818478,0.04594046751297503,-0.01765893349497181,0.03627443430927668,0.0992716782920997,-0.014866491760280254,0.015885961625907954,-0.01781763508366657,0.02846726219343981,-0.02945166105459223,0.021337429251679228,0.04097749839209604,0.028033487914612517,0.04008794083848848,-0.03599709609638737,0.033996164950291195,0.031269274900208574,-0.0334505550908294,0.05865824967737755,0.0406564368914626,0.04462319696092008,-0.023170470464840814,0.0016218081989204064,-0.0035599235874011863,0.030722247965083178,0.031681136430228136,0.06806040870912111,-0.010853344123030698,0.015528319988160691,0.020234474719771026,-0.01779871265731849,-0.017856079223997522,-0.0342708061335127,-0.027090541279326755,-0.006272560145349016,-0.07826719293865052,-0.014208910316703668,0.04158758405082798,0.012136191461294864,-0.043561393013666815,0.031288586236654564,0.04808476499621409,0.018000986080211907,0.0015063364786954687,-0.01140959892533573,0.009239936384124245,0.05431196144549545,0.002722952243081431,0.05436804621175895,0.03466640958785324,-0.013062671695956122,0.010203257507288132,0.016651768740158373,0.02398083786811791,0.09747235381235174,-0.0038404815999726703,0.02670429870877847,0.014073623657349875,-0.018562503890134432,0.05851643804954075,0.014699885024500451,-0.0057916068428197605,0.0012645946694576442,-0.03664397199133778,-0.029369010911664457,-0.015041541701658728,0.013272989046984542,-0.03777593626320382,-0.06672909132220625,0.02117806100759821,-0.008397662218519016,0.008500547669714888,0.01820303607569185,0.03302420640603494,0.04933000007375567,-0.02930764865690273,0.08699178924841298,0.028238526822821762,0.070489057397102,0.06247023562716469,-0.007643654396221289,-0.005525950599460521,0.060128932616767626,0.03177884336106208,-0.0023941535665081564,0.032162650529904545,-0.03729565809623488,0.009672021287025719,-0.018313692332836497,-0.052943022525582105,-0.008909211691044682,-0.011586732780546645,0.004133898990173167,0.0722227726385855,0.029067536968174722,-0.07881849273113943,-0.0010674951519305848,0.001050406160217526,0.0132850029762037,-0.028603298747516822,0.008650386755212286,-0.005049232624856011,-0.04808435497865862,0.0029309048543603444,0.03711346030839787,0.023742662203815976,0.01708709245305606,0.03645979239688851,0.04426263759616017,-0.025051969468415876,0.024109914859237986,-0.0180418306077263,-0.02949293729860326,0.02030363204981327,-0.002094409287519428,-0.05427784193310955,-0.014851642820661209,-0.019753499114785238,0.02558714255886711,0.07519291639029291,0.036235435065347085,-0.05065705209484741,-0.02747960434586017,-0.0002478173463582144,-0.003483288320557221,0.01727295967475318,-0.028675291259585248,-0.08087722875514058,0.026253459813169483,-0.04609002259504251,0.03216063383593647,-0.06319161019929172,-0.027860164944759645,0.04189318042224392,0.05929917699395077,-0.001277799201377584,0.022288225216722125,-0.026974332566284575,0.020928641768003867,-0.014549377030381285,0.036109221416898096,0.028028253744410654,0.08568073243440338,-0.03449470090396405,-0.002189585113989317,-0.010187558233333237,0.0068385772933670435,-0.0024264832104338996,0.05541916438395146,-0.011708055069990059,0.00795268049427725,0.03987480514386087,0.007655416570755451,0.00505544029573456,-0.03583066843446712,-0.03201416430675664,0.016914052488292527,-0.008417092001696994,-0.023659106065954907,-0.023692371658035134,-0.008047377719629836,0.04076299388560083,-0.06778127477850335,-0.017223619310043792,-0.051170843249458864,-0.04387387389817614,-0.026526041608436406,-0.036758397665133724,-0.020036252585942556,-0.06466940253128675,-0.03468463988071033,-0.006840905391365506,0.026470052072343167,0.0317742878835999,0.04885010068725039,0.002459496263941732,0.022012892490654964,0.00741256278415574,-0.002232091826272894,-0.0004784795316421361,-0.04397063825188279,0.04226197971367585,-0.002755583301507193,0.001057798331102756,-0.003630508913621996,0.0406578315753759,0.021983186284260253,-0.02157429902392858,-0.005489181091732134,0.009699117365635211,0.012834658111162358,0.027303326577582106,0.015545544013476336,-0.0509427739433054,0.020022066126262342,-0.014120631457265087,-0.03746861498393013,0.04601184850646347,0.0019465255107194443,0.024143143367405962,-0.057275313111542485,0.045181204097979086,0.013356485848592088,0.01957760560243587,0.013072449490212737,0.051260074193869146,0.02173515924010372,-0.023059922069594417,-0.028043756996100077,0.013721153684885735,-0.03494542016818419,-0.019552613605945283,-0.013458268309918798,0.007173228242570151,0.032847153228827544,-0.054600530932840535,0.06258035738122557,-0.05831591312523598,0.03463795295271352,0.0024289222546422943,-0.08877139351623173,0.03843303860799724,-0.030473752750246663,-0.030804800121681023,0.024732803835325164,-0.006987185221407588,-0.031020161858836676,0.07577540110903948,-0.002204719657623917,-0.0020999047014551467,-0.07439282091449441,-0.00756291858669855],[0.0763882365755107,0.015518228069731013,0.07193613515421426,-0.05611182373542384,0.06591932773291483,0.06750310956297091,0.03914947134464397,-0.06750394816861285,0.014931161819732289,0.06870176399364454,-0.00808180777407089,-0.016538541796220527,0.005062227126435216,0.004170283906488867,-0.008449157835223785,0.03190474824101197,0.00480732491191106,0.022074060119047677,-0.018214618606795633,0.03555218953559462,-0.04870983640165888,0.003166878282993303,0.06194349567461149,0.011472378857351745,0.02893316031263547,0.021343434522493574,-0.04326557391989572,0.018394024350279307,0.01587458696356401,0.005086910827900616,0.03115203406133422,0.032522872770023595,0.06032392890131294,0.028630946920827065,0.01109126073771281,0.0015866506651541113,0.01783840834842395,-0.002893164384302166,0.07045220603269024,0.016623748039711315,-0.011790980263873518,0.00905185731628257,0.022635621919188116,0.0026245295374815116,-0.019098489603733615,0.08209019964860371,0.026416708251765394,-0.001516287413013836,0.029034045414638207,0.024907294355205358,-0.004883210698900653,-0.03048890048599566,0.024189578438623672,0.04013814390813914,-0.025370840865977826,-0.026731015513492967,-0.0012163137760990467,-0.058209257471033185,0.03297800336311675,-0.0058938240781936015,-0.06326124411457518,-0.015671101472438425,0.010694816941051092,0.05956780051388359,-0.018650063732175343,0.06758752513228569,0.030329440456726316,0.03907804911392787,0.02505003140523115,-0.0041397427848541375,0.1028593657267398,-0.01538117756324835,-0.0888007723992206,0.024844854184443203,-0.07814858597553631,0.012617747308958885,-0.015408706533239034,-0.028569020918439627,0.0019033917298729188,-0.013277468557059649,0.053364573336431485,0.01398414328540554,-0.018525596179438292,-0.00665477691900554,0.06562788895985108,0.02437076178599085,0.03126447382112669,0.012452568970630044,0.007856157368898206,-0.02670940411722357,0.041675030220972756,-0.0538658400896814,0.013129069296654253,0.034413630415494466,-0.016585675678744215,0.03865134705753551,-0.02733582361812303,-0.052928461734615184,-0.05223245903722444,0.013460316992719275,0.05928162543687895,-0.04718496223839782,0.0005040224339768598,0.058567323832841536,0.011085112894297826,-0.05364829856110881,0.0265588058299973,0.0390481176327896,-0.020688753344573572,0.05223003143646371,0.009595726455694996,-0.034300544654887404,0.04215543659781688,-0.048879580348819285,-0.04546566928258366,-0.025085028039955118,0.0013473404378171966,0.0022930343016903,0.07203458441734954,-0.0005083587681133686,-0.027959945693551813,0.026396386458905182,0.02284265479711013,0.014873368508609132,-0.03666078659807851,-0.007733298680054663,-0.016897226299196953,0.02619564601059347,-0.019456696332684934,0.006767703504469587,-0.006515009964583611,0.025901823058129967,-0.044569522716442496,-0.01087774033032933,0.00908184615261405,-0.039757865173898566,0.0016244615378403046,0.013722553577604763,0.006733645726155694,-0.03322346721391313,0.0342755573428599,0.003870336868763384,-0.0017672022998889857,0.04332883779445838,-0.08905649336827669,0.0392218877758523,-0.015113880495703676,-0.014751082685787016,-0.05539401358795637,0.03174383977495524,-0.0236284771871561,-0.02445347316647744,-0.031770556963853364,-0.009433151641699205,-0.03885557562809738,-0.004712685891112513,-0.00015225374265513857,0.044915657487897435,0.0013188909351296977,-0.02190708087873896,0.03550298784450519,-0.005082281604779883,0.029646374318067145,-0.006828835859823391,0.0132872178775728,-0.050054250318450545,-0.01794269273466418,-0.027101449317260533,0.011591989314404624,-0.04464718638264635,-0.010286668627915089,-0.02746287398048973,0.01480088993569114,0.06188807713766202,0.05912014442716477,-0.059460287349491533,-0.023564474263351738,-0.05287354106522133,-0.011220959846167064,-0.012649838776746044,0.01459618952175475,-0.044853378947953486,0.0024199814979166206,-0.013001337309445879,-0.04811154929389525,-0.029364991383285036,-0.022326044014180594,-0.022318774247700533,-0.05850587281158439,-0.0075524283850980254,-0.03600848216516692,-0.024790553071803223,0.0753528902491607,0.0674199589884918,0.05354038388741929,0.033013771372451345,-0.0334197421575814,0.03798629613335785,0.025252953866799772,0.03283717091990471,-0.0483969507895814,-0.06910591115627619,0.07874787903941309,0.006551769547127191,0.06173462625149854,-0.03492812603288362,-0.0563927940525647,-0.013021062830534703,0.00142295580157833,0.029501989054300813,-0.0006380520147782314,0.02416105699819383,0.002858169370746566,0.013050450767260888,0.036095389249246546,0.005059047162674989,0.031181664294307687,0.014802127228992098,-0.028308307612723137,-0.042812035550818896,0.0269932517342196,-0.06857254267265109,-0.07128370350373577,0.02265052426594598,-0.030384413769051162,-0.005357296465990561,0.0072995064306342035,-0.06672490089173042,-0.0012141151906337278,-0.031997670014941165,0.0006672157533533968,-0.001454548335939582,0.04120861066527832,0.009443865964171945,0.06387510125620488,0.003799401751267543,-0.03638627138166744,-0.039697312583778836,0.02258641950476246,-0.03217222739354455,-0.036020575781077355,0.010125590853173666,-0.011525631856124706,-0.010363074234921645,0.01864245276455576,0.01702547199552465,0.00869468696637294,-0.037882135044637916,0.06760239850755916,0.03637651942355113,0.026394794246657163,-0.016664446690137037,-0.0070645017442996115,-0.04411238190642694,0.007533694347023753,0.030517140584547065,-0.05792460157727216,-0.06408866601347382,0.0023485547885595277,-0.011431136771260663,-0.02992806575191805,-0.04795988254303711,0.00024132509243956227,0.03596300612330312,0.018682005937477018,-0.046068599762068244,-0.0013060660329917647,0.016678506138397598,-0.02446857029247181,0.05265500135302691,0.0014922238736829554,0.027692369242993918,-0.040196964618300475,-0.019779262903083756,-0.01530421612851365,0.0283825809153168,-0.016947207625464488,0.00022263251973863104,-0.03376427896290812,0.0035207538059507256,0.03245295240071438,0.05924699514827297,0.020374229574011214,0.019376619142378818,0.00600310063822604,0.02542478449788886,-0.04350439737002073,0.024743759693354943,-0.03611654440656165,-0.06019550374339062,0.007830208523055568,0.03284659618254478,0.042617126259752044,0.0037412652693955654,-0.011176282887628813,-0.010366202984305116,-0.01834830342117484,0.04805213240208314,-0.0055862747269922455,-0.010821559263726872,0.029772410252552547,-0.047170834273603655,0.018025234318598912,0.0051702615073260785,0.032265714818967034,0.005175154872189004,-0.015654819129104023,-0.029637960805656907,-0.030795283801656213,-0.011732432082325118,0.0203811827666262,-0.010852878958062785,-0.03957771228750399,0.004018185038482017,0.0006250767022525613,0.058026760356836064,0.014893381987287997,0.025434883748936363,0.030087495515499565,-0.07207510035193547,0.037218467675642894,0.043637184956527075,0.050952928662206555,0.004820980304344378,-0.0020530260980601367,-0.024958959946083215,0.02532562777259161,0.054166331875725136,-0.03121614196757483,0.00872129866461344,-0.07006997761026912,0.04231301242821585,0.021132518819536046,-0.011348120257832993,0.05153155667819846,0.021431468918369855,0.0034816551840784137,-0.014774348215436058,0.02532643783829045,-0.05259190987826614,0.023980120478530396,0.015135587850579262,-0.06133995323658383,0.006680175109548403,0.011533357999542752,0.04230406644424454,-0.008659063360608212,0.012165266055068999,0.03057215877965204,-0.0014111846830939432,-0.0290466836228609,0.0759108871156126,-0.009584355863189129,0.02547594763432223,0.01698991042268155,-0.008187969761213512,-0.029488916001443446,0.017398252098659604,-0.08054521585182207,-0.002079133641813141,0.0699623072737653,0.015804846441762277,0.04324811529672683,0.014872968162249728,-0.013930163331063282,-0.03330418486535296,0.024319855677109935,-0.011031571081985176,-0.005194401602154651,-0.009543610810812096,0.007708388052889086,0.03984491820364833,0.017424478643157458,0.06589795226728468,-0.027649144135733855,-0.04530945488812976,-0.05926200175019439,0.0007640754548332505,0.027579164189103385,0.008414616063496498,0.06780637151427545,0.012673462143052957,-0.018034259618050223,-0.00441702684900366,0.006677769384719958,-0.022893393540965996,0.06357505336083467,0.02221798341175856,-0.020464546635072658,-0.11367236919960377,0.01953320271873703,-0.007328631143862436,-0.03134042529345497,0.011665524199756252,0.0399654607842257,0.07270302113595713,-0.03950007686330638,-0.04560909432129978,0.06651808935036141,-0.03831052347308227,-0.02764974451307962,0.08641385349696515,0.003193617135713959,-0.010622922678860853,-0.024852317036657155,0.0034173862057297923,-0.010253813486262614,-0.026960958378761044,-0.01858081966798453,-0.04890790051794876,0.05790151247626594,0.01880463310801686,0.03528105105611378,-0.045994417944515004,-0.003916089295535409,0.02584834861823398,-0.007872694246975745,-0.007743126622771612,0.014264612182460366,0.021106983128877845,-0.004653795054145258,-0.021435079507386868,0.06884492628074235,-0.0029966560440846915,0.044228923315122036,-0.03325611448360562,0.05728359174744043,0.041412346564931396,0.038760450560419754,-0.0508430741639421,0.006398454960582351,0.0037662898147020635,-0.01251285327806077,0.0069881733374811145,0.05608098699679459,0.01814386316544708,0.00633629923858706,-0.02266887196978033,-0.02639782581831177,-0.026628128718258662,0.013393449315643336,-0.05180325861440296,0.03089020453913508,0.058310619408673485,0.06202371922034502,-0.09093671802642095,-0.029530337146524022,0.029721043043047853,-0.02541273026234377,-0.0844394785173621,0.07755456690342726,-0.10584737753346413,0.04400399599282894,-0.013724569562208615,-0.0011808699173233136,-0.00846441965446679,-0.02179848597710744,-0.049665448877257594,0.00623662540419634,0.020796089449512046,-0.022889306493727786,-0.02211728506425594,-0.00836221055874708,0.010106097633065162,0.008541131041790238,-0.0062468483361703365,0.06383211425645817,0.005758975365823654,0.03000942784082255,-0.061703279568270264,0.034722033293135626,0.07168035801164337,-0.03834791731000972,0.006628278816265552,0.009007808184529271,-0.012719546293206898,0.025520511831005458,-0.05571071336934491,-0.0657233410376239,-0.039700755245402605,0.03403056548313847,0.043827613142367716,-0.009983499132152103,-0.03328692179713197,-0.05398312441199979,-0.02301013141352269,0.043622937019446514,0.02901923833922163,0.05413157779832738,0.052330987578770215,-0.038399803288069405,-0.04994745379933114,-0.02478712996400015,-0.012942507691527785,-0.016381480846212968,0.03579588165679173,0.04664533438078981,0.02209257490721341,-0.012956267157645135,0.0005174972734485052,-0.024753329819294075,-0.028602958774705298,-0.02684347572298485,0.026996515064380354,0.00851804449838012,-0.019627293906897495,0.04061168217114652,0.036040341970455525,-0.031237073455078465,-0.03257106181225004,-0.02979426966422045,0.015322769284180396,-0.03150347687574812,-0.040916213161602384,0.010250686602846858,-0.048631376933852694,0.021669377296257484,-0.023140061377093613,-0.03365072271321719,-0.015650246315635354,-0.0058235521051481125,-0.0031952543409272762,0.02901650146803421,0.004826175319696593,-0.006148602055849656,0.012703624239395991,-0.03523909766616009,0.006107116852088698,-0.09431666649878631,0.003996351451230627,-0.006445210317122455,-0.03319460575634617,0.026626738149989955,0.06984260349848637,-0.003498706582903736,0.030107551664137047,-0.03496250364325663,0.048652419932804794,0.008245148541437616,-0.01330613137564766,-0.04642937991993249,-0.022326121569320134,-0.01790422011933023,0.029879369777634012,-0.014160355014604978,0.0021835891195047087,-0.032723710437017245,-0.02876690063454308,-0.014272108986170682,0.06916985321434883,0.03466614625026036,-0.08645332419115544,-0.007973755622194916,-0.03286788787017444,-0.06335543080845234,-0.013398649222758503,0.033809652716792045,-0.0701148532232556,-0.03456326981402767,0.012202225323685197,0.012447224379310128,0.04314042030363439,-0.01790775044288153,-0.031749351924066936,-0.010596686363933665,-0.06879061939186146,-0.024594121177357337,-0.044875632369511094,0.04385624280340497,-0.0226361221262417,0.03442038318494141,-0.014582084248206825,0.06434608453498392,0.021534143423508182,-0.0005057249065941007,0.043384360566767706,0.025644500600686227,-0.03287586473419599,0.024549323547064395,-0.0005040960995688246,0.008740885842411882,-0.015809843659790376,-0.04700042545465979,0.029607653568104384,0.010154852748324863,-0.026494320788855656,0.0330467415167516,-0.06586252703781283,0.000955334402695151,-0.02049055282025317,0.033240123186294546,0.006708927691412918,0.03564227780725844,-0.0016448319417482322,0.027612251379169783,-0.035782069371954196,-0.00998466466069319,-0.06749982591858324,-0.04455079150757411,0.03048820256085462,0.032620555533320286,0.05724458399759403,0.028950043104537096,0.03869774350483715,0.016323104034470237,0.013590208395666858,0.010704211369131505,0.032327553135845725,-0.06271537046191701,-0.01676773598750354,-0.021273496754781643,0.017966794447162846,-0.024199731840892472,0.09598534076302524,-0.11608168561105442,-0.0984421652773975,0.02690910874152832,0.02046549044794294,0.04108768449987699,0.09594605163968765,-0.05075200728577842,0.017195989928330303,-0.009940765547800046,0.04632642904534403,-0.007293298367461338,-0.050905776139221544,-0.022413472135961975,-0.04834554384350774,0.018446749479562,-0.021230685602908146,-0.0016228097016981128,0.06197522847027047,0.07013707209294225,-0.009446654754939015,0.027217580165461976,0.06417350304861387,-0.03488313132080653,0.016430651208770325,-0.009111643454209483,0.06314091367601102,-0.004495752414928782,-0.019162160892461234,0.018069193702042054,0.014375239614166981,-0.016469963002058295,0.03325503713870534,0.0342948004172475,-0.006555391855602108,0.01890945856956762,0.051385217657171904,-0.02943447590468226,-0.036039058959298854,0.035970022877647626,0.011677529564197256,0.1285672192449545,-0.003188560907505116,0.0039208604000709356,0.1056822546291302,0.0678246151576219,0.0004560301325258054,-0.05858814650079541,0.035982625179360093,-0.00026620420685792773,-0.040346031094652325,-0.014699377809668495,-0.008619509842378505,-0.029577628794455527,0.006493507212846366,-0.004406992394336339,-0.03268127398211632,0.009273483231160465,-0.07432612743078197,0.015411029957134096,0.038396626888362054,0.007602298118636664,0.04924149908404902,-0.00025220666085074055,0.06734264157446583,-0.01995436165072817,0.023559507146126486,0.02833740639892672,0.013715831090811507,-0.02762715519398048,0.012722311650424279,-0.032858402613466245,0.001453186942479091,-0.04445799405177455,0.008156233902153396,0.07630111661445374,-0.03628491328761019,-0.05350128303597155,-0.00469286485113412,0.013961307044993489,0.04114257187474697,-0.05596046615314619,-0.03544315274984207,0.026798210467126864,0.007140350908286841,-0.027827035239933757,-0.037849630175246056,0.030362339571015567,-0.05656652535108986,-0.04909049199177994,-0.04738994302214271,-0.012365754011393138,0.05374617003937674,0.00947169900426478,0.026764520387509573,-0.05070783880428738,0.047476998121630566,-0.033745607029957506,-0.051785655964751806,0.004172192830876403,0.06230432518297031,0.008059716115134367,-0.027916893088583167,0.046293072166097134,-0.05492077912215835,-0.04782704062120326,0.019616708650224177,0.017117361776396146,-0.019724564457342098,0.023672549617984495,0.01906720621533294,-0.0015789775585492152,-0.043052492824058014,-0.022203328908979605,-0.060272843561055015,-0.004595616902303667,0.053625599409721995,-0.007997771105344244,-0.04015419152578913,-0.0554963517934829,-0.0030651481475107226,-0.04204192615689117,0.021574287571823086,-0.03348361091256226,0.04249179999736591,-0.0028112108209794643,-0.02070755572706683,-0.012344353991133646,0.022137922745617395,0.016011336011293505,0.06770317022196295,-0.005760473640659916,0.05879786430496038,-0.011816341217865779,-0.008118678776045432,0.0013986255508181163,-0.02756395940093369,0.016379116751568206,-0.011919459929609752,0.024217701172226404,0.043349128416820974,0.024203212272555525,-0.004024035693243459,-0.06736810474133578,0.0930715720334245,-0.003724169388779485,0.005429957042690664,-0.015332827743473098,0.04346198814621856,-0.003318807997393029,0.015584574238705132,-0.018229156877195347,0.01666134617065027,0.02315491178703898,0.005634274370877306,0.009737127897901734,0.014139378345135655,0.03339474865188548,0.01027576684136957,-0.007548688903123687,0.06146497741867446,0.05054555275579858,-0.0047801370751259335,-0.010272856395728051,-0.0020118872267608045,-0.04746658520648031,-0.0337874550637394,-0.024712840378916145,-0.019976924298929843,0.03448735173035091,-0.08374724616172544],[-0.021434299271997703,0.024051068084472126,0.010421347073021723,-0.04960402259703122,0.008764761730151163,0.005382678923873519,-0.03046786656184044,0.026093784988793556,-0.0216714487872951,0.019401778595234783,-0.07236577393380282,0.03319826262723023,0.004563371106645638,-0.020459444944046706,0.051016441012194026,-0.02216525511487653,0.005133908743925497,0.053857589564859365,-0.028106857329273417,-0.11026326571164421,-0.008227078247158088,-0.024074282549397478,0.0854941786719067,-0.031112509882590508,-0.0032707976144196018,0.021414853841988487,0.04384340848740017,0.01580418432651633,-0.014406619973656354,0.025703693069588498,-0.00972093888514693,-0.058824720051324,-0.028163777967338374,-0.07704515340669676,